%YAML:1.0
---
opencv_ml_rtrees:
   format: 3
   is_classifier: 0
   var_all: 36
   var_count: 35
   ord_var_count: 36
   cat_var_count: 0
   training_params:
      use_surrogates: 0
      max_categories: 10
      regression_accuracy: 0.
      max_depth: 5
      min_sample_count: 10
      cross_validation_folds: 0
      nactive_vars: 0
   global_var_idx: 1
   var_idx: [ 0, 1, 2, 3, 4, 5, 6, 7, 8, 9, 10, 11, 12, 13, 14, 15, 16,
       17, 18, 19, 20, 21, 22, 23, 24, 25, 26, 27, 28, 29, 30, 31, 32,
       33, 34 ]
   var_type: [ 0, 0, 0, 0, 0, 0, 0, 0, 0, 0, 0, 0, 0, 0, 0, 0, 0, 0, 0,
       0, 0, 0, 0, 0, 0, 0, 0, 0, 0, 0, 0, 0, 0, 0, 0, 0 ]
   cat_ofs: [ 0, 0, 0, 0, 0, 0, 0, 0, 0, 0, 0, 0, 0, 0, 0, 0, 0, 0, 0, 0,
       0, 0, 0, 0, 0, 0, 0, 0, 0, 0, 0, 0, 0, 0, 0, 0, 0, 0, 0, 0, 0, 0,
       0, 0, 0, 0, 0, 0, 0, 0, 0, 0, 0, 0, 0, 0, 0, 0, 0, 0, 0, 0, 0, 0,
       0, 0, 0, 0, 0, 0 ]
   missing_subst: [ 0., 0., 0., 0., 0., 0., 0., 0., 0., 0., 0., 0., 0.,
       0., 0., 0., 0., 0., 0., 0., 0., 0., 0., 0., 0., 0., 0., 0., 0.,
       0., 0., 0., 0., 0., 0., 0. ]
   oob_error: 1.9292499935229060e-01
   ntrees: 50
   trees:
      -
         nodes:
            -
               depth: 0
               value: 5.8703624412438655e+00
               splits:
                  - { var:33, quality:7325298., le:1.7150948047637939e+00 }
            -
               depth: 1
               value: 5.9578606335631381e+00
               splits:
                  - { var:16, quality:3.2540365000000000e+06,
                      le:2.7364742755889893e+00 }
            -
               depth: 2
               value: 5.9680448818575194e+00
               splits:
                  - { var:18, quality:2609331., le:8.9865013957023621e-02 }
            -
               depth: 3
               value: 5.9763823743145936e+00
               splits:
                  - { var:22, quality:2.1626042500000000e+06,
                      le:6.4229774475097656e+00 }
            -
               depth: 4
               value: 5.9789784605942033e+00
               splits:
                  - { var:24, quality:1.8638047500000000e+06,
                      le:2.4438539123535156e+02 }
            -
               depth: 5
               value: 5.9803277358643632e+00
            -
               depth: 5
               value: 5.9554612937433724e+00
            -
               depth: 4
               value: 5.9602900963024608e+00
               splits:
                  - { var:22, quality:2.9911737500000000e+05,
                      le:2.3587493896484375e+01 }
            -
               depth: 5
               value: 3.8591549295774650e+00
            -
               depth: 5
               value: 5.9781774580335734e+00
            -
               depth: 3
               value: 5.9283297930925967e+00
               splits:
                  - { var:19, quality:4.4834175000000000e+05,
                      le:2.4968727111816406e+01 }
            -
               depth: 4
               value: 2.3252032520325203e+00
               splits:
                  - { var:9, quality:7.2084033203125000e+02,
                      le:1.0850000000000000e+02 }
            -
               depth: 5
               value: 2.2016806722689077e+00
            -
               depth: 5
               value: 6.
            -
               depth: 4
               value: 5.9635367016205914e+00
               splits:
                  - { var:22, quality:4.4767750000000000e+05,
                      le:4.9995861816406250e+02 }
            -
               depth: 5
               value: 5.9615839243498820e+00
            -
               depth: 5
               value: 5.9946236559139781e+00
            -
               depth: 2
               value: 5.9173410090696787e+00
               splits:
                  - { var:6, quality:6.4473712500000000e+05, le:39. }
            -
               depth: 3
               value: 5.8905510609067315e+00
               splits:
                  - { var:16, quality:2.2791770312500000e+05,
                      le:2.5443561553955078e+01 }
            -
               depth: 4
               value: 2.5818181818181820e+00
               splits:
                  - { var:0, quality:3.9589114379882813e+02,
                      le:3.1219338989257813e+02 }
            -
               depth: 5
               value: 2.3265306122448979e+00
            -
               depth: 5
               value: 4.6666666666666670e+00
            -
               depth: 4
               value: 5.9185652709359609e+00
               splits:
                  - { var:4, quality:2.2755703125000000e+05,
                      le:3.3527612686157227e-07 }
            -
               depth: 5
               value: 5.9060245310245314e+00
            -
               depth: 5
               value: 5.9915966386554622e+00
            -
               depth: 3
               value: 5.9321362333501941e+00
               splits:
                  - { var:24, quality:4.1742918750000000e+05,
                      le:5.6832092285156250e+01 }
            -
               depth: 4
               value: 5.9245705750560118e+00
               splits:
                  - { var:31, quality:3.2908278125000000e+05,
                      le:2.5266790390014648e+01 }
            -
               depth: 5
               value: 4.1481481481481479e+00
            -
               depth: 5
               value: 5.9297025465439761e+00
            -
               depth: 4
               value: 5.9606267577340297e+00
               splits:
                  - { var:18, quality:8.8432804687500000e+04,
                      le:1.5572814941406250e+02 }
            -
               depth: 5
               value: 5.9500000000000002e+00
            -
               depth: 5
               value: 5.9964850615114234e+00
            -
               depth: 1
               value: 5.8039947376695160e+00
               splits:
                  - { var:5, quality:4073106., le:5.0000000000000000e-01 }
            -
               depth: 2
               value: 5.9632878057489735e+00
               splits:
                  - { var:31, quality:1.5934663750000000e+06,
                      le:2.4391628265380859e+01 }
            -
               depth: 3
               value: 5.4680851063829783e+00
               splits:
                  - { var:12, quality:7.1001108398437500e+03,
                      le:3.2257000732421875e+02 }
            -
               depth: 4
               value: 5.6862745098039218e+00
               splits:
                  - { var:34, quality:6.6991274414062500e+03,
                      le:7.7804557800292969e+01 }
            -
               depth: 5
               value: 3.2500000000000000e+00
            -
               depth: 5
               value: 5.8936170212765955e+00
            -
               depth: 4
               value: 4.0322580645161290e+00
               splits:
                  - { var:31, quality:5.3160083007812500e+02,
                      le:1.3034338951110840e+01 }
            -
               depth: 5
               value: 5.0714285714285712e+00
            -
               depth: 5
               value: 3.1764705882352939e+00
            -
               depth: 3
               value: 5.9658986381890386e+00
               splits:
                  - { var:18, quality:1.5864813750000000e+06,
                      le:3.5991296386718750e+02 }
            -
               depth: 4
               value: 5.9662530571947849e+00
               splits:
                  - { var:9, quality:1.5864187500000000e+06,
                      le:4.5500000000000000e+01 }
            -
               depth: 5
               value: 5.9664997642409681e+00
            -
               depth: 5
               value: 5.5999999999999996e+00
            -
               depth: 4
               value: 3.3333333333333335e+00
            -
               depth: 2
               value: 5.7101418784762856e+00
               splits:
                  - { var:21, quality:2.4798127500000000e+06,
                      le:6.6666076660156250e+01 }
            -
               depth: 3
               value: 5.7222022050875552e+00
               splits:
                  - { var:3, quality:2.2719332500000000e+06,
                      le:7.9100013732910156e+01 }
            -
               depth: 4
               value: 5.7208894174982596e+00
               splits:
                  - { var:6, quality:2.2569367500000000e+06, le:19. }
            -
               depth: 5
               value: 5.8383054137305370e+00
            -
               depth: 5
               value: 5.6593877776549899e+00
            -
               depth: 4
               value: 5.9274376417233556e+00
               splits:
                  - { var:34, quality:1.5496418945312500e+04,
                      le:2.5360231018066406e+02 }
            -
               depth: 5
               value: 5.7763157894736841e+00
            -
               depth: 5
               value: 5.9589041095890414e+00
            -
               depth: 3
               value: 5.5846084608460842e+00
               splits:
                  - { var:7, quality:2.0809290625000000e+05,
                      le:2.5000000000000000e+00 }
            -
               depth: 4
               value: 5.7597662257766844e+00
               splits:
                  - { var:33, quality:1.0786435156250000e+05,
                      le:3.5826635360717773e+00 }
            -
               depth: 5
               value: 4.5000000000000000e+00
            -
               depth: 5
               value: 5.7628738822078320e+00
            -
               depth: 4
               value: 5.4178623718887264e+00
               splits:
                  - { var:7, quality:1.0032900781250000e+05,
                      le:1.9500000000000000e+01 }
            -
               depth: 5
               value: 5.3514070006863417e+00
            -
               depth: 5
               value: 5.8043912175648700e+00
      -
         nodes:
            -
               depth: 0
               value: 5.8689885240270829e+00
               splits:
                  - { var:7, quality:7321095., le:6.5000000000000000e+00 }
            -
               depth: 1
               value: 5.8940089089562928e+00
               splits:
                  - { var:6, quality:5724681., le:1. }
            -
               depth: 2
               value: 5.9408684620264118e+00
               splits:
                  - { var:4, quality:3060206., le:4.1500055789947510e-01 }
            -
               depth: 3
               value: 5.9305752963417833e+00
               splits:
                  - { var:7, quality:2.5490087500000000e+06,
                      le:5.0000000000000000e-01 }
            -
               depth: 4
               value: 5.9398549593403631e+00
               splits:
                  - { var:34, quality:2.4860942500000000e+06,
                      le:7.2018035888671875e+01 }
            -
               depth: 5
               value: 5.9130540278227111e+00
            -
               depth: 5
               value: 5.9543456871105285e+00
            -
               depth: 4
               value: 5.6042914171656690e+00
               splits:
                  - { var:33, quality:6.3168707031250000e+04,
                      le:4.5934700965881348e-01 }
            -
               depth: 5
               value: 5.9777282850779514e+00
            -
               depth: 5
               value: 5.3010849909584090e+00
            -
               depth: 3
               value: 5.9932574799831437e+00
               splits:
                  - { var:16, quality:5.1142153125000000e+05,
                      le:6.0400585937500000e+02 }
            -
               depth: 4
               value: 5.9984834698210499e+00
               splits:
                  - { var:16, quality:4.7452806250000000e+05,
                      le:8.5470466613769531e+00 }
            -
               depth: 5
               value: 5.9974937343358397e+00
            -
               depth: 5
               value: 6.
            -
               depth: 4
               value: 5.9276190476190473e+00
               splits:
                  - { var:27, quality:3.6906710937500000e+04,
                      le:1.1728181457519531e+02 }
            -
               depth: 5
               value: 5.9695982627578719e+00
            -
               depth: 5
               value: 5.6279069767441863e+00
            -
               depth: 2
               value: 5.8419684141764758e+00
               splits:
                  - { var:7, quality:2.6709917500000000e+06,
                      le:5.0000000000000000e-01 }
            -
               depth: 3
               value: 4.3396021699819167e+00
               splits:
                  - { var:0, quality:5.2191546875000000e+04,
                      le:1.9566375732421875e+02 }
            -
               depth: 4
               value: 4.4815010570824523e+00
               splits:
                  - { var:3, quality:3.8087234375000000e+04,
                      le:5.2500000000000000e+01 }
            -
               depth: 5
               value: 4.4381528312259482e+00
            -
               depth: 5
               value: 5.5616438356164384e+00
            -
               depth: 4
               value: 4.0320733104238258e+00
               splits:
                  - { var:2, quality:1.4198758789062500e+04,
                      le:9.7900032043457031e+01 }
            -
               depth: 5
               value: 4.
            -
               depth: 5
               value: 4.2413793103448274e+00
            -
               depth: 3
               value: 5.8971291230679341e+00
               splits:
                  - { var:18, quality:2.6189987500000000e+06,
                      le:1.4362903833389282e+00 }
            -
               depth: 4
               value: 5.9123111905148615e+00
               splits:
                  - { var:15, quality:2.1522557500000000e+06,
                      le:2.7717620134353638e-01 }
            -
               depth: 5
               value: 5.9232488406309951e+00
            -
               depth: 5
               value: 5.8377554906690365e+00
            -
               depth: 4
               value: 5.8290872033774930e+00
               splits:
                  - { var:31, quality:4.6689640625000000e+05,
                      le:2.2710510253906250e+01 }
            -
               depth: 5
               value: 3.7999999999999998e+00
            -
               depth: 5
               value: 5.8327864070589950e+00
            -
               depth: 1
               value: 5.7826523988021696e+00
               splits:
                  - { var:31, quality:1.5969211250000000e+06,
                      le:5.3617401123046875e+01 }
            -
               depth: 2
               value: 5.5205387205387204e+00
               splits:
                  - { var:30, quality:4.5263148437500000e+04,
                      le:3.5181353759765625e+02 }
            -
               depth: 3
               value: 5.5333333333333332e+00
               splits:
                  - { var:18, quality:4.3652546875000000e+04,
                      le:9.0000350952148438e+01 }
            -
               depth: 4
               value: 5.6048462255358809e+00
               splits:
                  - { var:6, quality:3.3726250000000000e+04, le:50. }
            -
               depth: 5
               value: 5.4796460176991149e+00
            -
               depth: 5
               value: 5.7440944881889759e+00
            -
               depth: 4
               value: 5.3153409090909092e+00
               splits:
                  - { var:24, quality:9.9671113281250000e+03,
                      le:3.3743518066406250e+02 }
            -
               depth: 5
               value: 5.3342857142857145e+00
            -
               depth: 5
               value: 2.
            -
               depth: 3
               value: 5.2166666666666668e+00
               splits:
                  - { var:22, quality:1.6360673828125000e+03,
                      le:2.1583871459960938e+02 }
            -
               depth: 4
               value: 5.1320754716981130e+00
               splits:
                  - { var:3, quality:1.3965102539062500e+03,
                      le:3.9900001525878906e+01 }
            -
               depth: 5
               value: 5.1020408163265305e+00
            -
               depth: 5
               value: 5.5000000000000000e+00
            -
               depth: 4
               value: 5.8571428571428568e+00
            -
               depth: 2
               value: 5.7910650989885015e+00
               splits:
                  - { var:33, quality:1.5550501250000000e+06,
                      le:7.3022902011871338e-02 }
            -
               depth: 3
               value: 5.9612113168848406e+00
               splits:
                  - { var:18, quality:1178181., le:8.8679443359375000e+01 }
            -
               depth: 4
               value: 5.9723821749495691e+00
               splits:
                  - { var:15, quality:9.7253631250000000e+05,
                      le:6.5129058837890625e+01 }
            -
               depth: 5
               value: 5.9819373829274820e+00
            -
               depth: 5
               value: 5.9281437125748502e+00
            -
               depth: 4
               value: 5.9094922737306845e+00
               splits:
                  - { var:18, quality:2.0568681250000000e+05,
                      le:8.8792556762695313e+01 }
            -
               depth: 5
               value: 2.
            -
               depth: 5
               value: 5.9108204518430441e+00
            -
               depth: 3
               value: 5.3609120024401404e+00
               splits:
                  - { var:7, quality:3.7716609375000000e+05,
                      le:1.9500000000000000e+01 }
            -
               depth: 4
               value: 5.2973856209150325e+00
               splits:
                  - { var:6, quality:3.0915296875000000e+05, le:215. }
            -
               depth: 5
               value: 5.2924111254374653e+00
            -
               depth: 5
               value: 5.6392405063291138e+00
            -
               depth: 4
               value: 5.6944709246901812e+00
               splits:
                  - { var:6, quality:6.8170171875000000e+04, le:85. }
            -
               depth: 5
               value: 5.4241206030150755e+00
            -
               depth: 5
               value: 5.9383499546690839e+00
      -
         nodes:
            -
               depth: 0
               value: 5.8704141983992919e+00
               splits:
                  - { var:4, quality:7.3244915000000000e+06,
                      le:3.3527612686157227e-07 }
            -
               depth: 1
               value: 5.8581481597233074e+00
               splits:
                  - { var:5, quality:6.5887755000000000e+06,
                      le:5.0000000000000000e-01 }
            -
               depth: 2
               value: 5.9460593186157196e+00
               splits:
                  - { var:30, quality:1.3148427500000000e+06,
                      le:1.9178347778320313e+02 }
            -
               depth: 3
               value: 5.9528718041051496e+00
               splits:
                  - { var:18, quality:7.8728125000000000e+05,
                      le:7.7846588134765625e+01 }
            -
               depth: 4
               value: 5.9674366824380742e+00
               splits:
                  - { var:16, quality:6.3974543750000000e+05,
                      le:2.6354336738586426e+00 }
            -
               depth: 5
               value: 5.9775829860612157e+00
            -
               depth: 5
               value: 5.9325426241660493e+00
            -
               depth: 4
               value: 5.8913196894848268e+00
               splits:
                  - { var:21, quality:1.4755921875000000e+05,
                      le:2.8820565795898438e+02 }
            -
               depth: 5
               value: 5.8955576559546312e+00
            -
               depth: 5
               value: 4.9473684210526319e+00
            -
               depth: 3
               value: 5.9359513791491354e+00
               splits:
                  - { var:30, quality:5.2759693750000000e+05,
                      le:1.9178370666503906e+02 }
            -
               depth: 4
               value: 2.
            -
               depth: 4
               value: 5.9362142666310449e+00
               splits:
                  - { var:13, quality:5.2760131250000000e+05,
                      le:3.0125604248046875e+02 }
            -
               depth: 5
               value: 5.9582658527469787e+00
            -
               depth: 5
               value: 5.9107271418286533e+00
            -
               depth: 2
               value: 5.8370275141640775e+00
               splits:
                  - { var:34, quality:5276381., le:5.0067001342773438e+01 }
            -
               depth: 3
               value: 5.9603708024753983e+00
               splits:
                  - { var:13, quality:2.8014905000000000e+06,
                      le:3.5569782257080078e+01 }
            -
               depth: 4
               value: 5.9201568347888074e+00
               splits:
                  - { var:13, quality:7.8873906250000000e+05,
                      le:4.9908561706542969e+00 }
            -
               depth: 5
               value: 5.9815578518140962e+00
            -
               depth: 5
               value: 4.3847045191193512e+00
            -
               depth: 4
               value: 5.9763702758278381e+00
               splits:
                  - { var:15, quality:2.0148812500000000e+06,
                      le:2.1359875798225403e-01 }
            -
               depth: 5
               value: 5.9845465636437574e+00
            -
               depth: 5
               value: 5.9465843621399177e+00
            -
               depth: 3
               value: 5.7089429395419886e+00
               splits:
                  - { var:6, quality:2.4756055000000000e+06, le:19. }
            -
               depth: 4
               value: 5.8394027535388791e+00
               splits:
                  - { var:34, quality:879267., le:1.1384683990478516e+02 }
            -
               depth: 5
               value: 5.9225369160009684e+00
            -
               depth: 5
               value: 5.8235429943659369e+00
            -
               depth: 4
               value: 5.6418687190939547e+00
               splits:
                  - { var:21, quality:1.5965443750000000e+06,
                      le:2.3026990890502930e-01 }
            -
               depth: 5
               value: 5.6616604829930459e+00
            -
               depth: 5
               value: 5.4685858782338066e+00
            -
               depth: 1
               value: 5.9850114360796143e+00
               splits:
                  - { var:15, quality:7.3607887500000000e+05,
                      le:3.5519485473632813e+02 }
            -
               depth: 2
               value: 5.9864739034550354e+00
               splits:
                  - { var:33, quality:7.3127425000000000e+05,
                      le:9.9141220092773438e+01 }
            -
               depth: 3
               value: 5.9720168954593449e+00
               splits:
                  - { var:15, quality:2.7019875000000000e+05,
                      le:3.3682110595703125e+02 }
            -
               depth: 4
               value: 5.9732369864846779e+00
               splits:
                  - { var:33, quality:2.6664915625000000e+05,
                      le:9.9130699157714844e+01 }
            -
               depth: 5
               value: 5.9737687366167025e+00
            -
               depth: 5
               value: 2.
            -
               depth: 4
               value: 5.8834951456310680e+00
               splits:
                  - { var:16, quality:3612., le:2.3259849548339844e+01 }
            -
               depth: 5
               value: 2.
            -
               depth: 5
               value: 6.
            -
               depth: 3
               value: 5.9950113025177334e+00
               splits:
                  - { var:25, quality:4.6107718750000000e+05,
                      le:4.3357012939453125e+02 }
            -
               depth: 4
               value: 5.9975988337192350e+00
               splits:
                  - { var:0, quality:4.1946668750000000e+05,
                      le:3.5098226928710938e+02 }
            -
               depth: 5
               value: 6.
            -
               depth: 5
               value: 5.7606837606837606e+00
            -
               depth: 4
               value: 5.9691780821917808e+00
               splits:
                  - { var:0, quality:4.1618843750000000e+04,
                      le:1.0094270324707031e+02 }
            -
               depth: 5
               value: 5.9210526315789478e+00
            -
               depth: 5
               value: 6.
            -
               depth: 2
               value: 5.7777777777777777e+00
               splits:
                  - { var:33, quality:4.8436826171875000e+03,
                      le:3.6523710936307907e-02 }
            -
               depth: 3
               value: 4.4444444444444446e+00
               splits:
                  - { var:22, quality:3.9911111450195313e+02,
                      le:1.3229989624023438e+02 }
            -
               depth: 4
               value: 2.8888888888888888e+00
            -
               depth: 4
               value: 6.
            -
               depth: 3
               value: 5.9682539682539684e+00
               splits:
                  - { var:13, quality:4.4884707031250000e+03,
                      le:4.1012420654296875e+02 }
            -
               depth: 4
               value: 6.
               splits:
                  - { var:21, quality:3312., le:8.4385749816894531e+01 }
            -
               depth: 5
               value: 6.
            -
               depth: 5
               value: 6.
            -
               depth: 4
               value: 5.8823529411764710e+00
               splits:
                  - { var:33, quality:1.1774545898437500e+03,
                      le:8.9690093994140625e+01 }
            -
               depth: 5
               value: 5.6363636363636367e+00
            -
               depth: 5
               value: 6.
      -
         nodes:
            -
               depth: 0
               value: 5.8687297382499493e+00
               splits:
                  - { var:13, quality:7320088., le:3.3338836669921875e+01 }
            -
               depth: 1
               value: 5.8337388063564370e+00
               splits:
                  - { var:34, quality:1972772., le:5.0260021209716797e+01 }
            -
               depth: 2
               value: 5.9221751356489367e+00
               splits:
                  - { var:12, quality:8.8766456250000000e+05,
                      le:4.4332496821880341e-02 }
            -
               depth: 3
               value: 5.9774676790478143e+00
               splits:
                  - { var:25, quality:8.7056506250000000e+05,
                      le:1.7108575439453125e+02 }
            -
               depth: 4
               value: 5.9798444303116289e+00
               splits:
                  - { var:13, quality:7.3096131250000000e+05,
                      le:3.9477539062500000e+00 }
            -
               depth: 5
               value: 5.9802328995009297e+00
            -
               depth: 5
               value: 3.3333333333333335e+00
            -
               depth: 4
               value: 5.9650866462793068e+00
               splits:
                  - { var:10, quality:1.3962515625000000e+05,
                      le:2.5000000000000000e+00 }
            -
               depth: 5
               value: 5.9676278563656151e+00
            -
               depth: 5
               value: 5.9274193548387100e+00
            -
               depth: 3
               value: 4.3981900452488691e+00
               splits:
                  - { var:7, quality:1.7217685546875000e+04,
                      le:5.0000000000000000e-01 }
            -
               depth: 4
               value: 3.9199999999999999e+00
               splits:
                  - { var:31, quality:5.0364155273437500e+03,
                      le:3.3681085205078125e+02 }
            -
               depth: 5
               value: 3.8300653594771243e+00
            -
               depth: 5
               value: 5.3684210526315788e+00
            -
               depth: 4
               value: 4.6762075134168155e+00
               splits:
                  - { var:7, quality:1.2319846679687500e+04,
                      le:7.5000000000000000e+00 }
            -
               depth: 5
               value: 5.0845070422535210e+00
            -
               depth: 5
               value: 4.2545454545454549e+00
            -
               depth: 2
               value: 5.7654702213525741e+00
               splits:
                  - { var:5, quality:1.0878255000000000e+06,
                      le:5.0000000000000000e-01 }
            -
               depth: 3
               value: 5.9724600309437852e+00
               splits:
                  - { var:15, quality:3.4582943750000000e+05,
                      le:3.3246588134765625e+02 }
            -
               depth: 4
               value: 5.9750782064650680e+00
               splits:
                  - { var:34, quality:3.4238203125000000e+05,
                      le:6.4109489440917969e+01 }
            -
               depth: 5
               value: 5.9007299270072995e+00
            -
               depth: 5
               value: 5.9807973048848959e+00
            -
               depth: 4
               value: 5.7333333333333334e+00
               splits:
                  - { var:15, quality:3.4798835449218750e+03,
                      le:3.3337286376953125e+02 }
            -
               depth: 5
               value: 2.
            -
               depth: 5
               value: 5.8058252427184467e+00
            -
               depth: 3
               value: 5.6782688045887104e+00
               splits:
                  - { var:5, quality:7.4238325000000000e+05,
                      le:1.5000000000000000e+00 }
            -
               depth: 4
               value: 5.5314531453145310e+00
               splits:
                  - { var:22, quality:305946., le:4.0176019287109375e+02 }
            -
               depth: 5
               value: 5.5239281074058031e+00
            -
               depth: 5
               value: 5.6225425950196595e+00
            -
               depth: 4
               value: 5.7910711541416937e+00
               splits:
                  - { var:16, quality:4.3646625000000000e+05,
                      le:5.4106574058532715e+00 }
            -
               depth: 5
               value: 5.8071106394269041e+00
            -
               depth: 5
               value: 5.6848271821909782e+00
            -
               depth: 1
               value: 5.8818494701566886e+00
               splits:
                  - { var:4, quality:5347854., le:3.3527612686157227e-07 }
            -
               depth: 2
               value: 5.8696916938701484e+00
               splits:
                  - { var:6, quality:4749731., le:1.5500000000000000e+01 }
            -
               depth: 3
               value: 5.9314357747044957e+00
               splits:
                  - { var:33, quality:1.9257863750000000e+06,
                      le:1.0061323165893555e+01 }
            -
               depth: 4
               value: 5.9663268117938824e+00
               splits:
                  - { var:13, quality:6.4591275000000000e+05,
                      le:3.5752416992187500e+02 }
            -
               depth: 5
               value: 5.9774633567737014e+00
            -
               depth: 5
               value: 5.9456007568590348e+00
            -
               depth: 4
               value: 5.9141342369916918e+00
               splits:
                  - { var:33, quality:1.2799083750000000e+06,
                      le:1.0069342613220215e+01 }
            -
               depth: 5
               value: 2.
            -
               depth: 5
               value: 5.9143481825635416e+00
            -
               depth: 3
               value: 5.8290279498995341e+00
               splits:
                  - { var:6, quality:2.8245442500000000e+06, le:41. }
            -
               depth: 4
               value: 5.6427682167704134e+00
               splits:
                  - { var:12, quality:4.3484125000000000e+05,
                      le:2.7399737548828125e+02 }
            -
               depth: 5
               value: 5.6688367311975334e+00
            -
               depth: 5
               value: 5.4891468955073197e+00
            -
               depth: 4
               value: 5.8656454260128426e+00
               splits:
                  - { var:19, quality:2.3898357500000000e+06,
                      le:2.3070666790008545e+00 }
            -
               depth: 5
               value: 5.8832268253268696e+00
            -
               depth: 5
               value: 5.8018264231435808e+00
            -
               depth: 2
               value: 5.9820617077254248e+00
               splits:
                  - { var:33, quality:598473., le:2.6767709641717374e-04 }
            -
               depth: 3
               value: 5.9397993311036785e+00
               splits:
                  - { var:4, quality:6.3300867187500000e+04,
                      le:3.7500059604644775e-01 }
            -
               depth: 4
               value: 5.8719590268886046e+00
               splits:
                  - { var:30, quality:2.6989082031250000e+04,
                      le:2.9756468534469604e-01 }
            -
               depth: 5
               value: 2.
            -
               depth: 5
               value: 5.8918918918918921e+00
            -
               depth: 4
               value: 5.9921026653504441e+00
               splits:
                  - { var:13, quality:3.6372195312500000e+04,
                      le:4.1960754394531250e+02 }
            -
               depth: 5
               value: 6.
            -
               depth: 5
               value: 5.9753846153846153e+00
            -
               depth: 3
               value: 5.9871399866041530e+00
               splits:
                  - { var:27, quality:5.3518037500000000e+05,
                      le:5.8724908828735352e+00 }
            -
               depth: 4
               value: 5.9933786373932740e+00
               splits:
                  - { var:15, quality:4.1229690625000000e+05,
                      le:3.5791217041015625e+02 }
            -
               depth: 5
               value: 5.9937073938122705e+00
            -
               depth: 5
               value: 5.8888888888888893e+00
            -
               depth: 4
               value: 5.9663962920046352e+00
               splits:
                  - { var:16, quality:1.2289372656250000e+05,
                      le:6.0413916015625000e+02 }
            -
               depth: 5
               value: 5.9802163833075737e+00
            -
               depth: 5
               value: 5.7603686635944698e+00
      -
         nodes:
            -
               depth: 0
               value: 5.8684239005133367e+00
               splits:
                  - { var:15, quality:7.3193165000000000e+06,
                      le:2.2094366455078125e+02 }
            -
               depth: 1
               value: 5.8749229502167752e+00
               splits:
                  - { var:12, quality:6663337., le:2.9733757972717285e+00 }
            -
               depth: 2
               value: 5.8943821466055351e+00
               splits:
                  - { var:31, quality:1.8869521250000000e+06,
                      le:2.2802036285400391e+01 }
            -
               depth: 3
               value: 5.3032258064516133e+00
               splits:
                  - { var:30, quality:4.3809648437500000e+03,
                      le:2.6537982177734375e+02 }
            -
               depth: 4
               value: 5.0862068965517242e+00
               splits:
                  - { var:16, quality:3.0349982910156250e+03,
                      le:8.7700530886650085e-02 }
            -
               depth: 5
               value: 5.3777777777777782e+00
            -
               depth: 5
               value: 4.0769230769230766e+00
            -
               depth: 4
               value: 5.9487179487179489e+00
               splits:
                  - { var:33, quality:1.3810263671875000e+03,
                      le:3.5541751098632813e+02 }
            -
               depth: 5
               value: 5.9736842105263159e+00
            -
               depth: 5
               value: 5.
            -
               depth: 3
               value: 5.8960741588802303e+00
               splits:
                  - { var:7, quality:1.8826763750000000e+06,
                      le:6.5000000000000000e+00 }
            -
               depth: 4
               value: 5.9177900499192129e+00
               splits:
                  - { var:19, quality:1.4522058750000000e+06,
                      le:6.0215034484863281e+00 }
            -
               depth: 5
               value: 5.9293326874167374e+00
            -
               depth: 5
               value: 5.8726152387723660e+00
            -
               depth: 4
               value: 5.8250965555292815e+00
               splits:
                  - { var:6, quality:4.3059184375000000e+05,
                      le:5.2500000000000000e+01 }
            -
               depth: 5
               value: 5.6973077855930150e+00
            -
               depth: 5
               value: 5.8866184026155999e+00
            -
               depth: 2
               value: 5.8673061954046188e+00
               splits:
                  - { var:6, quality:4.7766635000000000e+06, le:1. }
            -
               depth: 3
               value: 5.9125983350506193e+00
               splits:
                  - { var:34, quality:2.1375085000000000e+06,
                      le:4.5497393798828125e+02 }
            -
               depth: 4
               value: 5.9201767080508798e+00
               splits:
                  - { var:10, quality:1.8406928750000000e+06, le:13. }
            -
               depth: 5
               value: 5.9209478636874486e+00
            -
               depth: 5
               value: 3.7894736842105261e+00
            -
               depth: 4
               value: 5.8664657470731427e+00
               splits:
                  - { var:31, quality:2.9694887500000000e+05,
                      le:2.3053047180175781e+01 }
            -
               depth: 5
               value: 2.7999999999999998e+00
            -
               depth: 5
               value: 5.8682440269079104e+00
            -
               depth: 3
               value: 5.8316216738612203e+00
               splits:
                  - { var:33, quality:2640961., le:7.4146434664726257e-02 }
            -
               depth: 4
               value: 5.9619943977591037e+00
               splits:
                  - { var:18, quality:1.5862386250000000e+06,
                      le:2.1336004734039307e+00 }
            -
               depth: 5
               value: 5.9739868259461870e+00
            -
               depth: 5
               value: 5.9131522109810160e+00
            -
               depth: 4
               value: 5.6552152819890846e+00
               splits:
                  - { var:6, quality:1.0552851250000000e+06, le:61. }
            -
               depth: 5
               value: 5.4982464165904243e+00
            -
               depth: 5
               value: 5.7588602496979462e+00
            -
               depth: 1
               value: 5.8039950703502106e+00
               splits:
                  - { var:16, quality:6.5719593750000000e+05,
                      le:2.5142322540283203e+01 }
            -
               depth: 2
               value: 2.5272727272727273e+00
               splits:
                  - { var:28, quality:7.5264147949218750e+02,
                      le:6.6473889160156250e+02 }
            -
               depth: 3
               value: 2.3962264150943398e+00
               splits:
                  - { var:0, quality:6.3658862304687500e+02,
                      le:3.0276647949218750e+02 }
            -
               depth: 4
               value: 2.2127659574468086e+00
               splits:
                  - { var:0, quality:4.6812121582031250e+02,
                      le:1.2979785156250000e+02 }
            -
               depth: 5
               value: 2.6060606060606060e+00
            -
               depth: 5
               value: 2.
            -
               depth: 4
               value: 3.8333333333333335e+00
               splits:
                  - { var:12, quality:1.9766667175292969e+02,
                      le:4.3350296020507813e+01 }
            -
               depth: 5
               value: 2.5000000000000000e+00
            -
               depth: 5
               value: 5.1666666666666670e+00
            -
               depth: 3
               value: 6.
            -
               depth: 2
               value: 5.8226089650898576e+00
               splits:
                  - { var:7, quality:6.5667525000000000e+05,
                      le:3.5000000000000000e+00 }
            -
               depth: 3
               value: 5.8893286649413916e+00
               splits:
                  - { var:4, quality:4.5571184375000000e+05,
                      le:3.3527612686157227e-07 }
            -
               depth: 4
               value: 5.8626907073509011e+00
               splits:
                  - { var:10, quality:3.4696203125000000e+05,
                      le:1.2500000000000000e+01 }
            -
               depth: 5
               value: 5.8652221449160127e+00
            -
               depth: 5
               value: 5.0909090909090908e+00
            -
               depth: 4
               value: 5.9776609724047303e+00
               splits:
                  - { var:15, quality:1.0877214062500000e+05,
                      le:2.8259051513671875e+02 }
            -
               depth: 5
               value: 6.
            -
               depth: 5
               value: 5.9390681003584227e+00
            -
               depth: 3
               value: 5.6818181818181817e+00
               splits:
                  - { var:12, quality:2.0102003125000000e+05,
                      le:3.2236914062500000e+02 }
            -
               depth: 4
               value: 5.7007681564245809e+00
               splits:
                  - { var:34, quality:1.8660789062500000e+05,
                      le:5.1783851623535156e+01 }
            -
               depth: 5
               value: 5.9542153457530782e+00
            -
               depth: 5
               value: 5.3873486919172198e+00
            -
               depth: 4
               value: 5.4638554216867474e+00
               splits:
                  - { var:18, quality:1.4899930664062500e+04,
                      le:1.1863510131835938e+01 }
            -
               depth: 5
               value: 5.7655502392344502e+00
            -
               depth: 5
               value: 5.2456747404844295e+00
      -
         nodes:
            -
               depth: 0
               value: 5.8696848930273697e+00
               splits:
                  - { var:6, quality:7322855., le:11. }
            -
               depth: 1
               value: 5.9238128107507633e+00
               splits:
                  - { var:12, quality:3.2536945000000000e+06,
                      le:3.5999472045898438e+02 }
            -
               depth: 2
               value: 5.9239804558152578e+00
               splits:
                  - { var:9, quality:3.2536412500000000e+06, le:59. }
            -
               depth: 3
               value: 5.9260031497460242e+00
               splits:
                  - { var:12, quality:3.1664222500000000e+06,
                      le:1.8028101921081543e+00 }
            -
               depth: 4
               value: 5.9501388888888886e+00
               splits:
                  - { var:0, quality:7.6473343750000000e+05,
                      le:1.3138743638992310e+00 }
            -
               depth: 5
               value: 5.7121212121212119e+00
            -
               depth: 5
               value: 5.9508683941673635e+00
            -
               depth: 4
               value: 5.9183997899833738e+00
               splits:
                  - { var:27, quality:2.4017032500000000e+06,
                      le:1.2671107482910156e+02 }
            -
               depth: 5
               value: 5.9224753704509912e+00
            -
               depth: 5
               value: 5.8797922712692836e+00
            -
               depth: 3
               value: 5.8523753435414214e+00
               splits:
                  - { var:5, quality:8.7244867187500000e+04,
                      le:5.0000000000000000e-01 }
            -
               depth: 4
               value: 5.2173913043478262e+00
               splits:
                  - { var:31, quality:693., le:1.9504177856445313e+02 }
            -
               depth: 5
               value: 1.5000000000000000e+00
            -
               depth: 5
               value: 6.
            -
               depth: 4
               value: 5.8581616481774956e+00
               splits:
                  - { var:7, quality:8.6662109375000000e+04,
                      le:2.5000000000000000e+00 }
            -
               depth: 5
               value: 5.9274847870182557e+00
            -
               depth: 5
               value: 5.6105072463768115e+00
            -
               depth: 2
               value: 3.3333333333333335e+00
            -
               depth: 1
               value: 5.8277968817814578e+00
               splits:
                  - { var:6, quality:4.0700115000000000e+06, le:41. }
            -
               depth: 2
               value: 5.6529568901989684e+00
               splits:
                  - { var:15, quality:6.9387931250000000e+05,
                      le:6.7271490097045898e+00 }
            -
               depth: 3
               value: 5.6797323135755260e+00
               splits:
                  - { var:31, quality:5.3992525000000000e+05,
                      le:3.4578792572021484e+01 }
            -
               depth: 4
               value: 5.0263157894736841e+00
               splits:
                  - { var:12, quality:1.9293333740234375e+03,
                      le:2.8093438720703125e+02 }
            -
               depth: 5
               value: 5.0666666666666664e+00
            -
               depth: 5
               value: 2.
            -
               depth: 4
               value: 5.6827130852340932e+00
               splits:
                  - { var:3, quality:5.3802212500000000e+05,
                      le:4.0050113677978516e+01 }
            -
               depth: 5
               value: 5.6765840906261671e+00
            -
               depth: 5
               value: 5.8484848484848486e+00
            -
               depth: 3
               value: 5.5629019292604500e+00
               splits:
                  - { var:34, quality:1.5423454687500000e+05,
                      le:2.5134012222290039e+01 }
            -
               depth: 4
               value: 5.8657909765848091e+00
               splits:
                  - { var:12, quality:6.0263777343750000e+04,
                      le:3.2066918945312500e+02 }
            -
               depth: 5
               value: 5.8807017543859645e+00
            -
               depth: 5
               value: 5.2439024390243905e+00
            -
               depth: 4
               value: 5.3984496124031010e+00
               splits:
                  - { var:6, quality:9.4086851562500000e+04, le:39. }
            -
               depth: 5
               value: 5.5288184438040346e+00
            -
               depth: 5
               value: 5.1609798775153104e+00
            -
               depth: 2
               value: 5.8664933741080532e+00
               splits:
                  - { var:15, quality:3376267., le:6.5963653564453125e+01 }
            -
               depth: 3
               value: 5.8791940599594117e+00
               splits:
                  - { var:7, quality:2.8483835000000000e+06,
                      le:5.0000000000000000e-01 }
            -
               depth: 4
               value: 4.2508294625082943e+00
               splits:
                  - { var:34, quality:2.7341513671875000e+04,
                      le:2.5329294204711914e+01 }
            -
               depth: 5
               value: 4.9538461538461540e+00
            -
               depth: 5
               value: 4.1463414634146343e+00
            -
               depth: 4
               value: 5.9095714391819962e+00
               splits:
                  - { var:6, quality:2821177., le:61. }
            -
               depth: 5
               value: 5.8796974133723765e+00
            -
               depth: 5
               value: 5.9197240098188812e+00
            -
               depth: 3
               value: 5.8003921320599581e+00
               splits:
                  - { var:7, quality:532886., le:5.0000000000000000e-01 }
            -
               depth: 4
               value: 4.2426666666666666e+00
               splits:
                  - { var:9, quality:6.8361669921875000e+03, le:110. }
            -
               depth: 5
               value: 4.0988372093023253e+00
            -
               depth: 5
               value: 5.8387096774193550e+00
            -
               depth: 4
               value: 5.8382352941176467e+00
               splits:
                  - { var:3, quality:5.2618050000000000e+05,
                      le:2.5000000000000000e+00 }
            -
               depth: 5
               value: 5.7884985563041385e+00
            -
               depth: 5
               value: 5.8962661426165077e+00
      -
         nodes:
            -
               depth: 0
               value: 5.8693414137231743e+00
               splits:
                  - { var:33, quality:7.3227735000000000e+06,
                      le:1.4595472812652588e-01 }
            -
               depth: 1
               value: 5.9583067479263381e+00
               splits:
                  - { var:6, quality:3.2271815000000000e+06,
                      le:4.6500000000000000e+01 }
            -
               depth: 2
               value: 5.9343224066146716e+00
               splits:
                  - { var:21, quality:1.2011033750000000e+06,
                      le:3.5986416625976563e+02 }
            -
               depth: 3
               value: 5.9345512125032984e+00
               splits:
                  - { var:16, quality:1.2010857500000000e+06,
                      le:2.7364742755889893e+00 }
            -
               depth: 4
               value: 5.9455562967904525e+00
               splits:
                  - { var:31, quality:9.5386562500000000e+05,
                      le:2.4803783416748047e+01 }
            -
               depth: 5
               value: 4.8679245283018870e+00
            -
               depth: 5
               value: 5.9476772252961494e+00
            -
               depth: 4
               value: 5.8928521275101815e+00
               splits:
                  - { var:12, quality:2.4728893750000000e+05,
                      le:6.5746564865112305e+00 }
            -
               depth: 5
               value: 5.8273062730627307e+00
            -
               depth: 5
               value: 5.9082552896288592e+00
            -
               depth: 3
               value: 3.3333333333333335e+00
            -
               depth: 2
               value: 5.9727093457285720e+00
               splits:
                  - { var:15, quality:2026115., le:4.1962428092956543e+00 }
            -
               depth: 3
               value: 5.9812574244357428e+00
               splits:
                  - { var:21, quality:1.6262846250000000e+06,
                      le:3.5926989746093750e+02 }
            -
               depth: 4
               value: 5.9814280999009792e+00
               splits:
                  - { var:6, quality:1.6259103750000000e+06, le:95. }
            -
               depth: 5
               value: 5.9865570846075435e+00
            -
               depth: 5
               value: 5.9699708247349319e+00
            -
               depth: 4
               value: 5.3846153846153850e+00
               splits:
                  - { var:24, quality:3.7839999389648438e+02,
                      le:1.7937205505371094e+02 }
            -
               depth: 5
               value: 5.2000000000000002e+00
            -
               depth: 5
               value: 6.
            -
               depth: 3
               value: 5.9384371141294761e+00
               splits:
                  - { var:16, quality:4.0091721875000000e+05,
                      le:2.5447418212890625e+01 }
            -
               depth: 4
               value: 2.7428571428571429e+00
               splits:
                  - { var:2, quality:9.7559997558593750e+02,
                      le:9.2500000000000000e+01 }
            -
               depth: 5
               value: 2.2000000000000002e+00
            -
               depth: 5
               value: 6.
            -
               depth: 4
               value: 5.9683076649158728e+00
               splits:
                  - { var:13, quality:4.0012850000000000e+05,
                      le:4.3007672119140625e+02 }
            -
               depth: 5
               value: 5.9749874308697839e+00
            -
               depth: 5
               value: 5.9520903265181566e+00
            -
               depth: 1
               value: 5.8028512936881826e+00
               splits:
                  - { var:0, quality:4.0957587500000000e+06,
                      le:2.3701748657226563e+02 }
            -
               depth: 2
               value: 5.8196307514784369e+00
               splits:
                  - { var:31, quality:3.2873905000000000e+06,
                      le:5.8987152099609375e+01 }
            -
               depth: 3
               value: 5.6935388263189095e+00
               splits:
                  - { var:7, quality:1.6429578125000000e+05,
                      le:6.5000000000000000e+00 }
            -
               depth: 4
               value: 5.7821370874682669e+00
               splits:
                  - { var:2, quality:1.4487723437500000e+05,
                      le:3.1350131988525391e+01 }
            -
               depth: 5
               value: 5.6047197640117998e+00
            -
               depth: 5
               value: 5.7971957936905358e+00
            -
               depth: 4
               value: 5.1662087912087911e+00
               splits:
                  - { var:22, quality:1.9433193359375000e+04,
                      le:2.2211318969726563e+02 }
            -
               depth: 5
               value: 5.1467065868263475e+00
            -
               depth: 5
               value: 5.3833333333333337e+00
            -
               depth: 3
               value: 5.8265671025314942e+00
               splits:
                  - { var:13, quality:3.1233655000000000e+06,
                      le:2.5226726531982422e+01 }
            -
               depth: 4
               value: 5.7954429385189554e+00
               splits:
                  - { var:15, quality:8.5498818750000000e+05,
                      le:2.7599954223632813e+02 }
            -
               depth: 5
               value: 5.8011253238341967e+00
            -
               depth: 5
               value: 5.6085219707057261e+00
            -
               depth: 4
               value: 5.8384726354702012e+00
               splits:
                  - { var:4, quality:2.2687127500000000e+06,
                      le:3.3527612686157227e-07 }
            -
               depth: 5
               value: 5.8081439325721282e+00
            -
               depth: 5
               value: 5.9912885662431945e+00
            -
               depth: 2
               value: 5.7365571701876501e+00
               splits:
                  - { var:2, quality:8.0854375000000000e+05,
                      le:7.9950149536132813e+01 }
            -
               depth: 3
               value: 5.7553049215406560e+00
               splits:
                  - { var:4, quality:7.4324206250000000e+05,
                      le:3.3527612686157227e-07 }
            -
               depth: 4
               value: 5.7126412391915551e+00
               splits:
                  - { var:13, quality:6.1522737500000000e+05,
                      le:2.5311965942382813e+01 }
            -
               depth: 5
               value: 5.6326129666011786e+00
            -
               depth: 5
               value: 5.7383321653819204e+00
            -
               depth: 4
               value: 5.9798938843898348e+00
               splits:
                  - { var:34, quality:1.2805639062500000e+05,
                      le:6.0942001342773438e+01 }
            -
               depth: 5
               value: 5.8778625954198471e+00
            -
               depth: 5
               value: 5.9879481771617957e+00
            -
               depth: 3
               value: 5.5395784543325526e+00
               splits:
                  - { var:5, quality:6.5603062500000000e+04,
                      le:1.5000000000000000e+00 }
            -
               depth: 4
               value: 5.3896576839038604e+00
               splits:
                  - { var:34, quality:3.9896144531250000e+04,
                      le:1.4723133850097656e+02 }
            -
               depth: 5
               value: 5.0762711864406782e+00
            -
               depth: 5
               value: 5.4191235059760956e+00
            -
               depth: 4
               value: 5.8097112860892386e+00
               splits:
                  - { var:25, quality:2.5725634765625000e+04,
                      le:2.4326081848144531e+02 }
            -
               depth: 5
               value: 5.8366762177650431e+00
            -
               depth: 5
               value: 5.5156250000000000e+00
      -
         nodes:
            -
               depth: 0
               value: 5.8671629079993037e+00
               splits:
                  - { var:6, quality:7316560., le:1. }
            -
               depth: 1
               value: 5.9216955043775759e+00
               splits:
                  - { var:13, quality:3.2083087500000000e+06,
                      le:2.6410121917724609e+01 }
            -
               depth: 2
               value: 5.8586248604391518e+00
               splits:
                  - { var:13, quality:7.4275175000000000e+05,
                      le:5.3279786109924316e+00 }
            -
               depth: 3
               value: 5.9457420222991155e+00
               splits:
                  - { var:13, quality:735616., le:5.0234632492065430e+00 }
            -
               depth: 4
               value: 5.9462954949757201e+00
               splits:
                  - { var:7, quality:7.3559856250000000e+05,
                      le:5.0000000000000000e-01 }
            -
               depth: 5
               value: 5.9772812316245254e+00
            -
               depth: 5
               value: 5.6692160611854687e+00
            -
               depth: 4
               value: 4.6666666666666670e+00
            -
               depth: 3
               value: 3.2238372093023258e+00
               splits:
                  - { var:0, quality:7.2331777343750000e+03,
                      le:1.8837707519531250e+02 }
            -
               depth: 4
               value: 3.4907407407407409e+00
               splits:
                  - { var:9, quality:5.2919291992187500e+03, le:54. }
            -
               depth: 5
               value: 3.5421686746987953e+00
            -
               depth: 5
               value: 2.2352941176470589e+00
            -
               depth: 4
               value: 2.7734375000000000e+00
               splits:
                  - { var:31, quality:2.0505207519531250e+03,
                      le:2.6769641113281250e+02 }
            -
               depth: 5
               value: 2.4479166666666665e+00
            -
               depth: 5
               value: 3.7500000000000000e+00
            -
               depth: 2
               value: 5.9410655351249408e+00
               splits:
                  - { var:31, quality:2470535., le:2.2275318145751953e+01 }
            -
               depth: 3
               value: 5.4977578475336326e+00
               splits:
                  - { var:24, quality:6.7586713867187500e+03,
                      le:2.7011303710937500e+02 }
            -
               depth: 4
               value: 5.5412844036697244e+00
               splits:
                  - { var:16, quality:6.7336665039062500e+03,
                      le:6.1307189941406250e+02 }
            -
               depth: 5
               value: 5.7500000000000000e+00
            -
               depth: 5
               value: 4.6666666666666670e+00
            -
               depth: 4
               value: 3.6000000000000001e+00
            -
               depth: 3
               value: 5.9424824423104488e+00
               splits:
                  - { var:7, quality:2.4643387500000000e+06,
                      le:5.0000000000000000e-01 }
            -
               depth: 4
               value: 5.9666065955054446e+00
               splits:
                  - { var:31, quality:2.3112977500000000e+06,
                      le:1.7188713073730469e+02 }
            -
               depth: 5
               value: 5.9814573327820364e+00
            -
               depth: 5
               value: 5.9526611313541604e+00
            -
               depth: 4
               value: 5.6193521766040853e+00
               splits:
                  - { var:33, quality:1.5367539062500000e+05,
                      le:1.5208760499954224e+00 }
            -
               depth: 5
               value: 5.9965171963430564e+00
            -
               depth: 5
               value: 5.2796078431372546e+00
            -
               depth: 1
               value: 5.8259447134052644e+00
               splits:
                  - { var:16, quality:4.1085082500000000e+06,
                      le:6.8745547533035278e-01 }
            -
               depth: 2
               value: 5.8431433132499100e+00
               splits:
                  - { var:7, quality:3.3203192500000000e+06,
                      le:5.0000000000000000e-01 }
            -
               depth: 3
               value: 4.2661523625843776e+00
               splits:
                  - { var:0, quality:3.7794796875000000e+04,
                      le:1.9541436767578125e+02 }
            -
               depth: 4
               value: 4.3716940671908509e+00
               splits:
                  - { var:8, quality:2.6791121093750000e+04,
                      le:1.5000000000000000e+00 }
            -
               depth: 5
               value: 4.3089046493301808e+00
            -
               depth: 5
               value: 4.9846153846153847e+00
            -
               depth: 4
               value: 4.0474074074074071e+00
               splits:
                  - { var:6, quality:1.1112888671875000e+04,
                      le:1.5950000000000000e+02 }
            -
               depth: 5
               value: 4.
            -
               depth: 5
               value: 5.7777777777777777e+00
            -
               depth: 3
               value: 5.8775639069258379e+00
               splits:
                  - { var:18, quality:3.2827162500000000e+06,
                      le:2.4750512838363647e-01 }
            -
               depth: 4
               value: 5.8953259141494438e+00
               splits:
                  - { var:24, quality:2.7326035000000000e+06,
                      le:1.8224388122558594e+02 }
            -
               depth: 5
               value: 5.8937453110672706e+00
            -
               depth: 5
               value: 5.9124417030239202e+00
            -
               depth: 4
               value: 5.7923883874115640e+00
               splits:
                  - { var:19, quality:552483., le:2.4996067047119141e+01 }
            -
               depth: 5
               value: 2.3282051282051284e+00
            -
               depth: 5
               value: 5.8340843157829765e+00
            -
               depth: 2
               value: 5.7562116340251386e+00
               splits:
                  - { var:33, quality:7.9433937500000000e+05,
                      le:4.0292577743530273e+00 }
            -
               depth: 3
               value: 5.9262215591197318e+00
               splits:
                  - { var:16, quality:4.7207878125000000e+05,
                      le:2.5447418212890625e+01 }
            -
               depth: 4
               value: 2.6153846153846154e+00
               splits:
                  - { var:27, quality:8.2385839843750000e+02,
                      le:2.3297857666015625e+02 }
            -
               depth: 5
               value: 2.5309734513274336e+00
            -
               depth: 5
               value: 5.
            -
               depth: 4
               value: 5.9553732691149905e+00
               splits:
                  - { var:31, quality:4.7133765625000000e+05,
                      le:1.8069023132324219e+01 }
            -
               depth: 5
               value: 3.6363636363636362e+00
            -
               depth: 5
               value: 5.9572945695563755e+00
            -
               depth: 3
               value: 5.5400303547713907e+00
               splits:
                  - { var:15, quality:3.2361843750000000e+05,
                      le:2.7223138427734375e+02 }
            -
               depth: 4
               value: 5.5805712908280105e+00
               splits:
                  - { var:13, quality:2.5841339062500000e+05,
                      le:5.1260546875000000e+02 }
            -
               depth: 5
               value: 5.6054512957998215e+00
            -
               depth: 5
               value: 5.4750473783954519e+00
            -
               depth: 4
               value: 5.3902004454342984e+00
               splits:
                  - { var:3, quality:6.5254785156250000e+04,
                      le:3.2500000000000000e+01 }
            -
               depth: 5
               value: 5.3434554973821990e+00
            -
               depth: 5
               value: 5.6567164179104479e+00
      -
         nodes:
            -
               depth: 0
               value: 5.8693884656826532e+00
               splits:
                  - { var:18, quality:7321698., le:1.8917158246040344e-02 }
            -
               depth: 1
               value: 5.8794003220168021e+00
               splits:
                  - { var:7, quality:5517895., le:6.5000000000000000e+00 }
            -
               depth: 2
               value: 5.9022700852492900e+00
               splits:
                  - { var:7, quality:4315313., le:2.5000000000000000e+00 }
            -
               depth: 3
               value: 5.9071631183237905e+00
               splits:
                  - { var:6, quality:3.3094642500000000e+06, le:1. }
            -
               depth: 4
               value: 5.9513655195738568e+00
               splits:
                  - { var:7, quality:2.0945295000000000e+06,
                      le:5.0000000000000000e-01 }
            -
               depth: 5
               value: 5.9538159802165938e+00
            -
               depth: 5
               value: 5.6639999999999997e+00
            -
               depth: 4
               value: 5.8339402767662056e+00
               splits:
                  - { var:33, quality:1.2154941250000000e+06,
                      le:1.9983002543449402e-01 }
            -
               depth: 5
               value: 5.9673153692614767e+00
            -
               depth: 5
               value: 5.7252110241025118e+00
            -
               depth: 3
               value: 5.8862908502358895e+00
               splits:
                  - { var:34, quality:1.0064840625000000e+06,
                      le:5.0501884460449219e+01 }
            -
               depth: 4
               value: 5.9870630512904279e+00
               splits:
                  - { var:16, quality:5.4860906250000000e+05,
                      le:7.2912982177734375e+02 }
            -
               depth: 5
               value: 5.9878064769896424e+00
            -
               depth: 5
               value: 5.7647058823529411e+00
            -
               depth: 4
               value: 5.7739915538080675e+00
               splits:
                  - { var:5, quality:4.5865793750000000e+05, le:2. }
            -
               depth: 5
               value: 5.2659402744148505e+00
            -
               depth: 5
               value: 5.8858386638237388e+00
            -
               depth: 2
               value: 5.8001510616275489e+00
               splits:
                  - { var:7, quality:1.2029588750000000e+06,
                      le:1.9500000000000000e+01 }
            -
               depth: 3
               value: 5.7253597200017285e+00
               splits:
                  - { var:6, quality:7.5902450000000000e+05,
                      le:5.6500000000000000e+01 }
            -
               depth: 4
               value: 5.5538640325392210e+00
               splits:
                  - { var:33, quality:2.6630221875000000e+05,
                      le:4.0592186152935028e-02 }
            -
               depth: 5
               value: 5.9328295549958021e+00
            -
               depth: 5
               value: 5.2847774244833072e+00
            -
               depth: 4
               value: 5.8268675196037973e+00
               splits:
                  - { var:6, quality:4.9363346875000000e+05,
                      le:9.9500000000000000e+01 }
            -
               depth: 5
               value: 5.7917851500789892e+00
            -
               depth: 5
               value: 5.8929208804283162e+00
            -
               depth: 3
               value: 5.9374801650269760e+00
               splits:
                  - { var:9, quality:4.4434646875000000e+05, le:42. }
            -
               depth: 4
               value: 5.9189787829330847e+00
               splits:
                  - { var:2, quality:3.0053375000000000e+05,
                      le:5.7100223541259766e+01 }
            -
               depth: 5
               value: 5.8865861990434984e+00
            -
               depth: 5
               value: 5.9529496059230951e+00
            -
               depth: 4
               value: 5.9769001490312963e+00
               splits:
                  - { var:16, quality:1.4382517187500000e+05,
                      le:8.2462585449218750e+02 }
            -
               depth: 5
               value: 5.9778662024372045e+00
            -
               depth: 5
               value: 5.2000000000000002e+00
            -
               depth: 1
               value: 5.8391858179618987e+00
               splits:
                  - { var:19, quality:1.8071127500000000e+06,
                      le:2.4995483398437500e+01 }
            -
               depth: 2
               value: 2.5693950177935942e+00
               splits:
                  - { var:12, quality:1.8978818359375000e+03,
                      le:3.2940289306640625e+02 }
            -
               depth: 3
               value: 2.4319999999999999e+00
               splits:
                  - { var:0, quality:1.4914147949218750e+03,
                      le:2.6953753662109375e+02 }
            -
               depth: 4
               value: 2.5645161290322580e+00
               splits:
                  - { var:22, quality:1.2428471679687500e+03,
                      le:6.1579460144042969e+01 }
            -
               depth: 5
               value: 2.4583333333333335e+00
            -
               depth: 5
               value: 3.5555555555555554e+00
            -
               depth: 4
               value: 2.0468750000000000e+00
               splits:
                  - { var:22, quality:2.6912500000000000e+02,
                      le:2.9980380249023438e+02 }
            -
               depth: 5
               value: 2.
            -
               depth: 5
               value: 2.3750000000000000e+00
            -
               depth: 3
               value: 3.6774193548387095e+00
               splits:
                  - { var:19, quality:4.6123077392578125e+02,
                      le:1.7770141601562500e+01 }
            -
               depth: 4
               value: 2.3076923076923075e+00
               splits:
                  - { var:18, quality:72., le:2.1163723754882813e+02 }
            -
               depth: 5
               value: 2.
            -
               depth: 5
               value: 3.
            -
               depth: 4
               value: 4.6666666666666670e+00
               splits:
                  - { var:3, quality:4.4123077392578125e+02, le:10. }
            -
               depth: 5
               value: 2.
            -
               depth: 5
               value: 5.6923076923076925e+00
            -
               depth: 2
               value: 5.8566434230776538e+00
               splits:
                  - { var:6, quality:1.8055458750000000e+06, le:9. }
            -
               depth: 3
               value: 5.9270181278720555e+00
               splits:
                  - { var:5, quality:9.7092406250000000e+05,
                      le:5.0000000000000000e-01 }
            -
               depth: 4
               value: 5.9578397018744091e+00
               splits:
                  - { var:10, quality:6.3820456250000000e+05, le:1. }
            -
               depth: 5
               value: 5.9581154744687952e+00
            -
               depth: 5
               value: 1.
            -
               depth: 4
               value: 5.8696417477738665e+00
               splits:
                  - { var:9, quality:3.3277406250000000e+05,
                      le:1.4050000000000000e+02 }
            -
               depth: 5
               value: 5.8704432477216235e+00
            -
               depth: 5
               value: 2.
            -
               depth: 3
               value: 5.7788269184604308e+00
               splits:
                  - { var:33, quality:8.3553943750000000e+05,
                      le:1.6063541173934937e-01 }
            -
               depth: 4
               value: 5.9572951008203638e+00
               splits:
                  - { var:21, quality:4.6290734375000000e+05,
                      le:3.5899737548828125e+02 }
            -
               depth: 5
               value: 5.9581926971463641e+00
            -
               depth: 5
               value: 4.2857142857142856e+00
            -
               depth: 4
               value: 5.5840515438038656e+00
               splits:
                  - { var:3, quality:3.7268725000000000e+05,
                      le:2.5800050735473633e+01 }
            -
               depth: 5
               value: 5.6005112287748764e+00
            -
               depth: 5
               value: 5.4032096288866596e+00
      -
         nodes:
            -
               depth: 0
               value: 5.8702965685005948e+00
               splits:
                  - { var:34, quality:7.3251385000000000e+06,
                      le:1.9158935546875000e+00 }
            -
               depth: 1
               value: 5.9589321021064139e+00
               splits:
                  - { var:18, quality:3.2147742500000000e+06,
                      le:1.5789791941642761e-01 }
            -
               depth: 2
               value: 5.9710615886711587e+00
               splits:
                  - { var:30, quality:2.5454172500000000e+06,
                      le:8.0932050943374634e-02 }
            -
               depth: 3
               value: 5.7500000000000000e+00
               splits:
                  - { var:30, quality:1088., le:7.8041121363639832e-02 }
            -
               depth: 4
               value: 6.
               splits:
                  - { var:7, quality:1080., le:1. }
            -
               depth: 5
               value: 6.
            -
               depth: 5
               value: 6.
            -
               depth: 4
               value: 2.
            -
               depth: 3
               value: 5.9711607180392647e+00
               splits:
                  - { var:31, quality:2.5443855000000000e+06,
                      le:2.4699050903320313e+01 }
            -
               depth: 4
               value: 5.4956521739130437e+00
               splits:
                  - { var:27, quality:3.4801428222656250e+03,
                      le:2.7413311767578125e+02 }
            -
               depth: 5
               value: 5.5357142857142856e+00
            -
               depth: 5
               value: 4.
            -
               depth: 4
               value: 5.9719282486034304e+00
               splits:
                  - { var:0, quality:2.5409132500000000e+06,
                      le:1.8127856445312500e+02 }
            -
               depth: 5
               value: 5.9757073844030364e+00
            -
               depth: 5
               value: 5.9680191884869078e+00
            -
               depth: 2
               value: 5.9136886102403343e+00
               splits:
                  - { var:27, quality:6.6937856250000000e+05,
                      le:3.5967602539062500e+02 }
            -
               depth: 3
               value: 5.9140931180435805e+00
               splits:
                  - { var:21, quality:6.6938187500000000e+05,
                      le:3.5927313232421875e+02 }
            -
               depth: 4
               value: 5.9150938463951483e+00
               splits:
                  - { var:13, quality:6.6924262500000000e+05,
                      le:3.3043426513671875e+01 }
            -
               depth: 5
               value: 5.8543823326432021e+00
            -
               depth: 5
               value: 5.9329499323410015e+00
            -
               depth: 4
               value: 4.
            -
               depth: 3
               value: 3.3333333333333335e+00
            -
               depth: 1
               value: 5.8045213855964848e+00
               splits:
                  - { var:31, quality:4.1106017500000000e+06,
                      le:2.4388631820678711e+01 }
            -
               depth: 2
               value: 5.1360381861575179e+00
               splits:
                  - { var:4, quality:1.1233066406250000e+04,
                      le:4.5000668615102768e-02 }
            -
               depth: 3
               value: 4.4784688995215314e+00
               splits:
                  - { var:6, quality:4.2645200195312500e+03, le:46. }
            -
               depth: 4
               value: 4.0373134328358207e+00
               splits:
                  - { var:12, quality:2.2237473144531250e+03,
                      le:9.7217649221420288e-01 }
            -
               depth: 5
               value: 4.6785714285714288e+00
            -
               depth: 5
               value: 3.5769230769230771e+00
            -
               depth: 4
               value: 5.2666666666666666e+00
               splits:
                  - { var:21, quality:2.0911486816406250e+03,
                      le:9.0291168212890625e+01 }
            -
               depth: 5
               value: 5.3108108108108105e+00
            -
               depth: 5
               value: 2.
            -
               depth: 3
               value: 5.7904761904761903e+00
               splits:
                  - { var:28, quality:7.0613334960937500e+03,
                      le:3.3763659000396729e+00 }
            -
               depth: 4
               value: 6.
               splits:
                  - { var:25, quality:5184., le:7.1898170471191406e+01 }
            -
               depth: 5
               value: 6.
            -
               depth: 5
               value: 6.
            -
               depth: 4
               value: 5.3333333333333330e+00
               splits:
                  - { var:13, quality:1.9066666259765625e+03,
                      le:3.3529949951171875e+02 }
            -
               depth: 5
               value: 4.6666666666666670e+00
            -
               depth: 5
               value: 6.
            -
               depth: 2
               value: 5.8068251918505664e+00
               splits:
                  - { var:34, quality:4099691., le:4.0601055908203125e+02 }
            -
               depth: 3
               value: 5.8290179667317377e+00
               splits:
                  - { var:5, quality:2.9077565000000000e+06,
                      le:5.0000000000000000e-01 }
            -
               depth: 4
               value: 5.9624536985071277e+00
               splits:
                  - { var:22, quality:1.2669011250000000e+06,
                      le:2.4923988342285156e+01 }
            -
               depth: 5
               value: 5.9539103232533890e+00
            -
               depth: 5
               value: 5.9982522575007282e+00
            -
               depth: 4
               value: 5.7337460680010421e+00
               splits:
                  - { var:5, quality:1.6418166250000000e+06,
                      le:1.5000000000000000e+00 }
            -
               depth: 5
               value: 5.5688715953307391e+00
            -
               depth: 5
               value: 5.8492385267963609e+00
            -
               depth: 3
               value: 5.7541352131438721e+00
               splits:
                  - { var:7, quality:1.1939833750000000e+06,
                      le:6.5000000000000000e+00 }
            -
               depth: 4
               value: 5.8286777774051846e+00
               splits:
                  - { var:6, quality:1.0134899375000000e+06, le:17. }
            -
               depth: 5
               value: 5.9248120300751879e+00
            -
               depth: 5
               value: 5.7007892474798778e+00
            -
               depth: 4
               value: 5.3962324907422312e+00
               splits:
                  - { var:3, quality:1.8100475000000000e+05,
                      le:5.4400009155273438e+01 }
            -
               depth: 5
               value: 5.3491447716452125e+00
            -
               depth: 5
               value: 5.8907407407407408e+00
      -
         nodes:
            -
               depth: 0
               value: 5.8686968018783139e+00
               splits:
                  - { var:5, quality:7.3205345000000000e+06,
                      le:5.0000000000000000e-01 }
            -
               depth: 1
               value: 5.9577996002433302e+00
               splits:
                  - { var:22, quality:2.0422426250000000e+06,
                      le:2.4939884185791016e+01 }
            -
               depth: 2
               value: 5.9501574637833299e+00
               splits:
                  - { var:21, quality:1.6887931250000000e+06,
                      le:1.7071528360247612e-02 }
            -
               depth: 3
               value: 5.9642977575451024e+00
               splits:
                  - { var:15, quality:1.6878743750000000e+06,
                      le:3.5937292480468750e+02 }
            -
               depth: 4
               value: 5.9647761068106560e+00
               splits:
                  - { var:31, quality:1.6868851250000000e+06,
                      le:2.4422285079956055e+01 }
            -
               depth: 5
               value: 5.3846153846153850e+00
            -
               depth: 5
               value: 5.9673325847933398e+00
            -
               depth: 4
               value: 5.3513513513513518e+00
               splits:
                  - { var:16, quality:1.1099394531250000e+03,
                      le:1.9060157775878906e+01 }
            -
               depth: 5
               value: 2.
            -
               depth: 5
               value: 5.7575757575757578e+00
            -
               depth: 3
               value: 2.2637362637362637e+00
               splits:
                  - { var:28, quality:9.6892901611328125e+02,
                      le:3.2303686523437500e+02 }
            -
               depth: 4
               value: 2.0774193548387099e+00
               splits:
                  - { var:9, quality:6.9679998779296875e+02,
                      le:4.5500000000000000e+01 }
            -
               depth: 5
               value: 2.
            -
               depth: 5
               value: 4.4000000000000004e+00
            -
               depth: 4
               value: 3.3333333333333335e+00
               splits:
                  - { var:16, quality:3.5169232177734375e+02,
                      le:4.6040301513671875e+02 }
            -
               depth: 5
               value: 2.
            -
               depth: 5
               value: 4.7692307692307692e+00
            -
               depth: 2
               value: 5.9945482079757699e+00
               splits:
                  - { var:2, quality:3.5593315625000000e+05, le:70. }
            -
               depth: 3
               value: 5.9973591549295771e+00
               splits:
                  - { var:22, quality:3.2688087500000000e+05,
                      le:8.3390075683593750e+02 }
            -
               depth: 4
               value: 5.9977946851913106e+00
               splits:
                  - { var:24, quality:3.2624409375000000e+05,
                      le:1.5482554626464844e+02 }
            -
               depth: 5
               value: 5.9985252550079879e+00
            -
               depth: 5
               value: 5.9914163090128758e+00
            -
               depth: 4
               value: 5.7894736842105265e+00
               splits:
                  - { var:21, quality:652., le:7.1038246154785156e+01 }
            -
               depth: 5
               value: 2.
            -
               depth: 5
               value: 6.
            -
               depth: 3
               value: 5.9632802937576503e+00
               splits:
                  - { var:12, quality:2.9054806640625000e+04,
                      le:2.5989675903320313e+02 }
            -
               depth: 4
               value: 5.9962756052141524e+00
               splits:
                  - { var:28, quality:1.9308572265625000e+04,
                      le:2.7077867507934570e+01 }
            -
               depth: 5
               value: 6.
            -
               depth: 5
               value: 5.7142857142857144e+00
            -
               depth: 4
               value: 5.9000000000000004e+00
               splits:
                  - { var:22, quality:9.7667773437500000e+03,
                      le:3.9119564056396484e+01 }
            -
               depth: 5
               value: 3.3333333333333335e+00
            -
               depth: 5
               value: 5.9277978339350179e+00
            -
               depth: 1
               value: 5.8356215644274689e+00
               splits:
                  - { var:13, quality:5278405., le:2.6412796020507813e+01 }
            -
               depth: 2
               value: 5.7962875676160976e+00
               splits:
                  - { var:12, quality:1.5034906250000000e+06,
                      le:1.0164512787014246e-03 }
            -
               depth: 3
               value: 5.8563481299280475e+00
               splits:
                  - { var:8, quality:1.4919657500000000e+06,
                      le:5.0000000000000000e-01 }
            -
               depth: 4
               value: 5.8474206242251094e+00
               splits:
                  - { var:34, quality:1.2691996250000000e+06,
                      le:2.5057519912719727e+01 }
            -
               depth: 5
               value: 5.9809968138370504e+00
            -
               depth: 5
               value: 5.7271842671310047e+00
            -
               depth: 4
               value: 5.9081106422878573e+00
               splits:
                  - { var:16, quality:2.2339518750000000e+05,
                      le:4.1845181274414063e+02 }
            -
               depth: 5
               value: 5.9292260692464360e+00
            -
               depth: 5
               value: 5.6627218934911241e+00
            -
               depth: 3
               value: 3.3127376425855513e+00
               splits:
                  - { var:6, quality:1.3654993164062500e+04,
                      le:4.7500000000000000e+01 }
            -
               depth: 4
               value: 2.4846938775510203e+00
               splits:
                  - { var:13, quality:5.5908525390625000e+03,
                      le:2.5019035339355469e+01 }
            -
               depth: 5
               value: 2.1880222841225625e+00
            -
               depth: 5
               value: 5.7121212121212119e+00
            -
               depth: 4
               value: 5.7350746268656714e+00
               splits:
                  - { var:15, quality:8.8288125000000000e+03,
                      le:3.4625192260742188e+02 }
            -
               depth: 5
               value: 5.7490636704119851e+00
            -
               depth: 5
               value: 2.
            -
               depth: 2
               value: 5.8514890033773082e+00
               splits:
                  - { var:15, quality:3.7816082500000000e+06,
                      le:4.7640879638493061e-03 }
            -
               depth: 3
               value: 5.8630501027567146e+00
               splits:
                  - { var:34, quality:2.9117057500000000e+06,
                      le:5.0564247131347656e+01 }
            -
               depth: 4
               value: 5.9810054852894510e+00
               splits:
                  - { var:9, quality:1.5782227500000000e+06,
                      le:1.3850000000000000e+02 }
            -
               depth: 5
               value: 5.9812954859772827e+00
            -
               depth: 5
               value: 4.8181818181818183e+00
            -
               depth: 4
               value: 5.7347094801223237e+00
               splits:
                  - { var:27, quality:1.3335423750000000e+06,
                      le:3.4484085083007813e+01 }
            -
               depth: 5
               value: 5.7469730941704036e+00
            -
               depth: 5
               value: 5.6448233360723092e+00
            -
               depth: 3
               value: 5.8135159250494626e+00
               splits:
                  - { var:33, quality:8.7154075000000000e+05,
                      le:4.4972482323646545e-01 }
            -
               depth: 4
               value: 5.9374897591348521e+00
               splits:
                  - { var:10, quality:4.3031771875000000e+05,
                      le:1.9500000000000000e+01 }
            -
               depth: 5
               value: 5.9395536523099732e+00
            -
               depth: 5
               value: 5.5396825396825395e+00
            -
               depth: 4
               value: 5.7020116424729199e+00
               splits:
                  - { var:28, quality:4.4124784375000000e+05,
                      le:7.4848846435546875e+02 }
            -
               depth: 5
               value: 5.7044225498185055e+00
            -
               depth: 5
               value: 5.2500000000000000e+00
      -
         nodes:
            -
               depth: 0
               value: 5.8691673214731024e+00
               splits:
                  - { var:3, quality:7321103., le:1.1099966049194336e+01 }
            -
               depth: 1
               value: 5.8627656748140273e+00
               splits:
                  - { var:34, quality:5.1757745000000000e+06,
                      le:1.9158935546875000e+00 }
            -
               depth: 2
               value: 5.9553865512009176e+00
               splits:
                  - { var:15, quality:1.9167136250000000e+06,
                      le:5.7548141479492188e-01 }
            -
               depth: 3
               value: 5.9657630340333094e+00
               splits:
                  - { var:18, quality:1.5728261250000000e+06,
                      le:8.1052497863769531e+01 }
            -
               depth: 4
               value: 5.9735626816106269e+00
               splits:
                  - { var:21, quality:1.3753921250000000e+06,
                      le:2.6497567749023438e+02 }
            -
               depth: 5
               value: 5.9759929813367361e+00
            -
               depth: 5
               value: 5.8752688172043008e+00
            -
               depth: 4
               value: 5.9125354107648729e+00
               splits:
                  - { var:19, quality:1.9829770312500000e+05,
                      le:2.4927213668823242e+01 }
            -
               depth: 5
               value: 2.3076923076923075e+00
            -
               depth: 5
               value: 5.9545047465520327e+00
            -
               depth: 3
               value: 5.9088324873096445e+00
               splits:
                  - { var:16, quality:345240., le:2.5272655487060547e+01 }
            -
               depth: 4
               value: 2.3461538461538463e+00
               splits:
                  - { var:13, quality:5.7850695800781250e+02,
                      le:3.0730111694335938e+02 }
            -
               depth: 5
               value: 2.6222222222222222e+00
            -
               depth: 5
               value: 2.1355932203389831e+00
            -
               depth: 4
               value: 5.9468499897393805e+00
               splits:
                  - { var:31, quality:3.4472259375000000e+05,
                      le:1.5869571685791016e+01 }
            -
               depth: 5
               value: 3.1428571428571428e+00
            -
               depth: 5
               value: 5.9488653865899987e+00
            -
               depth: 2
               value: 5.8109057377898425e+00
               splits:
                  - { var:9, quality:3.2591877500000000e+06, le:4. }
            -
               depth: 3
               value: 5.8170332442383454e+00
               splits:
                  - { var:6, quality:3.1539555000000000e+06, le:19. }
            -
               depth: 4
               value: 5.9197726377784248e+00
               splits:
                  - { var:28, quality:2.0468807500000000e+06,
                      le:2.4827888488769531e+01 }
            -
               depth: 5
               value: 5.9133208331634943e+00
            -
               depth: 5
               value: 5.9536551428877234e+00
            -
               depth: 4
               value: 5.6443453237410068e+00
               splits:
                  - { var:22, quality:1.1071977500000000e+06,
                      le:1.0505973815917969e+01 }
            -
               depth: 5
               value: 5.6599721059972108e+00
            -
               depth: 5
               value: 5.4414486921529175e+00
            -
               depth: 3
               value: 5.6409645727895210e+00
               splits:
                  - { var:0, quality:1.0693110937500000e+05,
                      le:2.2099774169921875e+02 }
            -
               depth: 4
               value: 5.7163299663299663e+00
               splits:
                  - { var:0, quality:7.7673179687500000e+04,
                      le:1.8646801757812500e+02 }
            -
               depth: 5
               value: 5.6293436293436292e+00
            -
               depth: 5
               value: 5.8807785888077859e+00
            -
               depth: 4
               value: 5.4587995930824009e+00
               splits:
                  - { var:10, quality:2.9315671875000000e+04,
                      le:1.5000000000000000e+00 }
            -
               depth: 5
               value: 5.1062500000000002e+00
            -
               depth: 5
               value: 5.5273390036452001e+00
            -
               depth: 1
               value: 5.8847202723854704e+00
               splits:
                  - { var:21, quality:2146087., le:3.5931860351562500e+02 }
            -
               depth: 2
               value: 5.8850244508642531e+00
               splits:
                  - { var:31, quality:2146050., le:2.4533544540405273e+01 }
            -
               depth: 3
               value: 4.9248120300751879e+00
               splits:
                  - { var:19, quality:3.2793774414062500e+03,
                      le:7.1623535156250000e+00 }
            -
               depth: 4
               value: 5.2452830188679247e+00
               splits:
                  - { var:2, quality:2.9378461914062500e+03,
                      le:2.7500000000000000e+01 }
            -
               depth: 5
               value: 2.
            -
               depth: 5
               value: 5.3076923076923075e+00
            -
               depth: 4
               value: 3.6666666666666665e+00
               splits:
                  - { var:7, quality:405., le:19. }
            -
               depth: 5
               value: 3.
            -
               depth: 5
               value: 6.
            -
               depth: 3
               value: 5.8870899915895709e+00
               splits:
                  - { var:19, quality:2142865., le:2.1730630397796631e+00 }
            -
               depth: 4
               value: 5.9001916646276813e+00
               splits:
                  - { var:34, quality:1.7077273750000000e+06,
                      le:5.0951145172119141e+01 }
            -
