%YAML:1.0
---
opencv_ml_rtrees:
   format: 3
   is_classifier: 0
   var_all: 36
   var_count: 35
   ord_var_count: 36
   cat_var_count: 0
   training_params:
      use_surrogates: 0
      max_categories: 10
      regression_accuracy: 0.
      max_depth: 5
      min_sample_count: 10
      cross_validation_folds: 0
      nactive_vars: 0
   global_var_idx: 1
   var_idx: [ 0, 1, 2, 3, 4, 5, 6, 7, 8, 9, 10, 11, 12, 13, 14, 15, 16,
       17, 18, 19, 20, 21, 22, 23, 24, 25, 26, 27, 28, 29, 30, 31, 32,
       33, 34 ]
   var_type: [ 0, 0, 0, 0, 0, 0, 0, 0, 0, 0, 0, 0, 0, 0, 0, 0, 0, 0, 0,
       0, 0, 0, 0, 0, 0, 0, 0, 0, 0, 0, 0, 0, 0, 0, 0, 0 ]
   cat_ofs: [ 0, 0, 0, 0, 0, 0, 0, 0, 0, 0, 0, 0, 0, 0, 0, 0, 0, 0, 0, 0,
       0, 0, 0, 0, 0, 0, 0, 0, 0, 0, 0, 0, 0, 0, 0, 0, 0, 0, 0, 0, 0, 0,
       0, 0, 0, 0, 0, 0, 0, 0, 0, 0, 0, 0, 0, 0, 0, 0, 0, 0, 0, 0, 0, 0,
       0, 0, 0, 0, 0, 0 ]
   missing_subst: [ 0., 0., 0., 0., 0., 0., 0., 0., 0., 0., 0., 0., 0.,
       0., 0., 0., 0., 0., 0., 0., 0., 0., 0., 0., 0., 0., 0., 0., 0.,
       0., 0., 0., 0., 0., 0., 0. ]
   oob_error: 8.0071195762583520e+03
   ntrees: 50
   trees:
      -
         nodes:
            -
               depth: 0
               value: 1.5509163373807144e+02
               splits:
                  - { var:12, quality:5.1537085440000000e+09,
                      le:1.5547470092773438e+02 }
            -
               depth: 1
               value: 1.4321074370034546e+02
               splits:
                  - { var:21, quality:2.5496640000000000e+09,
                      le:1.9330725097656250e+02 }
            -
               depth: 2
               value: 1.4026307442918244e+02
               splits:
                  - { var:18, quality:2.3235069440000000e+09,
                      le:1.7949920654296875e+02 }
            -
               depth: 3
               value: 1.3325907027368274e+02
               splits:
                  - { var:15, quality:1819281024.,
                      le:1.9007745361328125e+02 }
            -
               depth: 4
               value: 1.2888268205749483e+02
               splits:
                  - { var:2, quality:1518319872.,
                      le:4.9850002288818359e+01 }
            -
               depth: 5
               value: 1.4189198066829212e+02
            -
               depth: 5
               value: 1.2665940395950054e+02
            -
               depth: 4
               value: 1.7231357350717857e+02
               splits:
                  - { var:13, quality:310512032.,
                      le:1.0034440994262695e+01 }
            -
               depth: 5
               value: 2.0798763918495192e+02
            -
               depth: 5
               value: 1.5336539876038879e+02
            -
               depth: 3
               value: 1.8887194589261637e+02
               splits:
                  - { var:16, quality:527602528.,
                      le:5.3931877136230469e+01 }
            -
               depth: 4
               value: 2.0321672304797659e+02
               splits:
                  - { var:22, quality:403980288.,
                      le:3.7229019165039063e+01 }
            -
               depth: 5
               value: 2.0692630375619260e+02
            -
               depth: 5
               value: 1.7319781411094078e+02
            -
               depth: 4
               value: 1.6010572884684152e+02
               splits:
                  - { var:22, quality:125231008.,
                      le:3.9852929115295410e+00 }
            -
               depth: 5
               value: 1.6364001203321649e+02
            -
               depth: 5
               value: 1.2972622958407601e+02
            -
               depth: 2
               value: 1.8942951310838575e+02
               splits:
                  - { var:9, quality:267480240., le:7. }
            -
               depth: 3
               value: 1.9749180118333720e+02
               splits:
                  - { var:33, quality:233251392.,
                      le:1.7084337770938873e-02 }
            -
               depth: 4
               value: 1.6378707553615135e+02
               splits:
                  - { var:1, quality:72286224., le:5.0000000000000000e-01 }
            -
               depth: 5
               value: 1.5660300707953931e+02
            -
               depth: 5
               value: 2.5552499682241711e+02
            -
               depth: 4
               value: 2.2509797634749128e+02
               splits:
                  - { var:4, quality:163053936.,
                      le:9.9500000476837158e-01 }
            -
               depth: 5
               value: 2.2558976343688968e+02
            -
               depth: 5
               value: 0.
            -
               depth: 3
               value: 1.5930038665554420e+02
               splits:
                  - { var:9, quality:39821468., le:9.5500000000000000e+01 }
            -
               depth: 4
               value: 1.5216425961152765e+02
               splits:
                  - { var:0, quality:24697886., le:9.6076377868652344e+01 }
            -
               depth: 5
               value: 8.1416525957877170e+01
            -
               depth: 5
               value: 1.6088343975911269e+02
            -
               depth: 4
               value: 1.7345007367602742e+02
               splits:
                  - { var:9, quality:15975529., le:99. }
            -
               depth: 5
               value: 2.6931152205033737e+02
            -
               depth: 5
               value: 1.6924897434488236e+02
            -
               depth: 1
               value: 1.7157134123171497e+02
               splits:
                  - { var:5, quality:2.6297730560000000e+09,
                      le:5.0000000000000000e-01 }
            -
               depth: 2
               value: 1.5621578196021784e+02
               splits:
                  - { var:15, quality:657148224.,
                      le:1.9081237792968750e+02 }
            -
               depth: 3
               value: 1.4835641556106572e+02
               splits:
                  - { var:21, quality:512516416.,
                      le:1.8926828002929688e+02 }
            -
               depth: 4
               value: 1.4220455735833409e+02
               splits:
                  - { var:18, quality:434172512.,
                      le:1.3872212219238281e+02 }
            -
               depth: 5
               value: 1.3315003638291796e+02
            -
               depth: 5
               value: 1.8505276804771148e+02
            -
               depth: 4
               value: 2.2253789518255664e+02
               splits:
                  - { var:18, quality:87006232.,
                      le:1.0462933349609375e+02 }
            -
               depth: 5
               value: 2.1231042306169479e+02
            -
               depth: 5
               value: 2.4992598894621196e+02
            -
               depth: 3
               value: 2.0464790666682407e+02
               splits:
                  - { var:3, quality:155805216., le:30. }
            -
               depth: 4
               value: 2.0730869235542841e+02
               splits:
                  - { var:27, quality:154312848.,
                      le:2.4334350585937500e+02 }
            -
               depth: 5
               value: 2.0501731124100598e+02
            -
               depth: 5
               value: 2.6810079592191255e+02
            -
               depth: 4
               value: 1.2722553284962972e+02
               splits:
                  - { var:18, quality:2.1076807500000000e+06,
                      le:1.9668724060058594e+02 }
            -
               depth: 5
               value: 1.4039466147239392e+02
            -
               depth: 5
               value: 5.5141881440815176e+01
            -
               depth: 2
               value: 1.7808380390840119e+02
               splits:
                  - { var:3, quality:1986369280.,
                      le:5.0999784469604492e+00 }
            -
               depth: 3
               value: 1.8381515004578355e+02
               splits:
                  - { var:6, quality:1405530368., le:49. }
            -
               depth: 4
               value: 2.2572133523032261e+02
               splits:
                  - { var:12, quality:901960960.,
                      le:2.0358081054687500e+02 }
            -
               depth: 5
               value: 1.7228272724761496e+02
            -
               depth: 5
               value: 2.4809078123571422e+02
            -
               depth: 4
               value: 1.5190867565820662e+02
               splits:
                  - { var:15, quality:534679680.,
                      le:1.8917721557617188e+02 }
            -
               depth: 5
               value: 1.4502631171021861e+02
            -
               depth: 5
               value: 2.1863909145145766e+02
            -
               depth: 3
               value: 1.6789273495677688e+02
               splits:
                  - { var:33, quality:650560320.,
                      le:1.7978170776367188e+02 }
            -
               depth: 4
               value: 1.5515762969861299e+02
               splits:
                  - { var:7, quality:451042880.,
                      le:5.0000000000000000e-01 }
            -
               depth: 5
               value: 2.2351763041218936e+02
            -
               depth: 5
               value: 1.4814561113913265e+02
            -
               depth: 4
               value: 2.2448293418088684e+02
               splits:
                  - { var:0, quality:208995152.,
                      le:1.5877507019042969e+02 }
            -
               depth: 5
               value: 2.0795057170616823e+02
            -
               depth: 5
               value: 2.3431815907904118e+02
      -
         nodes:
            -
               depth: 0
               value: 1.5528971191484783e+02
               splits:
                  - { var:0, quality:5.1558528000000000e+09,
                      le:1.8061888122558594e+02 }
            -
               depth: 1
               value: 1.4363849205203800e+02
               splits:
                  - { var:18, quality:2.2766722560000000e+09,
                      le:1.7578300476074219e+02 }
            -
               depth: 2
               value: 1.3915753681188164e+02
               splits:
                  - { var:13, quality:1873716352.,
                      le:2.3470716476440430e+00 }
            -
               depth: 3
               value: 1.3169836446176578e+02
               splits:
                  - { var:33, quality:450151616.,
                      le:1.9589331054687500e+02 }
            -
               depth: 4
               value: 1.2254444835138524e+02
               splits:
                  - { var:16, quality:295631136.,
                      le:1.9326160430908203e+01 }
            -
               depth: 5
               value: 1.1864325915608072e+02
            -
               depth: 5
               value: 1.4402497430279945e+02
            -
               depth: 4
               value: 1.6170610319132362e+02
               splits:
                  - { var:21, quality:157844720.,
                      le:1.7722946166992188e+02 }
            -
               depth: 5
               value: 1.5827779053595290e+02
            -
               depth: 5
               value: 2.4394257370697406e+02
            -
               depth: 3
               value: 1.4183753110766438e+02
               splits:
                  - { var:21, quality:1438906880.,
                      le:2.9227905273437500e+02 }
            -
               depth: 4
               value: 1.4061532765405116e+02
               splits:
                  - { var:33, quality:1400699008.,
                      le:1.8468603515625000e+02 }
            -
               depth: 5
               value: 1.3235379327647681e+02
            -
               depth: 5
               value: 1.6195853834062959e+02
            -
               depth: 4
               value: 2.3761408612105464e+02
               splits:
                  - { var:27, quality:51924728.,
                      le:2.7534362792968750e+02 }
            -
               depth: 5
               value: 2.4911513008005275e+02
            -
               depth: 5
               value: 1.0795163162440470e+02
            -
               depth: 2
               value: 1.7724530866891226e+02
               splits:
                  - { var:31, quality:405557760.,
                      le:4.4963718414306641e+01 }
            -
               depth: 3
               value: 2.1581269737260695e+02
               splits:
                  - { var:4, quality:20531844., le:2.8000062704086304e-01 }
            -
               depth: 4
               value: 2.2387423146358657e+02
               splits:
                  - { var:0, quality:19949622., le:6.3839993476867676e+00 }
            -
               depth: 5
               value: 3.4748417790979147e-02
            -
               depth: 5
               value: 2.2617002103328704e+02
            -
               depth: 4
               value: 1.3834332098611972e+02
               splits:
                  - { var:15, quality:8.0563068750000000e+05,
                      le:1.4209777832031250e+02 }
            -
               depth: 5
               value: 1.5202687873840333e+02
            -
               depth: 5
               value: 1.0102452711625533e+02
            -
               depth: 3
               value: 1.7589809803002146e+02
               splits:
                  - { var:12, quality:387427840.,
                      le:2.5503814697265625e+02 }
            -
               depth: 4
               value: 1.6923009807716599e+02
               splits:
                  - { var:4, quality:284203616.,
                      le:2.2500070929527283e-01 }
            -
               depth: 5
               value: 1.7383168479473238e+02
            -
               depth: 5
               value: 1.4422095359914238e+02
            -
               depth: 4
               value: 2.0155263735817397e+02
               splits:
                  - { var:4, quality:105251960.,
                      le:6.2500035762786865e-01 }
            -
               depth: 5
               value: 2.0814151456838525e+02
            -
               depth: 5
               value: 1.4895680983750137e+02
            -
               depth: 1
               value: 1.6768344475015456e+02
               splits:
                  - { var:18, quality:2.9332689920000000e+09,
                      le:1.8109434509277344e+02 }
            -
               depth: 2
               value: 1.6020003308553527e+02
               splits:
                  - { var:33, quality:2.3074040320000000e+09,
                      le:1.8483212280273438e+02 }
            -
               depth: 3
               value: 1.5285766560392329e+02
               splits:
                  - { var:0, quality:1609299328.,
                      le:1.8068109130859375e+02 }
            -
               depth: 4
               value: 2.5907999095569494e+02
               splits:
                  - { var:0, quality:39019364., le:1.8067866516113281e+02 }
            -
               depth: 5
               value: 2.3309100954754408e+02
            -
               depth: 5
               value: 3.4310451731287446e+02
            -
               depth: 4
               value: 1.5197869842127466e+02
               splits:
                  - { var:6, quality:1584736768., le:17. }
            -
               depth: 5
               value: 1.7059191560401771e+02
            -
               depth: 5
               value: 1.4153390838361773e+02
            -
               depth: 3
               value: 1.8455070998213006e+02
               splits:
                  - { var:15, quality:709219904.,
                      le:1.9027635192871094e+02 }
            -
               depth: 4
               value: 1.7854056062923885e+02
               splits:
                  - { var:1, quality:571888832.,
                      le:5.0000000000000000e-01 }
            -
               depth: 5
               value: 1.7585789577029354e+02
            -
               depth: 5
               value: 2.3686887121838370e+02
            -
               depth: 4
               value: 2.2243884430316345e+02
               splits:
                  - { var:15, quality:141272064.,
                      le:3.4934301757812500e+02 }
            -
               depth: 5
               value: 2.2948309726739657e+02
            -
               depth: 5
               value: 1.6492217689617252e+02
            -
               depth: 2
               value: 2.1646165280149054e+02
               splits:
                  - { var:15, quality:644078080.,
                      le:1.4315234124660492e-01 }
            -
               depth: 3
               value: 2.2515179101222171e+02
               splits:
                  - { var:0, quality:476250176.,
                      le:3.4421063232421875e+02 }
            -
               depth: 4
               value: 2.2327707981155143e+02
               splits:
                  - { var:19, quality:444007584.,
                      le:7.5309875488281250e+02 }
            -
               depth: 5
               value: 2.2162586339136323e+02
            -
               depth: 5
               value: 2.7896693360805511e+02
            -
               depth: 4
               value: 2.5895743517846654e+02
               splits:
                  - { var:13, quality:33516438.,
                      le:7.1843597412109375e+01 }
            -
               depth: 5
               value: 2.9943204129679822e+02
            -
               depth: 5
               value: 2.3608607045128232e+02
            -
               depth: 3
               value: 1.9756488180930273e+02
               splits:
                  - { var:0, quality:170962176.,
                      le:3.2046264648437500e+02 }
            -
               depth: 4
               value: 2.0910312069365588e+02
               splits:
                  - { var:33, quality:154960432.,
                      le:1.6368457031250000e+02 }
            -
               depth: 5
               value: 1.9578036181714481e+02
            -
               depth: 5
               value: 2.3246485985035488e+02
            -
               depth: 4
               value: 1.4655600915347512e+02
               splits:
                  - { var:33, quality:17901350.,
                      le:2.6803576660156250e+02 }
            -
               depth: 5
               value: 1.3764458210729970e+02
            -
               depth: 5
               value: 2.5994623605136212e+02
      -
         nodes:
            -
               depth: 0
               value: 1.5486399002921243e+02
               splits:
                  - { var:15, quality:5.1357015040000000e+09,
                      le:1.9006665039062500e+02 }
            -
               depth: 1
               value: 1.5006944771928642e+02
               splits:
                  - { var:16, quality:4.2539591680000000e+09,
                      le:6.1789941787719727e+00 }
            -
               depth: 2
               value: 1.5227308685437063e+02
               splits:
                  - { var:1, quality:3.7687733760000000e+09,
                      le:5.0000000000000000e-01 }
            -
               depth: 3
               value: 1.4941753612381532e+02
               splits:
                  - { var:13, quality:3.4754065920000000e+09,
                      le:9.3040962219238281e+00 }
            -
               depth: 4
               value: 1.4174932458078268e+02
               splits:
                  - { var:10, quality:882581568.,
                      le:1.5000000000000000e+00 }
            -
               depth: 5
               value: 1.4088212708066723e+02
            -
               depth: 5
               value: 1.5341837069198397e+02
            -
               depth: 4
               value: 1.5243404516349787e+02
               splits:
                  - { var:6, quality:2.6028907520000000e+09,
                      le:4.6500000000000000e+01 }
            -
               depth: 5
               value: 1.6120412467819395e+02
            -
               depth: 5
               value: 1.4260382966398583e+02
            -
               depth: 3
               value: 2.3450660222607371e+02
               splits:
                  - { var:30, quality:298938912.,
                      le:2.0508428955078125e+02 }
            -
               depth: 4
               value: 2.1928686983005835e+02
               splits:
                  - { var:33, quality:162335072.,
                      le:9.7031182050704956e-01 }
            -
               depth: 5
               value: 2.4536073444305333e+02
            -
               depth: 5
               value: 1.8030398243508250e+02
            -
               depth: 4
               value: 2.5853546340144464e+02
               splits:
                  - { var:9, quality:141165296., le:70. }
            -
               depth: 5
               value: 2.6343151117675933e+02
            -
               depth: 5
               value: 1.4138003449212937e+02
            -
               depth: 2
               value: 1.3728983386690649e+02
               splits:
                  - { var:0, quality:528309440.,
                      le:1.6029617309570313e+02 }
            -
               depth: 3
               value: 1.2217360268427674e+02
               splits:
                  - { var:9, quality:189977744., le:46. }
            -
               depth: 4
               value: 1.2070082049898944e+02
               splits:
                  - { var:19, quality:178034608.,
                      le:4.4105252075195313e+02 }
            -
               depth: 5
               value: 1.1638852079687929e+02
            -
               depth: 5
               value: 1.3468084821921477e+02
            -
               depth: 4
               value: 1.5704472952269396e+02
               splits:
                  - { var:9, quality:13114540., le:60. }
            -
               depth: 5
               value: 1.9331287431362833e+02
            -
               depth: 5
               value: 1.3356343065164029e+02
            -
               depth: 3
               value: 1.5001950298923259e+02
               splits:
                  - { var:33, quality:342357824.,
                      le:1.9547106933593750e+02 }
            -
               depth: 4
               value: 1.4192044868924350e+02
               splits:
                  - { var:12, quality:236517536.,
                      le:2.0636892700195313e+02 }
            -
               depth: 5
               value: 1.3374765105426326e+02
            -
               depth: 5
               value: 1.6134801779198932e+02
            -
               depth: 4
               value: 1.7768355507049102e+02
               splits:
                  - { var:0, quality:109403664.,
                      le:3.3341000366210938e+02 }
            -
               depth: 5
               value: 1.8487010015557394e+02
            -
               depth: 5
               value: 1.0778423447878856e+02
            -
               depth: 1
               value: 1.9274603488144658e+02
               splits:
                  - { var:2, quality:900474368.,
                      le:9.3200065612792969e+01 }
            -
               depth: 2
               value: 2.0234801354596738e+02
               splits:
                  - { var:12, quality:845303168.,
                      le:1.8170722961425781e+02 }
            -
               depth: 3
               value: 1.9027189176946769e+02
               splits:
                  - { var:22, quality:480863008.,
                      le:6.8621475219726563e+01 }
            -
               depth: 4
               value: 1.9529216077959632e+02
               splits:
                  - { var:13, quality:420533504.,
                      le:7.6720988750457764e-01 }
            -
               depth: 5
               value: 2.2392308186415434e+02
            -
               depth: 5
               value: 1.8158190669926731e+02
            -
               depth: 4
               value: 1.6670577737095417e+02
               splits:
                  - { var:22, quality:66200408.,
                      le:4.2623321533203125e+02 }
            -
               depth: 5
               value: 1.4596312024323976e+02
            -
               depth: 5
               value: 1.9960792315974251e+02
            -
               depth: 3
               value: 2.2433010844478213e+02
               splits:
                  - { var:12, quality:367287520.,
                      le:2.9020764160156250e+02 }
            -
               depth: 4
               value: 2.1439486214445017e+02
               splits:
                  - { var:24, quality:215265792.,
                      le:3.3666503906250000e+01 }
            -
               depth: 5
               value: 2.2035641134584731e+02
            -
               depth: 5
               value: 1.7760751776475172e+02
            -
               depth: 4
               value: 2.4205912184671450e+02
               splits:
                  - { var:4, quality:153670832.,
                      le:9.8500001430511475e-01 }
            -
               depth: 5
               value: 2.4323652971843865e+02
            -
               depth: 5
               value: 3.8210572322209678e+01
            -
               depth: 2
               value: 1.3421534056743442e+02
               splits:
                  - { var:18, quality:62216732.,
                      le:1.6951229858398438e+02 }
            -
               depth: 3
               value: 1.2649196996419974e+02
               splits:
                  - { var:16, quality:49279856.,
                      le:6.5167431640625000e+02 }
            -
               depth: 4
               value: 1.3736988909131537e+02
               splits:
                  - { var:33, quality:46467460.,
                      le:1.7951641845703125e+02 }
            -
               depth: 5
               value: 1.2894734507762197e+02
            -
               depth: 5
               value: 1.9566056498806469e+02
            -
               depth: 4
               value: 8.2242807413220916e+01
               splits:
                  - { var:30, quality:4592631., le:1.2437741088867188e+02 }
            -
               depth: 5
               value: 4.5505761972709202e+01
            -
               depth: 5
               value: 1.1001426438313155e+02
            -
               depth: 3
               value: 1.9579634884389242e+02
               splits:
                  - { var:25, quality:14648341.,
                      le:1.0462303161621094e+02 }
            -
               depth: 4
               value: 1.8688136409725664e+02
               splits:
                  - { var:21, quality:11998153.,
                      le:3.2049877643585205e+00 }
            -
               depth: 5
               value: 1.9334875495547340e+02
            -
               depth: 5
               value: 9.8306228430374816e+01
            -
               depth: 4
               value: 2.7723593923207875e+02
               splits:
                  - { var:0, quality:2853330., le:2.5930322265625000e+02 }
            -
               depth: 5
               value: 2.1013852691650391e+02
            -
               depth: 5
               value: 2.8107007707868303e+02
      -
         nodes:
            -
               depth: 0
               value: 1.5563970538152455e+02
               splits:
                  - { var:18, quality:5.1988951040000000e+09,
                      le:1.7823486328125000e+02 }
            -
               depth: 1
               value: 1.4982651480300669e+02
               splits:
                  - { var:16, quality:4.1854103040000000e+09,
                      le:3.3915111541748047e+01 }
            -
               depth: 2
               value: 1.4643529309497220e+02
               splits:
                  - { var:12, quality:3.1388994560000000e+09,
                      le:1.3169287109375000e+02 }
            -
               depth: 3
               value: 1.3255487089795952e+02
               splits:
                  - { var:0, quality:1436274560.,
                      le:1.8401667785644531e+02 }
            -
               depth: 4
               value: 1.2457504416418151e+02
               splits:
                  - { var:6, quality:738749184., le:215. }
            -
               depth: 5
               value: 1.2355702234240259e+02
            -
               depth: 5
               value: 1.8374851457050019e+02
            -
               depth: 4
               value: 1.4371335645984266e+02
               splits:
                  - { var:1, quality:732621440.,
                      le:5.0000000000000000e-01 }
            -
               depth: 5
               value: 1.3519441412304755e+02
            -
               depth: 5
               value: 2.5531327216174151e+02
            -
               depth: 3
               value: 1.6424597951377623e+02
               splits:
                  - { var:6, quality:1739457792., le:49. }
            -
               depth: 4
               value: 1.8546136191160673e+02
               splits:
                  - { var:27, quality:1114265728.,
                      le:1.7850521850585938e+02 }
            -
               depth: 5
               value: 1.8222171629262161e+02
            -
               depth: 5
               value: 2.2635282805719271e+02
            -
               depth: 4
               value: 1.4224027093315172e+02
               splits:
                  - { var:12, quality:631012288.,
                      le:2.8456134033203125e+02 }
            -
               depth: 5
               value: 1.4704157112878795e+02
            -
               depth: 5
               value: 1.3189627540876015e+02
            -
               depth: 2
               value: 1.6167961402371054e+02
               splits:
                  - { var:12, quality:1089764608.,
                      le:1.7407313537597656e+02 }
            -
               depth: 3
               value: 1.5014740218399990e+02
               splits:
                  - { var:24, quality:539744768.,
                      le:1.9236968994140625e+02 }
            -
               depth: 4
               value: 1.4687419119387522e+02
               splits:
                  - { var:5, quality:461360928.,
                      le:5.0000000000000000e-01 }
            -
               depth: 5
               value: 1.5669357258048086e+02
            -
               depth: 5
               value: 1.4213909152953272e+02
            -
               depth: 4
               value: 1.7804420559464310e+02
               splits:
                  - { var:31, quality:82336872.,
                      le:3.7585644531250000e+02 }
            -
               depth: 5
               value: 1.6710840014762326e+02
            -
               depth: 5
               value: 2.8616603857952617e+02
            -
               depth: 3
               value: 1.7734116951510484e+02
               splits:
                  - { var:15, quality:570417280.,
                      le:1.2970880126953125e+02 }
            -
               depth: 4
               value: 1.3795239835991478e+02
               splits:
                  - { var:5, quality:135782224.,
                      le:5.0000000000000000e-01 }
            -
               depth: 5
               value: 1.1744706593150160e+02
            -
               depth: 5
               value: 1.5085665710972421e+02
            -
               depth: 4
               value: 2.0368645823472011e+02
               splits:
                  - { var:2, quality:438820544., le:90. }
            -
               depth: 5
               value: 2.0944366312693768e+02
            -
               depth: 5
               value: 1.6532745579188963e+02
            -
               depth: 1
               value: 1.9659854610503115e+02
               splits:
                  - { var:0, quality:1029318720.,
                      le:1.8077261352539063e+02 }
            -
               depth: 2
               value: 1.7818069459553155e+02
               splits:
                  - { var:6, quality:410062528., le:53. }
            -
               depth: 3
               value: 1.6389525480430225e+02
               splits:
                  - { var:0, quality:232468640.,
                      le:1.7956773376464844e+02 }
            -
               depth: 4
               value: 1.6148488563374312e+02
               splits:
                  - { var:16, quality:209703184.,
                      le:4.3697254180908203e+01 }
            -
               depth: 5
               value: 1.7712624959681727e+02
            -
               depth: 5
               value: 1.3951779586312458e+02
            -
               depth: 4
               value: 1.9138246760132520e+02
               splits:
                  - { var:30, quality:26245738.,
                      le:1.8186543273925781e+02 }
            -
               depth: 5
               value: 1.6751721421133303e+02
            -
               depth: 5
               value: 2.3672644904231032e+02
            -
               depth: 3
               value: 2.0817977066405075e+02
               splits:
                  - { var:24, quality:179237840.,
                      le:1.7971838712692261e+00 }
            -
               depth: 4
               value: 2.1485517209717312e+02
               splits:
                  - { var:9, quality:162495840., le:35. }
            -
               depth: 5
               value: 2.1836550313303579e+02
            -
               depth: 5
               value: 1.8090418925183886e+02
            -
               depth: 4
               value: 1.6911754661122959e+02
               splits:
                  - { var:3, quality:17601050., le:8.6499948501586914e+00 }
            -
               depth: 5
               value: 2.0817086543547802e+02
            -
               depth: 5
               value: 1.5031409680696180e+02
            -
               depth: 2
               value: 2.1376752420736906e+02
               splits:
                  - { var:3, quality:626189888., le:90. }
            -
               depth: 3
               value: 2.1531667418073167e+02
               splits:
                  - { var:16, quality:622208000.,
                      le:2.9663856506347656e+01 }
            -
               depth: 4
               value: 2.2408549817921389e+02
               splits:
                  - { var:33, quality:460453824.,
                      le:1.0451817512512207e+00 }
            -
               depth: 5
               value: 2.4363743711091044e+02
            -
               depth: 5
               value: 2.1515575084312098e+02
            -
               depth: 4
               value: 1.9639589172544700e+02
               splits:
                  - { var:0, quality:165802624.,
                      le:3.2320056152343750e+02 }
            -
               depth: 5
               value: 2.0672739966541229e+02
            -
               depth: 5
               value: 1.4033295941389022e+02
            -
               depth: 3
               value: 1.4424811953026176e+02
               splits:
                  - { var:0, quality:6.6178685000000000e+06,
                      le:2.0390722656250000e+02 }
            -
               depth: 4
               value: 1.0782169530905929e+02
               splits:
                  - { var:7, quality:2.2059827500000000e+06, le:10. }
            -
               depth: 5
               value: 1.8255682019626394e+02
            -
               depth: 5
               value: 7.0454132865456970e+01
            -
               depth: 4
               value: 1.8268427750159955e+02
               splits:
                  - { var:6, quality:5210837., le:423. }
            -
               depth: 5
               value: 2.0051469723013943e+02
            -
               depth: 5
               value: 3.8926518440246582e+01
      -
         nodes:
            -
               depth: 0
               value: 1.5538430649526646e+02
               splits:
                  - { var:12, quality:5.1740948480000000e+09,
                      le:1.4186462402343750e+02 }
            -
               depth: 1
               value: 1.4292298529496918e+02
               splits:
                  - { var:5, quality:2.4516746240000000e+09,
                      le:1.5000000000000000e+00 }
            -
               depth: 2
               value: 1.4668289892498541e+02
               splits:
                  - { var:18, quality:1724062080.,
                      le:1.7948023986816406e+02 }
            -
               depth: 3
               value: 1.3976804883236369e+02
               splits:
                  - { var:0, quality:1343593984.,
                      le:1.8331921386718750e+02 }
            -
               depth: 4
               value: 1.3038779552726714e+02
               splits:
                  - { var:7, quality:671260928.,
                      le:1.5000000000000000e+00 }
            -
               depth: 5
               value: 1.2507405808921672e+02
            -
               depth: 5
               value: 1.3872888967472178e+02
            -
               depth: 4
               value: 1.5251534016084324e+02
               splits:
                  - { var:0, quality:679851072.,
                      le:3.1720169067382813e+02 }
            -
               depth: 5
               value: 1.6225780174311089e+02
            -
               depth: 5
               value: 1.3206888020840864e+02
            -
               depth: 3
               value: 1.9110116168871585e+02
               splits:
                  - { var:31, quality:389304768.,
                      le:3.1750585937500000e+02 }
            -
               depth: 4
               value: 1.8941828286743663e+02
               splits:
                  - { var:19, quality:366121216.,
                      le:7.5687438964843750e+02 }
            -
               depth: 5
               value: 1.8800634777194932e+02
            -
               depth: 5
               value: 2.5245516991080726e+02
            -
               depth: 4
               value: 2.2809905266452813e+02
               splits:
                  - { var:30, quality:24967682.,
                      le:8.2127876281738281e+00 }
            -
               depth: 5
               value: 3.1615326593210409e+02
            -
               depth: 5
               value: 2.0655890909638455e+02
            -
               depth: 2
               value: 1.3565308890498068e+02
               splits:
                  - { var:6, quality:756219968., le:1. }
            -
               depth: 3
               value: 1.0629813289848944e+02
               splits:
                  - { var:1, quality:52637536., le:5.0000000000000000e-01 }
            -
               depth: 4
               value: 1.0261268109808708e+02
               splits:
                  - { var:15, quality:45926540.,
                      le:3.5133697509765625e+02 }
            -
               depth: 5
               value: 1.0219105160486608e+02
            -
               depth: 5
               value: 1.7012024773491754e+02
            -
               depth: 4
               value: 2.2417839269077078e+02
               splits:
                  - { var:19, quality:7737953., le:2.3188473510742188e+02 }
            -
               depth: 5
               value: 2.6660282555696006e+02
            -
               depth: 5
               value: 6.7646864529313717e+01
            -
               depth: 3
               value: 1.3927353078893634e+02
               splits:
                  - { var:19, quality:714646656.,
                      le:8.8318588256835938e+01 }
            -
               depth: 4
               value: 1.3166391964669018e+02
               splits:
                  - { var:0, quality:513443808.,
                      le:2.9026271820068359e+01 }
            -
               depth: 5
               value: 9.2228901893280593e+01
            -
               depth: 5
               value: 1.3273884676993171e+02
            -
               depth: 4
               value: 1.7220652783138618e+02
               splits:
                  - { var:18, quality:216697152.,
                      le:1.4555664062500000e+02 }
            -
               depth: 5
               value: 1.1316565943512984e+02
            -
               depth: 5
               value: 2.0753981268758645e+02
            -
               depth: 1
               value: 1.7150199744583136e+02
               splits:
                  - { var:1, quality:2.7344197120000000e+09,
                      le:5.0000000000000000e-01 }
            -
               depth: 2
               value: 1.6991767439284232e+02
               splits:
                  - { var:4, quality:2.6079032320000000e+09,
                      le:9.9500000476837158e-01 }
            -
               depth: 3
               value: 1.7009251499220386e+02
               splits:
                  - { var:2, quality:2.6107095040000000e+09,
                      le:5.9900115966796875e+01 }
            -
               depth: 4
               value: 1.7386481331127268e+02
               splits:
                  - { var:6, quality:1968873216., le:49. }
            -
               depth: 5
               value: 1.8828200472682315e+02
            -
               depth: 5
               value: 1.4871480334927722e+02
            -
               depth: 4
               value: 1.6067018721577375e+02
               splits:
                  - { var:18, quality:675441920.,
                      le:1.8202386474609375e+02 }
            -
               depth: 5
               value: 1.5357050303517451e+02
            -
               depth: 5
               value: 2.1680505619158680e+02
            -
               depth: 3
               value: 5.4051066314472870e+01
               splits:
                  - { var:22, quality:458106., le:8.1364093017578125e+02 }
            -
               depth: 4
               value: 5.1468377953145044e+01
               splits:
                  - { var:31, quality:4.4975034375000000e+05,
                      le:1.6056378173828125e+02 }
            -
               depth: 5
               value: 1.4682578791742740e+01
            -
               depth: 5
               value: 7.0697318423878059e+01
            -
               depth: 4
               value: 2.2709118652343750e+02
            -
               depth: 2
               value: 2.3091444104032783e+02
               splits:
                  - { var:7, quality:131646696.,
                      le:5.5000000000000000e+00 }
            -
               depth: 3
               value: 2.0332424499845320e+02
               splits:
                  - { var:2, quality:65304828., le:4.9200202941894531e+01 }
            -
               depth: 4
               value: 2.2633585069798121e+02
               splits:
                  - { var:9, quality:49406368., le:58. }
            -
               depth: 5
               value: 2.3734852376750325e+02
            -
               depth: 5
               value: 1.6553986101281154e+02
            -
               depth: 4
               value: 1.6656745200189167e+02
               splits:
                  - { var:24, quality:16729903.,
                      le:1.2593653678894043e+01 }
            -
               depth: 5
               value: 1.7495994318748006e+02
            -
               depth: 5
               value: 1.2777197387983215e+02
            -
               depth: 3
               value: 2.8063460806340339e+02
               splits:
                  - { var:25, quality:68153328.,
                      le:5.2514111328125000e+02 }
            -
               depth: 4
               value: 2.8374661013761192e+02
               splits:
                  - { var:13, quality:68163776.,
                      le:4.0994522094726563e+02 }
            -
               depth: 5
               value: 2.9040748115797930e+02
            -
               depth: 5
               value: 2.6046899173132817e+02
            -
               depth: 4
               value: 9.2803054298673359e+01
               splits:
                  - { var:18, quality:2.4292131250000000e+05,
                      le:4.3967475891113281e+01 }
            -
               depth: 5
               value: 2.4061302947998047e+02
            -
               depth: 5
               value: 3.3679064226150516e+01
      -
         nodes:
            -
               depth: 0
               value: 1.5518365110246481e+02
               splits:
                  - { var:18, quality:5.1695733760000000e+09,
                      le:1.7740722656250000e+02 }
            -
               depth: 1
               value: 1.4931008094533061e+02
               splits:
                  - { var:15, quality:4.1807395840000000e+09,
                      le:1.8837625122070313e+02 }
            -
               depth: 2
               value: 1.4465951918885602e+02
               splits:
                  - { var:0, quality:3.4953838080000000e+09,
                      le:1.8062997436523438e+02 }
            -
               depth: 3
               value: 1.3604425075405260e+02
               splits:
                  - { var:33, quality:1650272768.,
                      le:1.8770703125000000e+02 }
            -
               depth: 4
               value: 1.2779497253677644e+02
               splits:
                  - { var:3, quality:1069689664.,
                      le:3.4750030517578125e+01 }
            -
               depth: 5
               value: 1.2569591832563803e+02
            -
               depth: 5
               value: 1.4569431380449396e+02
            -
               depth: 4
               value: 1.5959384810421446e+02
               splits:
                  - { var:21, quality:588375104.,
                      le:2.6774795532226563e+02 }
            -
               depth: 5
               value: 1.5693233953892818e+02
            -
               depth: 5
               value: 2.4719099519517687e+02
            -
               depth: 3
               value: 1.5438986428618003e+02
               splits:
                  - { var:12, quality:1879285120.,
                      le:2.0321022033691406e+02 }
            -
               depth: 4
               value: 1.4471308680911125e+02
               splits:
                  - { var:22, quality:1148054528.,
                      le:3.9642517089843750e+01 }
            -
               depth: 5
               value: 1.4160416042905777e+02
            -
               depth: 5
               value: 1.6554175475459766e+02
            -
               depth: 4
               value: 1.7691830912864063e+02
               splits:
                  - { var:1, quality:747172224.,
                      le:5.0000000000000000e-01 }
            -
               depth: 5
               value: 1.7181698116502875e+02
            -
               depth: 5
               value: 2.8048637676011845e+02
            -
               depth: 2
               value: 1.8870995654637224e+02
               splits:
                  - { var:2, quality:710150976.,
                      le:9.4900001525878906e+01 }
            -
               depth: 3
               value: 1.9903058379216779e+02
               splits:
                  - { var:10, quality:652694400.,
                      le:1.5000000000000000e+00 }
            -
               depth: 4
               value: 2.0002455508933286e+02
               splits:
                  - { var:21, quality:641699392.,
                      le:2.3951370239257813e+02 }
            -
               depth: 5
               value: 1.9713190479066196e+02
            -
               depth: 5
               value: 2.4722521180469838e+02
            -
               depth: 4
               value: 1.6586223887799926e+02
               splits:
                  - { var:10, quality:13591579.,
                      le:5.5000000000000000e+00 }
            -
               depth: 5
               value: 1.5505550717629527e+02
            -
               depth: 5
               value: 2.4586997182745682e+02
            -
               depth: 3
               value: 1.3517861239151020e+02
               splits:
                  - { var:12, quality:58477216.,
                      le:1.5663806200027466e+00 }
            -
               depth: 4
               value: 1.5933495876298338e+02
               splits:
                  - { var:19, quality:16850116.,
                      le:4.6825701904296875e+02 }
            -
               depth: 5
               value: 1.5497856168674701e+02
            -
               depth: 5
               value: 2.7314583237965900e+02
            -
               depth: 4
               value: 1.2894564311373409e+02
               splits:
                  - { var:12, quality:43193692.,
                      le:6.2802997589111328e+01 }
            -
               depth: 5
               value: 9.3569104966823787e+01
            -
               depth: 5
               value: 1.4288126283679878e+02
            -
               depth: 1
               value: 1.9636661513810412e+02
               splits:
                  - { var:33, quality:1026068416.,
                      le:2.8726495361328125e+02 }
            -
               depth: 2
               value: 1.9188843841071250e+02
               splits:
                  - { var:6, quality:841253248.,
                      le:5.2500000000000000e+01 }
            -
               depth: 3
               value: 1.8031427772879340e+02
               splits:
                  - { var:2, quality:475599520.,
                      le:1.0200096130371094e+01 }
            -
               depth: 4
               value: 2.2409611704869923e+02
               splits:
                  - { var:2, quality:20531910., le:3.3501875400543213e+00 }
            -
               depth: 5
               value: 1.2968545863939369e+02
            -
               depth: 5
               value: 2.4414022606482874e+02
            -
               depth: 4
               value: 1.7910034073427946e+02
               splits:
                  - { var:7, quality:456350592.,
                      le:1.9500000000000000e+01 }
            -
               depth: 5
               value: 1.8043475574309326e+02
            -
               depth: 5
               value: 1.5076020601657635e+02
            -
               depth: 3
               value: 2.1277169052323370e+02
               splits:
                  - { var:15, quality:371938208.,
                      le:1.2310317903757095e-01 }
            -
               depth: 4
               value: 2.3149058343002778e+02
               splits:
                  - { var:3, quality:287806752., le:90. }
            -
               depth: 5
               value: 2.3444955582605877e+02
            -
               depth: 5
               value: 1.3745698213284732e+02
            -
               depth: 4
               value: 1.7641580364537083e+02
               splits:
                  - { var:24, quality:86248144.,
                      le:1.8975961303710938e+02 }
            -
               depth: 5
               value: 1.8023850439972915e+02
            -
               depth: 5
               value: 1.1650365727706389e+02
            -
               depth: 2
               value: 2.2290595074080238e+02
               splits:
                  - { var:16, quality:191174704.,
                      le:6.5136840820312500e+02 }
            -
               depth: 3
               value: 2.1953322550530822e+02
               splits:
                  - { var:12, quality:177628320.,
                      le:9.7709560394287109e+00 }
            -
               depth: 4
               value: 2.5340153839576277e+02
               splits:
                  - { var:18, quality:71867008.,
                      le:3.2380578613281250e+02 }
            -
               depth: 5
               value: 2.3702987362140826e+02
            -
               depth: 5
               value: 3.1103785003990424e+02
            -
               depth: 4
               value: 2.0485473862194030e+02
               splits:
                  - { var:18, quality:107159424.,
                      le:3.5358795166015625e+02 }
            -
               depth: 5
               value: 2.0259912235237292e+02
            -
               depth: 5
               value: 2.6709961006078828e+02
            -
               depth: 3
               value: 2.9050870710938841e+02
               splits:
                  - { var:16, quality:15428467.,
                      le:7.9532037353515625e+02 }
            -
               depth: 4
               value: 2.9693693174966950e+02
               splits:
                  - { var:24, quality:14500867.,
                      le:2.7810720443725586e+01 }
            -
               depth: 5
               value: 3.0514607812452687e+02
            -
               depth: 5
               value: 2.6668036368233817e+02
            -
               depth: 4
               value: 2.3194043816460504e+02
               splits:
                  - { var:19, quality:9.9873475000000000e+05,
                      le:2.2581311035156250e+02 }
            -
               depth: 5
               value: 2.9005923461914063e+02
            -
               depth: 5
               value: 2.0288103993733725e+02
      -
         nodes:
            -
               depth: 0
               value: 1.5534749605309418e+02
               splits:
                  - { var:1, quality:5.1664046080000000e+09,
                      le:5.0000000000000000e-01 }
            -
               depth: 1
               value: 1.5304733525138033e+02
               splits:
                  - { var:33, quality:4.8739072000000000e+09,
                      le:1.8354129028320313e+02 }
            -
               depth: 2
               value: 1.4455437399295968e+02
               splits:
                  - { var:18, quality:3.2012318720000000e+09,
                      le:1.7960305786132813e+02 }
            -
               depth: 3
               value: 1.3873212419216523e+02
               splits:
                  - { var:6, quality:2.5970063360000000e+09,
                      le:4.6500000000000000e+01 }
            -
               depth: 4
               value: 1.4972490399351003e+02
               splits:
                  - { var:24, quality:1444710656.,
                      le:1.2040596771240234e+02 }
            -
               depth: 5
               value: 1.4684627098010091e+02
            -
               depth: 5
               value: 1.7293791798864765e+02
            -
               depth: 4
               value: 1.2862798180813536e+02
               splits:
                  - { var:34, quality:1161059584.,
                      le:9.5667892456054688e+01 }
            -
               depth: 5
               value: 1.3341363752127609e+02
            -
               depth: 5
               value: 1.1526558161224372e+02
            -
               depth: 3
               value: 1.9019045783408973e+02
               splits:
                  - { var:16, quality:627262912.,
                      le:2.9362548828125000e+01 }
            -
               depth: 4
               value: 2.0615078476288110e+02
               splits:
                  - { var:6, quality:476941984., le:51. }
            -
               depth: 5
               value: 1.9239431428926747e+02
            -
               depth: 5
               value: 2.2795499787960617e+02
            -
               depth: 4
               value: 1.6040782499844826e+02
               splits:
                  - { var:18, quality:155431712.,
                      le:2.4622784423828125e+02 }
            -
               depth: 5
               value: 1.8607199961558533e+02
            -
               depth: 5
               value: 1.4887140475792935e+02
            -
               depth: 2
               value: 1.7638265527186050e+02
               splits:
                  - { var:7, quality:1740160256.,
                      le:6.5000000000000000e+00 }
            -
               depth: 3
               value: 1.6830810402067885e+02
               splits:
                  - { var:18, quality:1391318400.,
                      le:1.7705450439453125e+02 }
            -
               depth: 4
               value: 1.6100580042184845e+02
               splits:
                  - { var:7, quality:1056748032.,
                      le:2.5000000000000000e+00 }
            -
               depth: 5
               value: 1.5592248775005197e+02
            -
               depth: 5
               value: 1.8780286131434067e+02
            -
               depth: 4
               value: 2.0484394801078025e+02
               splits:
                  - { var:7, quality:341519456.,
                      le:5.0000000000000000e-01 }
            -
               depth: 5
               value: 1.9598786103654231e+02
            -
               depth: 5
               value: 2.2469929500702173e+02
            -
               depth: 3
               value: 2.3777069280760176e+02
               splits:
                  - { var:12, quality:363760576.,
                      le:1.3742610168457031e+02 }
            -
               depth: 4
               value: 2.2268850985445169e+02
               splits:
                  - { var:21, quality:181677936.,
                      le:3.4446865844726563e+02 }
            -
               depth: 5
               value: 2.2156674210516073e+02
            -
               depth: 5
               value: 3.3867929513113842e+02
            -
               depth: 4
               value: 2.5783999233812267e+02
               splits:
                  - { var:10, quality:182917824.,
                      le:1.5000000000000000e+00 }
            -
               depth: 5
               value: 2.6193045590471559e+02
            -
               depth: 5
               value: 2.2581337245177610e+02
            -
               depth: 1
               value: 2.3190771198134456e+02
               splits:
                  - { var:31, quality:335064320.,
                      le:2.0979467773437500e+02 }
            -
               depth: 2
               value: 2.2144297960254940e+02
               splits:
                  - { var:33, quality:218892704.,
                      le:9.8396074771881104e-01 }
            -
               depth: 3
               value: 2.4302473703656057e+02
               splits:
                  - { var:2, quality:146112848.,
                      le:5.2250194549560547e+01 }
            -
               depth: 4
               value: 2.2913409784182977e+02
               splits:
                  - { var:6, quality:83264888., le:59. }
            -
               depth: 5
               value: 2.0377280519003327e+02
            -
               depth: 5
               value: 2.6353657639366253e+02
            -
               depth: 4
               value: 2.6710184497409398e+02
               splits:
                  - { var:18, quality:64351820.,
                      le:1.6704525756835938e+02 }
            -
               depth: 5
               value: 2.6319494387293270e+02
            -
               depth: 5
               value: 3.0770394375958023e+02
            -
               depth: 3
               value: 1.9423071753813755e+02
               splits:
                  - { var:22, quality:73869208.,
                      le:5.1008074951171875e+02 }
            -
               depth: 4
               value: 1.9808172208815813e+02
               splits:
                  - { var:9, quality:69572560., le:42. }
            -
               depth: 5
               value: 2.0381030166939851e+02
            -
               depth: 5
               value: 1.4684815442090655e+02
            -
               depth: 4
               value: 1.5874502116098455e+02
               splits:
                  - { var:2, quality:5281719., le:8.5000228881835938e+01 }
            -
               depth: 5
               value: 1.9856951322226689e+02
            -
               depth: 5
               value: 9.7149806772867834e+01
            -
               depth: 2
               value: 2.5772423017086663e+02
               splits:
                  - { var:9, quality:120384520., le:8. }
            -
               depth: 3
               value: 2.6758315999155445e+02
               splits:
                  - { var:33, quality:116635152.,
                      le:4.5271610260009766e+01 }
            -
               depth: 4
               value: 2.8345358436201610e+02
               splits:
                  - { var:3, quality:92405400., le:1.4850018501281738e+01 }
            -
               depth: 5
               value: 2.8916534681445239e+02
            -
               depth: 5
               value: 2.5779164683647701e+02
            -
               depth: 4
               value: 2.2856978273825675e+02
               splits:
                  - { var:13, quality:24624258.,
                      le:8.3337692260742188e+01 }
            -
               depth: 5
               value: 2.4522209361747460e+02
            -
               depth: 5
               value: 1.9947721608456445e+02
            -
               depth: 3
               value: 1.6568855583323219e+02
               splits:
                  - { var:7, quality:5.4725195000000000e+06, le:5. }
            -
               depth: 4
               value: 1.3023080906115081e+02
               splits:
                  - { var:3, quality:2359859., le:1.8699995040893555e+01 }
            -
               depth: 5
               value: 1.4234926474094391e+02
            -
               depth: 5
               value: 6.5599045435587570e+01
            -
               depth: 4
               value: 2.8358556385040282e+02
               splits:
                  - { var:9, quality:3.3162825000000000e+06, le:52. }
            -
               depth: 5
               value: 1.9104424794514975e+02
            -
               depth: 5
               value: 3.1045239750031504e+02
      -
         nodes:
            -
               depth: 0
               value: 1.5506083572825528e+02
               splits:
                  - { var:12, quality:5.1497272320000000e+09,
                      le:1.4735885620117188e+02 }
            -
               depth: 1
               value: 1.4323137733870092e+02
               splits:
                  - { var:0, quality:2.5102353920000000e+09,
                      le:1.8410583496093750e+02 }
            -
               depth: 2
               value: 1.3285804107187445e+02
               splits:
                  - { var:0, quality:1259148544.,
                      le:2.8566913604736328e+01 }
            -
               depth: 3
               value: 1.1667343260445489e+02
               splits:
                  - { var:27, quality:60246028.,
                      le:1.8923559570312500e+02 }
            -
               depth: 4
               value: 1.1141170700029146e+02
               splits:
                  - { var:33, quality:51490784.,
                      le:2.6081423950195313e+02 }
            -
               depth: 5
               value: 1.0281201679963723e+02
            -
               depth: 5
               value: 1.5414261208620889e+02
            -
               depth: 4
               value: 1.9727986781044152e+02
               splits:
                  - { var:0, quality:10763549., le:2.0436355590820313e+01 }
            -
               depth: 5
               value: 2.2004995244769958e+02
            -
               depth: 5
               value: 1.0915120689957230e+02
            -
               depth: 3
               value: 1.3389520926212700e+02
               splits:
                  - { var:13, quality:1206212992.,
                      le:1.4672964096069336e+01 }
            -
               depth: 4
               value: 1.4425138255870061e+02
               splits:
                  - { var:16, quality:605672064.,
                      le:1.0220265388488770e+01 }
            -
               depth: 5
               value: 1.4004311342223917e+02
            -
               depth: 5
               value: 1.6010204569187798e+02
            -
               depth: 4
               value: 1.2597987478656552e+02
               splits:
                  - { var:12, quality:606260928.,
                      le:3.6002990722656250e+01 }
            -
               depth: 5
               value: 1.0619530725986081e+02
            -
               depth: 5
               value: 1.3101903781286822e+02
            -
               depth: 2
               value: 1.5796152310517735e+02
               splits:
                  - { var:1, quality:1280094720.,
                      le:5.0000000000000000e-01 }
            -
               depth: 3
               value: 1.5189350171609385e+02
               splits:
                  - { var:19, quality:1100236416.,
                      le:8.4454048156738281e+01 }
            -
               depth: 4
               value: 1.4242881807794748e+02
               splits:
                  - { var:21, quality:746267392.,
                      le:2.0915005493164063e+02 }
            -
               depth: 5
               value: 1.3850501096110216e+02
            -
               depth: 5
               value: 1.9185561078600028e+02
            -
               depth: 4
               value: 1.8436230298613867e+02
               splits:
                  - { var:21, quality:362996896.,
                      le:1.9283169555664063e+02 }
            -
               depth: 5
               value: 1.7933523732141484e+02
            -
               depth: 5
               value: 2.2108464427270212e+02
            -
               depth: 3
               value: 2.4928456582716566e+02
               splits:
                  - { var:10, quality:195750480.,
                      le:5.0000000000000000e-01 }
            -
               depth: 4
               value: 2.5810895533859730e+02
               splits:
                  - { var:5, quality:178674336.,
                      le:1.5000000000000000e+00 }
            -
               depth: 5
               value: 2.6821126996288200e+02
            -
               depth: 5
               value: 2.3347074914423501e+02
            -
               depth: 4
               value: 1.9746309599300008e+02
               splits:
                  - { var:2, quality:18391726., le:3.3900146484375000e+01 }
            -
               depth: 5
               value: 3.0272561638171857e+02
            -
               depth: 5
               value: 1.8388083529768156e+02
            -
               depth: 1
               value: 1.7083608792096615e+02
               splits:
                  - { var:21, quality:2.6645624320000000e+09,
                      le:2.0461230468750000e+02 }
            -
               depth: 2
               value: 1.6881016766076095e+02
               splits:
                  - { var:6, quality:2.4880179200000000e+09, le:49. }
            -
               depth: 3
               value: 1.8640118429715162e+02
               splits:
                  - { var:6, quality:1678548352., le:1. }
            -
               depth: 4
               value: 1.7885447452179039e+02
               splits:
                  - { var:0, quality:1245675264.,
                      le:1.8091543579101563e+02 }
            -
               depth: 5
               value: 1.6492683928126718e+02
            -
               depth: 5
               value: 1.9577817547160959e+02
            -
               depth: 4
               value: 2.1767537094770546e+02
               splits:
                  - { var:12, quality:449749248.,
                      le:2.6615170288085938e+02 }
            -
               depth: 5
               value: 1.9554639752646352e+02
            -
               depth: 5
               value: 2.5529142330746058e+02
            -
               depth: 3
               value: 1.4668352033244562e+02
               splits:
                  - { var:6, quality:823002048., le:153. }
            -
               depth: 4
               value: 1.4526607840392109e+02
               splits:
                  - { var:0, quality:782501888.,
                      le:1.8937960815429688e+02 }
            -
               depth: 5
               value: 1.3592844135729280e+02
            -
               depth: 5
               value: 1.5835142075122826e+02
            -
               depth: 4
               value: 1.8751027737997939e+02
               splits:
                  - { var:6, quality:45806732., le:237. }
            -
               depth: 5
               value: 2.1479015197590886e+02
            -
               depth: 5
               value: 1.6454808077765026e+02
            -
               depth: 2
               value: 2.0613070035057729e+02
               splits:
                  - { var:10, quality:212146912.,
                      le:1.5000000000000000e+00 }
            -
               depth: 3
               value: 2.1446181117306659e+02
               splits:
                  - { var:5, quality:196319008.,
                      le:1.5000000000000000e+00 }
            -
               depth: 4
               value: 2.0670242309653926e+02
               splits:
                  - { var:0, quality:151381808.,
                      le:1.3616546630859375e+02 }
            -
               depth: 5
               value: 1.5809481142047662e+02
            -
               depth: 5
               value: 2.2238170209083151e+02
            -
               depth: 4
               value: 2.4990856956465663e+02
               splits:
                  - { var:1, quality:47877760., le:5.0000000000000000e-01 }
            -
               depth: 5
               value: 2.5522012721970992e+02
            -
               depth: 5
               value: 1.7885395866969847e+02
            -
               depth: 3
               value: 1.5570430488720771e+02
               splits:
                  - { var:6, quality:17864826., le:58. }
            -
               depth: 4
               value: 1.8661994780720485e+02
               splits:
                  - { var:22, quality:14433642.,
                      le:2.2145285034179688e+02 }
            -
               depth: 5
               value: 1.5567932806029378e+02
            -
               depth: 5
               value: 2.3902956901115624e+02
            -
               depth: 4
               value: 1.1556465047304748e+02
               splits:
                  - { var:22, quality:4.5986285000000000e+06,
                      le:4.5381405639648438e+02 }
            -
               depth: 5
               value: 7.5006039515519760e+01
            -
               depth: 5
               value: 1.5802869952925099e+02
      -
         nodes:
            -
               depth: 0
               value: 1.5543738347194571e+02
               splits:
                  - { var:21, quality:5.1576663040000000e+09,
                      le:1.9276165771484375e+02 }
            -
               depth: 1
               value: 1.5283560416756825e+02
               splits:
                  - { var:15, quality:4.7070177280000000e+09,
                      le:1.8861245727539063e+02 }
            -
               depth: 2
               value: 1.4797076590862878e+02
               splits:
                  - { var:27, quality:3.8923481600000000e+09,
                      le:2.2892222595214844e+02 }
            -
               depth: 3
               value: 1.4711317102766020e+02
               splits:
                  - { var:5, quality:3.6432824320000000e+09,
                      le:5.0000000000000000e-01 }
            -
               depth: 4
               value: 1.3560040121114270e+02
               splits:
                  - { var:22, quality:796103808.,
                      le:6.3568677902221680e+00 }
            -
               depth: 5
               value: 1.3872438560664182e+02
            -
               depth: 5
               value: 1.0732495392535851e+02
            -
               depth: 4
               value: 1.5108503375153620e+02
               splits:
                  - { var:12, quality:2.8938058240000000e+09,
                      le:1.7977838134765625e+02 }
            -
               depth: 5
               value: 1.3749927387962683e+02
            -
               depth: 5
               value: 1.7632101476737890e+02
            -
               depth: 3
               value: 1.6285186638114163e+02
               splits:
                  - { var:4, quality:260789920.,
                      le:5.0006704404950142e-03 }
            -
               depth: 4
               value: 1.5526044645578176e+02
               splits:
                  - { var:12, quality:207325008.,
                      le:1.9538920593261719e+02 }
            -
               depth: 5
               value: 1.4366885439113497e+02
            -
               depth: 5
               value: 1.7814776127713154e+02
            -
               depth: 4
               value: 2.1786056255238222e+02
               splits:
                  - { var:13, quality:56146940.,
                      le:3.3682232666015625e+02 }
            -
               depth: 5
               value: 1.9863592938753087e+02
            -
               depth: 5
               value: 2.3669616435470709e+02
            -
               depth: 2
               value: 1.9172694771287883e+02
               splits:
                  - { var:12, quality:824047936.,
                      le:1.7707043457031250e+02 }
            -
               depth: 3
               value: 1.7785130026108556e+02
               splits:
                  - { var:12, quality:445762112.,
                      le:1.7662708759307861e+00 }
            -
               depth: 4
               value: 2.1027087580431723e+02
               splits:
                  - { var:2, quality:198787520.,
                      le:9.5700065612792969e+01 }
            -
               depth: 5
               value: 2.1834305069321462e+02
            -
               depth: 5
               value: 1.5110515948382209e+02
            -
               depth: 4
               value: 1.6255457044075092e+02
               splits:
                  - { var:15, quality:250375312.,
                      le:3.4661834716796875e+02 }
            -
               depth: 5
               value: 1.6657188876383964e+02
            -
               depth: 5
               value: 1.2885151044535635e+02
            -
               depth: 3
               value: 2.1478654867031460e+02
               splits:
                  - { var:15, quality:385795072.,
                      le:3.0716699218750000e+02 }
            -
               depth: 4
               value: 2.1031538017955717e+02
               splits:
                  - { var:22, quality:292551488.,
                      le:1.3018664550781250e+02 }
            -
               depth: 5
               value: 2.1467861442346324e+02
            -
               depth: 5
               value: 1.8428341240968473e+02
            -
               depth: 4
               value: 2.3162233550451933e+02
               splits:
                  - { var:22, quality:96171096.,
                      le:1.8601467895507813e+02 }
            -
               depth: 5
               value: 2.4417255341677037e+02
            -
               depth: 5
               value: 1.3255843269461909e+02
            -
               depth: 1
               value: 1.9658234129879114e+02
               splits:
                  - { var:2, quality:490971264.,
                      le:7.9500007629394531e+01 }
            -
               depth: 2
               value: 2.0423383582136884e+02
               splits:
                  - { var:33, quality:411357568.,
                      le:1.1502034962177277e-02 }
            -
               depth: 3
               value: 1.7814999822246054e+02
               splits:
                  - { var:4, quality:124751592.,
                      le:4.0500056743621826e-01 }
            -
               depth: 4
               value: 1.8043890002731194e+02
               splits:
                  - { var:12, quality:126455480.,
                      le:1.0052098083496094e+02 }
            -
               depth: 5
               value: 1.5786819041480180e+02
            -
               depth: 5
               value: 2.0459995774260059e+02
            -
               depth: 4
               value: 6.8854937040805822e+01
               splits:
                  - { var:15, quality:5.6242231250000000e+05,
                      le:4.0657005310058594e+01 }
            -
               depth: 5
               value: 1.0894688285665309e+02
            -
               depth: 5
               value: 1.1754286939447576e+01
            -
               depth: 3
               value: 2.2160524405834670e+02
               splits:
                  - { var:6, quality:289235360.,
                      le:4.1550000000000000e+02 }
            -
               depth: 4
               value: 2.2325649011014303e+02
               splits:
                  - { var:10, quality:290535200.,
                      le:5.0000000000000000e-01 }
            -
               depth: 5
               value: 2.2777593140927328e+02
            -
               depth: 5
               value: 1.6820147792073814e+02
            -
               depth: 4
               value: 5.0583331550870625e+01
               splits:
                  - { var:34, quality:2.2089350000000000e+05,
                      le:7.6016998291015625e+01 }
            -
               depth: 5
               value: 1.2186770439147949e+02
            -
               depth: 5
               value: 3.1142138957977295e+01
            -
               depth: 2
               value: 1.7069885289301158e+02
               splits:
                  - { var:33, quality:85888784.,
                      le:2.4563948059082031e+02 }
            -
               depth: 3
               value: 1.6256573815532670e+02
               splits:
                  - { var:12, quality:69896696.,
                      le:2.1556590270996094e+02 }
            -
               depth: 4
               value: 1.5261966376833772e+02
               splits:
                  - { var:19, quality:46221780.,
                      le:1.5233896255493164e+01 }
            -
               depth: 5
               value: 1.4415741919357558e+02
            -
               depth: 5
               value: 1.7412533208513432e+02
            -
               depth: 4
               value: 1.9288124971566924e+02
               splits:
                  - { var:28, quality:24665190.,
                      le:2.0278262329101563e+02 }
            -
               depth: 5
               value: 2.1405351909611619e+02
            -
               depth: 5
               value: 1.4667772589528502e+02
            -
               depth: 3
               value: 2.4976240322403748e+02
               splits:
                  - { var:16, quality:16973104.,
                      le:1.7366662597656250e+02 }
            -
               depth: 4
               value: 2.2575262714552400e+02
               splits:
                  - { var:0, quality:7.8219535000000000e+06,
                      le:2.5869845581054688e+02 }
            -
               depth: 5
               value: 2.3884849989236290e+02
            -
               depth: 5
               value: 1.0876283060709635e+02
            -
               depth: 4
               value: 2.7957454185485841e+02
               splits:
                  - { var:18, quality:9417446., le:1.7187783813476563e+02 }
            -
               depth: 5
               value: 2.8365781255353960e+02
            -
               depth: 5
               value: 2.0199239857991537e+02
      -
         nodes:
            -
               depth: 0
               value: 1.5516324346556371e+02
               splits:
                  - { var:18, quality:5.1676195840000000e+09,
                      le:1.8108981323242188e+02 }
            -
               depth: 1
               value: 1.4943317005940071e+02
               splits:
                  - { var:22, quality:4.1764730880000000e+09,
                      le:3.3642150878906250e+01 }
            -
               depth: 2
               value: 1.4768707722884565e+02
               splits:
                  - { var:12, quality:3.5811210240000000e+09,
                      le:1.8025772094726563e+02 }
            -
               depth: 3
               value: 1.3594277903035712e+02
               splits:
                  - { var:1, quality:1952325376.,
                      le:5.0000000000000000e-01 }
            -
               depth: 4
               value: 1.3326842518396757e+02
               splits:
                  - { var:15, quality:1820419328.,
                      le:1.8918280029296875e+02 }
            -
               depth: 5
               value: 1.2825347866279577e+02
            -
               depth: 5
               value: 1.7707494745919607e+02
            -
               depth: 4
               value: 2.2437113616019269e+02
               splits:
                  - { var:33, quality:155864400.,
                      le:6.5724288940429688e+01 }
            -
               depth: 5
               value: 2.4060032511156444e+02
            -
               depth: 5
               value: 1.8984059419317802e+02
            -
               depth: 3
               value: 1.6879653850000540e+02
               splits:
                  - { var:7, quality:1658421888.,
                      le:5.0000000000000000e-01 }
            -
               depth: 4
               value: 1.7991424823606303e+02
               splits:
                  - { var:27, quality:771775488.,
                      le:1.8789401245117188e+02 }
            -
               depth: 5
               value: 1.7652904178435617e+02
            -
               depth: 5
               value: 2.2988034532457911e+02
            -
               depth: 4
               value: 1.6111137668875165e+02
               splits:
                  - { var:6, quality:938061568., le:49. }
            -
               depth: 5
               value: 2.3134104369483097e+02
            -
               depth: 5
               value: 1.4144025787205166e+02
            -
               depth: 2
               value: 1.6099214368058566e+02
               splits:
                  - { var:21, quality:653039744.,
                      le:1.2336121368408203e+02 }
            -
               depth: 3
               value: 1.2872281380576808e+02
               splits:
                  - { var:10, quality:166350224.,
                      le:5.0000000000000000e-01 }
            -
               depth: 4
               value: 1.2429792313481964e+02
               splits:
                  - { var:0, quality:138195936.,
                      le:1.9672579956054688e+02 }
            -
               depth: 5
               value: 1.1151912247018389e+02
            -
               depth: 5
               value: 1.4796529224614270e+02
            -
               depth: 4
               value: 1.6164865422665920e+02
               splits:
                  - { var:15, quality:31125632.,
                      le:2.0948774719238281e+02 }
            -
               depth: 5
               value: 1.5764923338269395e+02
            -
               depth: 5
               value: 2.2909343300443706e+02
            -
               depth: 3
               value: 1.8303211148747505e+02
               splits:
                  - { var:9, quality:490801152., le:7. }
            -
               depth: 4
               value: 1.8970541473982325e+02
               splits:
                  - { var:0, quality:425445216.,
                      le:8.2699241638183594e+01 }
            -
               depth: 5
               value: 1.3575764247491367e+02
            -
               depth: 5
               value: 1.9578786208770012e+02
            -
               depth: 4
               value: 1.5565895056266453e+02
               splits:
                  - { var:33, quality:70024032.,
                      le:1.7769448852539063e+02 }
            -
               depth: 5
               value: 1.4960408368164522e+02
            -
               depth: 5
               value: 2.0330812036546862e+02
            -
               depth: 1
               value: 1.9687816893290960e+02
               splits:
                  - { var:12, quality:997580544.,
                      le:1.0105731487274170e+00 }
            -
               depth: 2
               value: 2.1558979250941994e+02
               splits:
                  - { var:15, quality:277379680.,
                      le:5.1875457167625427e-02 }
            -
               depth: 3
               value: 2.3725351383372561e+02
               splits:
                  - { var:6, quality:208917232., le:418. }
            -
               depth: 4
               value: 2.3841478694675732e+02
               splits:
                  - { var:18, quality:210478464.,
                      le:3.1783099365234375e+02 }
            -
               depth: 5
               value: 2.2807340790185134e+02
            -
               depth: 5
               value: 2.8013445994298752e+02
            -
               depth: 4
               value: 3.4030719053177606e+01
               splits:
                  - { var:30, quality:7.0596562500000000e+04,
                      le:1.6244917297363281e+02 }
            -
               depth: 5
               value: 1.7871896362304688e+02
            -
               depth: 5
               value: 1.8800377519507158e+01
            -
               depth: 3
               value: 1.7870857923690320e+02
               splits:
                  - { var:16, quality:71000264.,
                      le:5.2267407226562500e+02 }
            -
               depth: 4
               value: 1.6083996839435443e+02
               splits:
                  - { var:16, quality:40157836.,
                      le:2.0734852600097656e+02 }
            -
               depth: 5
               value: 1.8698965495909104e+02
            -
               depth: 5
               value: 1.4836974214238469e+02
            -
               depth: 4
               value: 2.2164365826766692e+02
               splits:
                  - { var:15, quality:32899660.,
                      le:2.0221243286132813e+02 }
            -
               depth: 5
               value: 1.7001961816959692e+02
            -
               depth: 5
               value: 2.6892693823737068e+02
            -
               depth: 2
               value: 1.9133394917010031e+02
               splits:
                  - { var:0, quality:733267904.,
                      le:1.7957049560546875e+02 }
            -
               depth: 3
               value: 1.6844126068107695e+02
               splits:
                  - { var:16, quality:254173488.,
                      le:5.3417190551757813e+01 }
            -
               depth: 4
               value: 1.8324390817570205e+02
               splits:
                  - { var:6, quality:188041456., le:52. }
            -
               depth: 5
               value: 1.6492538018013519e+02
            -
               depth: 5
               value: 2.1558209352667009e+02
            -
               depth: 4
               value: 1.4407423430868030e+02
               splits:
                  - { var:16, quality:70036632.,
                      le:1.9509175109863281e+02 }
            -
               depth: 5
               value: 1.0733897215441654e+02
            -
               depth: 5
               value: 1.4932392305414430e+02
            -
               depth: 3
               value: 2.0981945554836599e+02
               splits:
                  - { var:3, quality:483324160., le:90. }
            -
               depth: 4
               value: 2.1124562152653309e+02
               splits:
                  - { var:3, quality:479280096.,
                      le:2.2500000000000000e+01 }
            -
               depth: 5
               value: 2.0890490178094583e+02
            -
               depth: 5
               value: 2.3833540502997664e+02
            -
               depth: 4
               value: 1.4331671591427016e+02
               splits:
                  - { var:18, quality:5.4113925000000000e+06,
                      le:2.8903881835937500e+02 }
            -
               depth: 5
               value: 1.9893943064191700e+02
            -
               depth: 5
               value: 8.9595632459363372e+01
      -
         nodes:
            -
               depth: 0
               value: 1.5511879653539680e+02
               splits:
                  - { var:18, quality:5.1659294720000000e+09,
                      le:1.7839123535156250e+02 }
            -
               depth: 1
               value: 1.4920587013509257e+02
               splits:
                  - { var:15, quality:4.1761231360000000e+09,
                      le:1.8858883666992188e+02 }
            -
               depth: 2
               value: 1.4442349385503621e+02
               splits:
                  - { var:6, quality:3.4774986240000000e+09,
                      le:4.6500000000000000e+01 }
            -
               depth: 3
               value: 1.5191040041406447e+02
               splits:
                  - { var:7, quality:1993312384.,
                      le:5.0000000000000000e-01 }
            -
               depth: 4
               value: 1.4614907068882380e+02
               splits:
                  - { var:1, quality:1344140416.,
                      le:5.0000000000000000e-01 }
            -
               depth: 5
               value: 1.4424556670068830e+02
            -
               depth: 5
               value: 2.1436468975951519e+02
            -
               depth: 4
               value: 1.6724575140704627e+02
               splits:
                  - { var:1, quality:659869632.,
                      le:5.0000000000000000e-01 }
            -
               depth: 5
               value: 1.6469160642473528e+02
            -
               depth: 5
               value: 2.1016119198483048e+02
            -
               depth: 3
               value: 1.3639005824150823e+02
               splits:
                  - { var:18, quality:1498631552.,
                      le:4.3000094592571259e-02 }
            -
               depth: 4
               value: 1.3962776910836143e+02
               splits:
                  - { var:0, quality:1396822528.,
                      le:1.9451809692382813e+02 }
            -
               depth: 5
               value: 1.3323800265823974e+02
            -
               depth: 5
               value: 1.4932277355446456e+02
            -
               depth: 4
               value: 1.1003522462962594e+02
               splits:
                  - { var:9, quality:107853688., le:76. }
            -
               depth: 5
               value: 1.0630756798865839e+02
            -
               depth: 5
               value: 1.5957541712196331e+02
            -
               depth: 2
               value: 1.8949124117887908e+02
               splits:
                  - { var:12, quality:715096832.,
                      le:1.7707531738281250e+02 }
            -
               depth: 3
               value: 1.7563699569171840e+02
               splits:
                  - { var:12, quality:389838400.,
                      le:2.1574769020080566e+00 }
            -
               depth: 4
               value: 2.0681763025165003e+02
               splits:
                  - { var:24, quality:172843728.,
                      le:1.8139189147949219e+02 }
            -
               depth: 5
               value: 2.0121600468198042e+02
            -
               depth: 5
               value: 2.4270723496045417e+02
            -
               depth: 4
               value: 1.6075701085545299e+02
               splits:
                  - { var:3, quality:220671616.,
                      le:2.3650089263916016e+01 }
            -
               depth: 5
               value: 1.6905072084715744e+02
            -
               depth: 5
               value: 1.1972158336650446e+02
            -
               depth: 3
               value: 2.1316802310271581e+02
               splits:
                  - { var:30, quality:331661312.,
                      le:5.9634256362915039e+00 }
            -
               depth: 4
               value: 2.6571937178698454e+02
               splits:
                  - { var:19, quality:15564146.,
                      le:7.1515026855468750e+02 }
            -
               depth: 5
               value: 2.6411304282259056e+02
            -
               depth: 5
               value: 3.5246113586425781e+02
            -
               depth: 4
               value: 2.1153160460157792e+02
               splits:
                  - { var:0, quality:317719680.,
                      le:1.8019360351562500e+02 }
            -
               depth: 5
               value: 1.9275679167097235e+02
            -
               depth: 5
               value: 2.2353267411986525e+02
            -
               depth: 1
               value: 1.9653132621640088e+02
               splits:
                  - { var:0, quality:1035438784.,
                      le:1.8075181579589844e+02 }
            -
               depth: 2
               value: 1.7643861185457197e+02
               splits:
                  - { var:15, quality:399431008.,
                      le:3.5199737548828125e-01 }
            -
               depth: 3
               value: 1.9218322242482947e+02
               splits:
                  - { var:18, quality:279255264.,
                      le:3.4881845092773438e+02 }
            -
               depth: 4
               value: 1.9410761718532450e+02
               splits:
                  - { var:24, quality:276606752.,
                      le:3.2932540893554688e+01 }
            -
               depth: 5
               value: 1.9866461676554829e+02
            -
               depth: 5
               value: 1.7109288624751667e+02
            -
               depth: 4
               value: 1.2634913811836148e+02
               splits:
                  - { var:31, quality:4.0146667500000000e+06,
                      le:1.1213194274902344e+02 }
            -
               depth: 5
               value: 2.2882161797417535e+02
            -
               depth: 5
               value: 9.9063566559121099e+01
            -
               depth: 3
               value: 1.5339361561391729e+02
               splits:
                  - { var:27, quality:122099048.,
                      le:8.2145355224609375e+01 }
            -
               depth: 4
               value: 1.4665010890567802e+02
               splits:
                  - { var:28, quality:90369136.,
                      le:4.2800197601318359e+00 }
            -
               depth: 5
               value: 1.5068444121470347e+02
            -
               depth: 5
               value: 7.4655615063705909e+01
            -
               depth: 4
               value: 1.8129638887974554e+02
               splits:
                  - { var:18, quality:33653680.,
                      le:2.9269750976562500e+02 }
            -
               depth: 5
               value: 1.9707698310703358e+02
            -
               depth: 5
               value: 1.3578955901500791e+02
            -
               depth: 2
               value: 2.1490317368601922e+02
               splits:
                  - { var:12, quality:641978112.,
                      le:2.6713015747070313e+02 }
            -
               depth: 3
               value: 2.1057318681944864e+02
               splits:
                  - { var:6, quality:518095136., le:49. }
            -
               depth: 4
               value: 2.0281512193728111e+02
               splits:
                  - { var:21, quality:308305440.,
                      le:2.1652688598632813e+02 }
            -
               depth: 5
               value: 1.9981553785678179e+02
            -
               depth: 5
               value: 2.3427158970620408e+02
            -
               depth: 4
               value: 2.2445897168992465e+02
               splits:
                  - { var:18, quality:212370576.,
                      le:2.2991143798828125e+02 }
            -
               depth: 5
               value: 2.0080790711192674e+02
            -
               depth: 5
               value: 2.4343696138581601e+02
            -
               depth: 3
               value: 2.3768887432563386e+02
               splits:
                  - { var:7, quality:125338592.,
                      le:5.0000000000000000e-01 }
            -
               depth: 4
               value: 2.2814055918695274e+02
               splits:
                  - { var:0, quality:57957836., le:3.3432232666015625e+02 }
            -
               depth: 5
               value: 2.3686490232177704e+02
            -
               depth: 5
               value: 1.6564841243602612e+02
            -
               depth: 4
               value: 2.4714282156986260e+02
               splits:
                  - { var:33, quality:68292136.,
                      le:6.3508575439453125e+01 }
            -
               depth: 5
               value: 2.3460670030786750e+02
            -
               depth: 5
               value: 2.6940147079315568e+02
      -
         nodes:
            -
               depth: 0
               value: 1.5509336636094213e+02
               splits:
                  - { var:33, quality:5.1510430720000000e+09,
                      le:1.8490475463867188e+02 }
            -
               depth: 1
               value: 1.4702835705586529e+02
               splits:
                  - { var:19, quality:3.3974013440000000e+09,
                      le:1.4363647460937500e+02 }
            -
               depth: 2
               value: 1.4306739414494675e+02
               splits:
                  - { var:1, quality:2.5690721280000000e+09,
                      le:5.0000000000000000e-01 }
            -
               depth: 3
               value: 1.3974061192478808e+02
               splits:
                  - { var:21, quality:2.3387079680000000e+09,
                      le:2.1115882873535156e+02 }
            -
               depth: 4
