%YAML:1.0
---
opencv_ml_rtrees:
   format: 3
   is_classifier: 0
   var_all: 36
   var_count: 35
   ord_var_count: 36
   cat_var_count: 0
   training_params:
      use_surrogates: 0
      max_categories: 10
      regression_accuracy: 0.
      max_depth: 5
      min_sample_count: 10
      cross_validation_folds: 0
      nactive_vars: 0
   global_var_idx: 1
   var_idx: [ 0, 1, 2, 3, 4, 5, 6, 7, 8, 9, 10, 11, 12, 13, 14, 15, 16,
       17, 18, 19, 20, 21, 22, 23, 24, 25, 26, 27, 28, 29, 30, 31, 32,
       33, 34 ]
   var_type: [ 0, 0, 0, 0, 0, 0, 0, 0, 0, 0, 0, 0, 0, 0, 0, 0, 0, 0, 0,
       0, 0, 0, 0, 0, 0, 0, 0, 0, 0, 0, 0, 0, 0, 0, 0, 0 ]
   cat_ofs: [ 0, 0, 0, 0, 0, 0, 0, 0, 0, 0, 0, 0, 0, 0, 0, 0, 0, 0, 0, 0,
       0, 0, 0, 0, 0, 0, 0, 0, 0, 0, 0, 0, 0, 0, 0, 0, 0, 0, 0, 0, 0, 0,
       0, 0, 0, 0, 0, 0, 0, 0, 0, 0, 0, 0, 0, 0, 0, 0, 0, 0, 0, 0, 0, 0,
       0, 0, 0, 0, 0, 0 ]
   missing_subst: [ 0., 0., 0., 0., 0., 0., 0., 0., 0., 0., 0., 0., 0.,
       0., 0., 0., 0., 0., 0., 0., 0., 0., 0., 0., 0., 0., 0., 0., 0.,
       0., 0., 0., 0., 0., 0., 0. ]
   oob_error: 1.0478478229982094e+04
   ntrees: 50
   trees:
      -
         nodes:
            -
               depth: 0
               value: 1.7276484080991219e+02
               splits:
                  - { var:12, quality:6.3688796160000000e+09,
                      le:1.8000354003906250e+02 }
            -
               depth: 1
               value: 1.6462899690996025e+02
               splits:
                  - { var:21, quality:3.7197235200000000e+09,
                      le:1.8058175659179688e+02 }
            -
               depth: 2
               value: 1.6164469934803304e+02
               splits:
                  - { var:18, quality:3.3438131200000000e+09,
                      le:1.7957101440429688e+02 }
            -
               depth: 3
               value: 1.5762761044496111e+02
               splits:
                  - { var:19, quality:2.7774650880000000e+09,
                      le:9.0838737487792969e+00 }
            -
               depth: 4
               value: 1.6182743353092084e+02
               splits:
                  - { var:2, quality:2.5386775040000000e+09,
                      le:5.0100418090820313e+01 }
            -
               depth: 5
               value: 1.5855290924697786e+02
            -
               depth: 5
               value: 1.6909837130551503e+02
            -
               depth: 4
               value: 1.2938422303200628e+02
               splits:
                  - { var:30, quality:241754992.,
                      le:1.2193342590332031e+02 }
            -
               depth: 5
               value: 1.2009909767382094e+02
            -
               depth: 5
               value: 1.3433115125072445e+02
            -
               depth: 3
               value: 1.8926969680274752e+02
               splits:
                  - { var:16, quality:586421248.,
                      le:3.6171596527099609e+01 }
            -
               depth: 4
               value: 2.0391965239542256e+02
               splits:
                  - { var:18, quality:458622944.,
                      le:2.7034393310546875e+02 }
            -
               depth: 5
               value: 2.3108389825089196e+02
            -
               depth: 5
               value: 1.6418455278782295e+02
            -
               depth: 4
               value: 1.6025587539131479e+02
               splits:
                  - { var:2, quality:140794304.,
                      le:9.7500000000000000e+01 }
            -
               depth: 5
               value: 1.5612165289578948e+02
            -
               depth: 5
               value: 2.2231799421057238e+02
            -
               depth: 2
               value: 2.0600588809824211e+02
               splits:
                  - { var:6, quality:393140608., le:39. }
            -
               depth: 3
               value: 2.2310175705754432e+02
               splits:
                  - { var:33, quality:246521792.,
                      le:3.4073207378387451e+00 }
            -
               depth: 4
               value: 1.9155951051702138e+02
               splits:
                  - { var:0, quality:51036144., le:1.2505049896240234e+02 }
            -
               depth: 5
               value: 1.2709161187179217e+02
            -
               depth: 5
               value: 2.1358711917235522e+02
            -
               depth: 4
               value: 2.3490915658725083e+02
               splits:
                  - { var:4, quality:198732720.,
                      le:5.6500041484832764e-01 }
            -
               depth: 5
               value: 2.2459130673436516e+02
            -
               depth: 5
               value: 2.7136817482533110e+02
            -
               depth: 3
               value: 1.8634663855346324e+02
               splits:
                  - { var:5, quality:152075552.,
                      le:1.5000000000000000e+00 }
            -
               depth: 4
               value: 1.7104327648956385e+02
               splits:
                  - { var:0, quality:99077944., le:1.0899766540527344e+02 }
            -
               depth: 5
               value: 1.3988776263889059e+02
            -
               depth: 5
               value: 1.8130481478165066e+02
            -
               depth: 4
               value: 2.4176962548758533e+02
               splits:
                  - { var:6, quality:54490084., le:51. }
            -
               depth: 5
               value: 2.8691702577489366e+02
            -
               depth: 5
               value: 2.3167715108473465e+02
            -
               depth: 1
               value: 1.8740813797415225e+02
               splits:
                  - { var:5, quality:2.6752673280000000e+09,
                      le:5.0000000000000000e-01 }
            -
               depth: 2
               value: 1.6992527046521147e+02
               splits:
                  - { var:15, quality:628897408.,
                      le:1.8003527832031250e+02 }
            -
               depth: 3
               value: 1.6361084266349508e+02
               splits:
                  - { var:21, quality:499751200.,
                      le:1.8342814636230469e+02 }
            -
               depth: 4
               value: 1.5596456124541186e+02
               splits:
                  - { var:18, quality:410528384.,
                      le:1.8298419189453125e+02 }
            -
               depth: 5
               value: 1.5171427425093600e+02
            -
               depth: 5
               value: 1.8351285792987437e+02
            -
               depth: 4
               value: 2.5567316717828047e+02
               splits:
                  - { var:18, quality:91386640.,
                      le:1.0800245666503906e+02 }
            -
               depth: 5
               value: 2.4877906044712469e+02
            -
               depth: 5
               value: 2.7617871540428229e+02
            -
               depth: 3
               value: 2.0340406852438466e+02
               splits:
                  - { var:18, quality:143053584.,
                      le:3.4799047851562500e+02 }
            -
               depth: 4
               value: 2.0602803809542806e+02
               splits:
                  - { var:27, quality:143572096.,
                      le:1.8125035095214844e+02 }
            -
               depth: 5
               value: 2.0062017345253813e+02
            -
               depth: 5
               value: 2.6057072571480626e+02
            -
               depth: 4
               value: 8.0988599230845765e+01
               splits:
                  - { var:21, quality:6.4359981250000000e+05,
                      le:4.5099578857421875e+01 }
            -
               depth: 5
               value: 1.4587539855333475e+02
            -
               depth: 5
               value: 4.4313451787699826e+01
            -
               depth: 2
               value: 1.9437152745354507e+02
               splits:
                  - { var:10, quality:2053429504.,
                      le:4.5000000000000000e+00 }
            -
               depth: 3
               value: 1.9546707051583945e+02
               splits:
                  - { var:6, quality:2062309120., le:43. }
            -
               depth: 4
               value: 2.3217036842463835e+02
               splits:
                  - { var:12, quality:1074898560.,
                      le:2.7027755737304688e+02 }
            -
               depth: 5
               value: 2.6169409249145667e+02
            -
               depth: 5
               value: 1.7637687912632310e+02
            -
               depth: 4
               value: 1.7429903336239366e+02
               splits:
                  - { var:15, quality:1022331008.,
                      le:1.8085047912597656e+02 }
            -
               depth: 5
               value: 1.7134261049388368e+02
            -
               depth: 5
               value: 2.0501231302659849e+02
            -
               depth: 3
               value: 1.5252652850882671e+02
               splits:
                  - { var:7, quality:36243460., le:2.5000000000000000e+00 }
            -
               depth: 4
               value: 2.4145649276753909e+02
               splits:
                  - { var:0, quality:22055432., le:6.7221649169921875e+01 }
            -
               depth: 5
               value: 9.7851199430577893e+01
            -
               depth: 5
               value: 2.4833336596959074e+02
            -
               depth: 4
               value: 1.1986912801105673e+02
               splits:
                  - { var:0, quality:15323925., le:1.5720339965820313e+02 }
            -
               depth: 5
               value: 1.5417902251875370e+02
            -
               depth: 5
               value: 9.7757069375414346e+01
      -
         nodes:
            -
               depth: 0
               value: 1.7241297427276081e+02
               splits:
                  - { var:0, quality:6.3719285760000000e+09,
                      le:1.8233049011230469e+02 }
            -
               depth: 1
               value: 1.5819652595232319e+02
               splits:
                  - { var:18, quality:2.9743936000000000e+09,
                      le:1.7957556152343750e+02 }
            -
               depth: 2
               value: 1.5530901083356821e+02
               splits:
                  - { var:9, quality:2.5328442880000000e+09, le:42. }
            -
               depth: 3
               value: 1.5380726327474179e+02
               splits:
                  - { var:33, quality:2.3387353600000000e+09,
                      le:1.8442207336425781e+02 }
            -
               depth: 4
               value: 1.4720942183751282e+02
               splits:
                  - { var:21, quality:1542197120.,
                      le:1.8059449768066406e+02 }
            -
               depth: 5
               value: 1.4546650145603479e+02
            -
               depth: 5
               value: 1.8899471057472886e+02
            -
               depth: 4
               value: 1.7084462081718704e+02
               splits:
                  - { var:18, quality:805077120.,
                      le:3.9241363525390625e+01 }
            -
               depth: 5
               value: 1.7572472403822246e+02
            -
               depth: 5
               value: 1.4567724697653679e+02
            -
               depth: 3
               value: 1.7817191494979411e+02
               splits:
                  - { var:21, quality:205611280.,
                      le:2.3963948059082031e+02 }
            -
               depth: 4
               value: 1.7595350550183571e+02
               splits:
                  - { var:16, quality:187277152.,
                      le:7.0137597656250000e+02 }
            -
               depth: 5
               value: 1.7437662492257863e+02
            -
               depth: 5
               value: 2.4132742078413426e+02
            -
               depth: 4
               value: 2.0898940472339154e+02
               splits:
                  - { var:3, quality:19381324., le:50. }
            -
               depth: 5
               value: 1.7852508498948785e+02
            -
               depth: 5
               value: 2.4118629240424713e+02
            -
               depth: 2
               value: 1.8030988943518111e+02
               splits:
                  - { var:24, quality:447482688.,
                      le:6.9179084777832031e+01 }
            -
               depth: 3
               value: 1.8554969582378530e+02
               splits:
                  - { var:15, quality:410945472.,
                      le:2.1150546073913574e+00 }
            -
               depth: 4
               value: 2.0181864934217967e+02
               splits:
                  - { var:0, quality:295824480.,
                      le:1.6345753479003906e+02 }
            -
               depth: 5
               value: 1.9373170143200124e+02
            -
               depth: 5
               value: 2.1846402755020210e+02
            -
               depth: 4
               value: 1.5968302450385195e+02
               splits:
                  - { var:15, quality:118179200.,
                      le:1.2972485351562500e+02 }
            -
               depth: 5
               value: 1.3613820490219339e+02
            -
               depth: 5
               value: 1.7912118952382585e+02
            -
               depth: 3
               value: 1.4778999631180181e+02
               splits:
                  - { var:18, quality:42803328.,
                      le:2.2199269104003906e+02 }
            -
               depth: 4
               value: 2.1285631190667738e+02
               splits:
                  - { var:4, quality:12596127., le:8.1500017642974854e-01 }
            -
               depth: 5
               value: 2.3754771456580895e+02
            -
               depth: 5
               value: 1.2275435132598668e+02
            -
               depth: 4
               value: 1.3724407971691375e+02
               splits:
                  - { var:4, quality:32172544., le:4.7500050067901611e-01 }
            -
               depth: 5
               value: 1.5088275782079552e+02
            -
               depth: 5
               value: 7.5547491942935096e+01
            -
               depth: 1
               value: 1.9034561809753114e+02
               splits:
                  - { var:33, quality:3.4179240960000000e+09,
                      le:1.7870684814453125e+02 }
            -
               depth: 2
               value: 1.8358185716248246e+02
               splits:
                  - { var:4, quality:2.3764495360000000e+09,
                      le:3.3527612686157227e-07 }
            -
               depth: 3
               value: 1.8178081835799765e+02
               splits:
                  - { var:0, quality:2.2226700800000000e+09,
                      le:3.1343780517578125e+02 }
            -
               depth: 4
               value: 1.8883863434001111e+02
               splits:
                  - { var:1, quality:1702668928.,
                      le:5.0000000000000000e-01 }
            -
               depth: 5
               value: 1.8653321375309079e+02
            -
               depth: 5
               value: 2.2334036595867721e+02
            -
               depth: 4
               value: 1.6442552718430599e+02
               splits:
                  - { var:33, quality:526183328.,
                      le:5.4847924038767815e-03 }
            -
               depth: 5
               value: 1.7178907233295561e+02
            -
               depth: 5
               value: 1.4765418420743742e+02
            -
               depth: 3
               value: 2.1947142465654989e+02
               splits:
                  - { var:15, quality:164345152.,
                      le:2.7018615722656250e+02 }
            -
               depth: 4
               value: 2.2904633542774064e+02
               splits:
                  - { var:27, quality:157654096.,
                      le:1.7885867309570313e+02 }
            -
               depth: 5
               value: 2.1889910992700308e+02
            -
               depth: 5
               value: 2.8310729852103174e+02
            -
               depth: 4
               value: 1.4626889346497836e+02
               splits:
                  - { var:16, quality:8523309., le:3.0282904052734375e+02 }
            -
               depth: 5
               value: 2.0054661596232447e+02
            -
               depth: 5
               value: 1.3675799345033766e+02
            -
               depth: 2
               value: 2.1051253756401383e+02
               splits:
                  - { var:33, quality:1056108032.,
                      le:2.4530024719238281e+02 }
            -
               depth: 3
               value: 2.3590491854050319e+02
               splits:
                  - { var:0, quality:526356544.,
                      le:3.1398150634765625e+02 }
            -
               depth: 4
               value: 2.4502406932847649e+02
               splits:
                  - { var:25, quality:443584928.,
                      le:5.4275134277343750e+02 }
            -
               depth: 5
               value: 2.4699117303563756e+02
            -
               depth: 5
               value: 2.0551900659237589e+02
            -
               depth: 4
               value: 2.0272433981049579e+02
               splits:
                  - { var:19, quality:83719720.,
                      le:7.0055648803710938e+01 }
            -
               depth: 5
               value: 2.0892137230646048e+02
            -
               depth: 5
               value: 1.7291110897747356e+02
            -
               depth: 3
               value: 1.9368742466369440e+02
               splits:
                  - { var:0, quality:537182528.,
                      le:3.1200097656250000e+02 }
            -
               depth: 4
               value: 2.0631724845646940e+02
               splits:
                  - { var:4, quality:405541248.,
                      le:4.8500049114227295e-01 }
            -
               depth: 5
               value: 2.0386512668619159e+02
            -
               depth: 5
               value: 2.5047015305209160e+02
            -
               depth: 4
               value: 1.6811835446711558e+02
               splits:
                  - { var:33, quality:133397888.,
                      le:2.9301632690429688e+02 }
            -
               depth: 5
               value: 1.7735391400969013e+02
            -
               depth: 5
               value: 1.5133247553859474e+02
      -
         nodes:
            -
               depth: 0
               value: 1.7247138538425551e+02
               splits:
                  - { var:15, quality:6.3354557440000000e+09,
                      le:1.8001547241210938e+02 }
            -
               depth: 1
               value: 1.6948350342879945e+02
               splits:
                  - { var:16, quality:5.3706823680000000e+09,
                      le:9.1370201110839844e+00 }
            -
               depth: 2
               value: 1.7375445283370905e+02
               splits:
                  - { var:1, quality:4.8617031680000000e+09,
                      le:5.0000000000000000e-01 }
            -
               depth: 3
               value: 1.7289034333437868e+02
               splits:
                  - { var:9, quality:4.6515584000000000e+09,
                      le:1.2250000000000000e+02 }
            -
               depth: 4
               value: 1.7335156561137538e+02
               splits:
                  - { var:10, quality:4.6233292800000000e+09,
                      le:3.5000000000000000e+00 }
            -
               depth: 5
               value: 1.7288228886086870e+02
            -
               depth: 5
               value: 2.0193475152045824e+02
            -
               depth: 4
               value: 1.3205690395550681e+02
               splits:
                  - { var:7, quality:30814038., le:5.0000000000000000e-01 }
            -
               depth: 5
               value: 1.9407017595805820e+02
            -
               depth: 5
               value: 1.2720670391061452e+02
            -
               depth: 3
               value: 1.9864064639414627e+02
               splits:
                  - { var:30, quality:216502688.,
                      le:2.2163574218750000e+02 }
            -
               depth: 4
               value: 2.1753223542388477e+02
               splits:
                  - { var:33, quality:166170960.,
                      le:1.6368365478515625e+02 }
            -
               depth: 5
               value: 2.0359380408424244e+02
            -
               depth: 5
               value: 2.7117466963984356e+02
            -
               depth: 4
               value: 1.6502859118271752e+02
               splits:
                  - { var:24, quality:53954096.,
                      le:3.3506707763671875e+02 }
            -
               depth: 5
               value: 1.6176481607313076e+02
            -
               depth: 5
               value: 3.2864679075542250e+02
            -
               depth: 2
               value: 1.4231840827905032e+02
               splits:
                  - { var:0, quality:518244672.,
                      le:2.1121185302734375e+02 }
            -
               depth: 3
               value: 1.3302118140118671e+02
               splits:
                  - { var:22, quality:329211360.,
                      le:2.5004909515380859e+01 }
            -
               depth: 4
               value: 1.2685283859862756e+02
               splits:
                  - { var:3, quality:253296416.,
                      le:3.9100013732910156e+01 }
            -
               depth: 5
               value: 1.2443703733161094e+02
            -
               depth: 5
               value: 1.5954010880336247e+02
            -
               depth: 4
               value: 1.6863523287899241e+02
               splits:
                  - { var:22, quality:78363056.,
                      le:4.1444686889648438e+02 }
            -
               depth: 5
               value: 1.8802135647500523e+02
            -
               depth: 5
               value: 1.4560639412340618e+02
            -
               depth: 3
               value: 1.6699775803125303e+02
               splits:
                  - { var:0, quality:195408240.,
                      le:3.1704351806640625e+02 }
            -
               depth: 4
               value: 1.8283732707261260e+02
               splits:
                  - { var:4, quality:135778160.,
                      le:1.0000335052609444e-02 }
            -
               depth: 5
               value: 1.7537588324317034e+02
            -
               depth: 5
               value: 2.8393579126714349e+02
            -
               depth: 4
               value: 1.4567794500777617e+02
               splits:
                  - { var:5, quality:63251424., le:1.5000000000000000e+00 }
            -
               depth: 5
               value: 1.5304599185893767e+02
            -
               depth: 5
               value: 1.1692787515166590e+02
            -
               depth: 1
               value: 1.9361764526047455e+02
               splits:
                  - { var:12, quality:991412800.,
                      le:1.8037617492675781e+02 }
            -
               depth: 2
               value: 1.8371443211276886e+02
               splits:
                  - { var:12, quality:593686336.,
                      le:6.0629112243652344e+01 }
            -
               depth: 3
               value: 2.0242978427884137e+02
               splits:
                  - { var:19, quality:370820608.,
                      le:7.7305578613281250e+02 }
            -
               depth: 4
               value: 2.0293397911011479e+02
               splits:
                  - { var:15, quality:379704576.,
                      le:2.7005203247070313e+02 }
            -
               depth: 5
               value: 2.3067687160095005e+02
            -
               depth: 5
               value: 1.6595304876704085e+02
            -
               depth: 4
               value: 9.1802059836503929e+01
               splits:
                  - { var:31, quality:4.0550968750000000e+05,
                      le:2.1833392333984375e+02 }
            -
               depth: 5
               value: 7.7548103557692627e+01
            -
               depth: 5
               value: 1.9443054504394530e+02
            -
               depth: 3
               value: 1.6347865351444426e+02
               splits:
                  - { var:6, quality:228042288., le:49. }
            -
               depth: 4
               value: 1.4839323877649554e+02
               splits:
                  - { var:24, quality:131930640.,
                      le:1.8527503967285156e+02 }
            -
               depth: 5
               value: 1.4321759819045002e+02
            -
               depth: 5
               value: 1.8510221001757589e+02
            -
               depth: 4
               value: 2.0053711651833814e+02
               splits:
                  - { var:3, quality:98075504., le:1.9849998474121094e+01 }
            -
               depth: 5
               value: 2.1669756011960294e+02
            -
               depth: 5
               value: 1.7916062195643454e+02
            -
               depth: 2
               value: 2.1293651850308316e+02
               splits:
                  - { var:5, quality:405080768.,
                      le:5.0000000000000000e-01 }
            -
               depth: 3
               value: 2.0100186666965675e+02
               splits:
                  - { var:0, quality:138488400.,
                      le:1.8014625549316406e+02 }
            -
               depth: 4
               value: 1.6449294016976933e+02
               splits:
                  - { var:4, quality:36365508., le:7.8500020503997803e-01 }
            -
               depth: 5
               value: 1.7206964652975762e+02
            -
               depth: 5
               value: 9.9596803086391390e+01
            -
               depth: 4
               value: 2.2467170113913187e+02
               splits:
                  - { var:33, quality:104144080.,
                      le:2.1135891723632813e+02 }
            -
               depth: 5
               value: 2.4074101707272476e+02
            -
               depth: 5
               value: 1.8273192622025121e+02
            -
               depth: 3
               value: 2.2013894460503948e+02
               splits:
                  - { var:12, quality:272350208.,
                      le:2.7079019165039063e+02 }
            -
               depth: 4
               value: 2.4112177179223906e+02
               splits:
                  - { var:33, quality:174919264.,
                      le:1.7619047546386719e+02 }
            -
               depth: 5
               value: 2.3044577347887520e+02
            -
               depth: 5
               value: 2.6585509235874758e+02
            -
               depth: 4
               value: 1.9564807655139074e+02
               splits:
                  - { var:2, quality:99192392., le:8.2500000000000000e+01 }
            -
               depth: 5
               value: 2.0427662063648563e+02
            -
               depth: 5
               value: 1.5181016537024510e+02
      -
         nodes:
            -
               depth: 0
               value: 1.7296155312115502e+02
               splits:
                  - { var:18, quality:6.3742095360000000e+09,
                      le:1.8002081298828125e+02 }
            -
               depth: 1
               value: 1.6971204675892858e+02
               splits:
                  - { var:22, quality:5.3797642240000000e+09,
                      le:4.5055408477783203e+00 }
            -
               depth: 2
               value: 1.6801124876175345e+02
               splits:
                  - { var:12, quality:4.5652746240000000e+09,
                      le:1.8037979125976563e+02 }
            -
               depth: 3
               value: 1.5921309675684418e+02
               splits:
                  - { var:0, quality:2.6466662400000000e+09,
                      le:1.8117774963378906e+02 }
            -
               depth: 4
               value: 1.4640977216214989e+02
               splits:
                  - { var:6, quality:1237134208., le:19. }
            -
               depth: 5
               value: 1.3812112356619096e+02
            -
               depth: 5
               value: 1.5330216576504537e+02
            -
               depth: 4
               value: 1.7522977422512639e+02
               splits:
                  - { var:13, quality:1416046464.,
                      le:5.0078005790710449e+00 }
            -
               depth: 5
               value: 1.8445394001521004e+02
            -
               depth: 5
               value: 1.6762847653321487e+02
            -
               depth: 3
               value: 1.8389734209088766e+02
               splits:
                  - { var:6, quality:1948933248.,
                      le:5.2500000000000000e+01 }
            -
               depth: 4
               value: 1.9561177525437296e+02
               splits:
                  - { var:27, quality:1179640320.,
                      le:1.8000692749023438e+02 }
            -
               depth: 5
               value: 1.9261473979613541e+02
            -
               depth: 5
               value: 2.3508172355522862e+02
            -
               depth: 4
               value: 1.7037605209026586e+02
               splits:
                  - { var:10, quality:773889984.,
                      le:1.2500000000000000e+01 }
            -
               depth: 5
               value: 1.6984937086893353e+02
            -
               depth: 5
               value: 2.3893282348181813e+02
            -
               depth: 2
               value: 1.8034875931010356e+02
               splits:
                  - { var:12, quality:838886272.,
                      le:1.1332696533203125e+02 }
            -
               depth: 3
               value: 1.7115914079404664e+02
               splits:
                  - { var:24, quality:352647968.,
                      le:1.2814566040039063e+02 }
            -
               depth: 4
               value: 1.6809287672685576e+02
               splits:
                  - { var:7, quality:292861280.,
                      le:1.3500000000000000e+01 }
            -
               depth: 5
               value: 1.7397744475245352e+02
            -
               depth: 5
               value: 1.5142393709516259e+02
            -
               depth: 4
               value: 1.8995524853886235e+02
               splits:
                  - { var:19, quality:61073576.,
                      le:3.3957427978515625e+02 }
            -
               depth: 5
               value: 1.8605905849191177e+02
            -
               depth: 5
               value: 2.3164989341629877e+02
            -
               depth: 3
               value: 1.8839629024179740e+02
               splits:
                  - { var:24, quality:487515872.,
                      le:3.1067016601562500e+02 }
            -
               depth: 4
               value: 1.8758002235845532e+02
               splits:
                  - { var:0, quality:478919872.,
                      le:1.6753811645507813e+02 }
            -
               depth: 5
               value: 1.6364858562777945e+02
            -
               depth: 5
               value: 1.9878999745058297e+02
            -
               depth: 4
               value: 2.4065290904836067e+02
               splits:
                  - { var:2, quality:12399302., le:5.7950031280517578e+01 }
            -
               depth: 5
               value: 2.6580661048573899e+02
            -
               depth: 5
               value: 2.0683515489366320e+02
            -
               depth: 1
               value: 1.9641302633249691e+02
               splits:
                  - { var:0, quality:1007955712.,
                      le:1.7961700439453125e+02 }
            -
               depth: 2
               value: 1.7495211574337731e+02
               splits:
                  - { var:6, quality:369669728., le:53. }
            -
               depth: 3
               value: 1.5922323430597356e+02
               splits:
                  - { var:0, quality:200390016.,
                      le:1.5816278076171875e+02 }
            -
               depth: 4
               value: 1.5403291066297658e+02
               splits:
                  - { var:16, quality:147511680.,
                      le:3.2183914184570313e+01 }
            -
               depth: 5
               value: 1.6506288074576236e+02
            -
               depth: 5
               value: 1.3755483086266281e+02
            -
               depth: 4
               value: 1.7801683575978302e+02
               splits:
                  - { var:13, quality:54630300.,
                      le:6.5438378906250000e+02 }
            -
               depth: 5
               value: 1.7386055753975009e+02
            -
               depth: 5
               value: 2.6704869026259371e+02
            -
               depth: 3
               value: 2.0579874399695569e+02
               splits:
                  - { var:24, quality:171426928.,
                      le:6.8897644042968750e+01 }
            -
               depth: 4
               value: 2.1245740764625830e+02
               splits:
                  - { var:22, quality:161310320.,
                      le:7.9600021362304688e+01 }
            -
               depth: 5
               value: 2.1674569203010765e+02
            -
               depth: 5
               value: 1.6005744195959383e+02
            -
               depth: 4
               value: 1.5421223433046299e+02
               splits:
                  - { var:16, quality:12405046.,
                      le:2.1855923461914063e+02 }
            -
               depth: 5
               value: 2.0017572278706291e+02
            -
               depth: 5
               value: 8.3616379131928326e+01
            -
               depth: 2
               value: 2.1466923454615198e+02
               splits:
                  - { var:12, quality:645871040.,
                      le:1.7945309448242188e+02 }
            -
               depth: 3
               value: 2.0674805264142452e+02
               splits:
                  - { var:18, quality:407625184.,
                      le:2.7003836059570313e+02 }
            -
               depth: 4
               value: 2.2615212325823143e+02
               splits:
                  - { var:33, quality:275652704.,
                      le:3.8673594594001770e-02 }
            -
               depth: 5
               value: 2.4167635409503194e+02
            -
               depth: 5
               value: 2.1839866608346574e+02
            -
               depth: 4
               value: 1.8097979190875702e+02
               splits:
                  - { var:22, quality:134332304.,
                      le:4.4991554260253906e+01 }
            -
               depth: 5
               value: 1.6884963499898521e+02
            -
               depth: 5
               value: 2.1584964009723024e+02
            -
               depth: 3
               value: 2.3107913798218738e+02
               splits:
                  - { var:0, quality:244551856.,
                      le:3.1862332153320313e+02 }
            -
               depth: 4
               value: 2.3818839643768763e+02
               splits:
                  - { var:21, quality:226372960.,
                      le:1.8123756408691406e+02 }
            -
               depth: 5
               value: 2.3407149205822523e+02
            -
               depth: 5
               value: 2.8704499307033700e+02
            -
               depth: 4
               value: 1.8183451843677082e+02
               splits:
                  - { var:12, quality:19423672.,
                      le:2.7010668945312500e+02 }
            -
               depth: 5
               value: 2.1200829940853697e+02
            -
               depth: 5
               value: 1.5613813722210546e+02
      -
         nodes:
            -
               depth: 0
               value: 1.7242842099368605e+02
               splits:
                  - { var:12, quality:6.3420078080000000e+09,
                      le:1.8000411987304688e+02 }
            -
               depth: 1
               value: 1.6465405887768844e+02
               splits:
                  - { var:5, quality:3.7065052160000000e+09,
                      le:5.0000000000000000e-01 }
            -
               depth: 2
               value: 1.7106573324244596e+02
               splits:
                  - { var:18, quality:1048762304.,
                      le:1.7756579589843750e+02 }
            -
               depth: 3
               value: 1.6534731395257899e+02
               splits:
                  - { var:0, quality:833233984.,
                      le:1.8131637573242188e+02 }
            -
               depth: 4
               value: 1.4422142499516471e+02
               splits:
                  - { var:21, quality:407453408.,
                      le:1.8000036621093750e+02 }
            -
               depth: 5
               value: 1.3891415663523796e+02
            -
               depth: 5
               value: 2.2952052261610703e+02
            -
               depth: 4
               value: 2.0423225472557692e+02
               splits:
                  - { var:0, quality:441991264.,
                      le:3.1696630859375000e+02 }
            -
               depth: 5
               value: 2.2068002574174594e+02
            -
               depth: 5
               value: 1.6027100497150033e+02
            -
               depth: 3
               value: 1.9900440397371813e+02
               splits:
                  - { var:25, quality:240657344.,
                      le:1.5659719467163086e+01 }
            -
               depth: 4
               value: 2.0521272553246916e+02
               splits:
                  - { var:27, quality:199681680.,
                      le:9.4518880359828472e-04 }
            -
               depth: 5
               value: 2.1184235380155926e+02
            -
               depth: 5
               value: 1.7336930807761453e+02
            -
               depth: 4
               value: 1.7711287847731501e+02
               splits:
                  - { var:24, quality:46926708.,
                      le:1.8003308105468750e+02 }
            -
               depth: 5
               value: 1.1970803836989874e+02
            -
               depth: 5
               value: 2.4162498450279236e+02
            -
               depth: 2
               value: 1.6239128676056447e+02
               splits:
                  - { var:13, quality:2.6732062720000000e+09,
                      le:1.1039100646972656e+01 }
            -
               depth: 3
               value: 1.7365384233481237e+02
               splits:
                  - { var:0, quality:1324392832.,
                      le:1.8262985229492188e+02 }
            -
               depth: 4
               value: 1.6134570287041308e+02
               splits:
                  - { var:15, quality:578184640.,
                      le:1.8002906799316406e+02 }
            -
               depth: 5
               value: 1.5735285138349570e+02
            -
               depth: 5
               value: 2.0959641027493009e+02
            -
               depth: 4
               value: 1.8618883636528221e+02
               splits:
                  - { var:10, quality:751358144.,
                      le:1.5000000000000000e+00 }
            -
               depth: 5
               value: 1.8370995197033588e+02
            -
               depth: 5
               value: 2.0300620849021999e+02
            -
               depth: 3
               value: 1.5380345055686561e+02
               splits:
                  - { var:24, quality:1356351232.,
                      le:3.3677148437500000e+02 }
            -
               depth: 4
               value: 1.5342159187087756e+02
               splits:
                  - { var:0, quality:1342732160.,
                      le:1.8835949707031250e+02 }
            -
               depth: 5
               value: 1.4378940712117685e+02
            -
               depth: 5
               value: 1.6789388463632528e+02
            -
               depth: 4
               value: 1.9019811311769885e+02
               splits:
                  - { var:1, quality:22251698., le:5.0000000000000000e-01 }
            -
               depth: 5
               value: 1.8019702129190620e+02
            -
               depth: 5
               value: 3.1243367987738714e+02
            -
               depth: 1
               value: 1.8642684185885909e+02
               splits:
                  - { var:4, quality:2.6422952960000000e+09,
                      le:3.5500061511993408e-01 }
            -
               depth: 2
               value: 1.8868256337217414e+02
               splits:
                  - { var:9, quality:2.5038625280000000e+09,
                      le:1.1050000000000000e+02 }
            -
               depth: 3
               value: 1.8938495788232072e+02
               splits:
                  - { var:2, quality:2.4935480320000000e+09,
                      le:5.9700263977050781e+01 }
            -
               depth: 4
               value: 1.9413547848074231e+02
               splits:
                  - { var:6, quality:1819019520., le:49. }
            -
               depth: 5
               value: 2.0697999984455879e+02
            -
               depth: 5
               value: 1.7667723687487043e+02
            -
               depth: 4
               value: 1.7875709125023690e+02
               splits:
                  - { var:18, quality:689410176.,
                      le:1.8102578735351563e+02 }
            -
               depth: 5
               value: 1.7394926501952060e+02
            -
               depth: 5
               value: 2.1874016047735819e+02
            -
               depth: 3
               value: 1.2950326863075924e+02
               splits:
                  - { var:22, quality:14245380.,
                      le:9.8663993835449219e+01 }
            -
               depth: 4
               value: 1.5202089748015771e+02
               splits:
                  - { var:7, quality:11385061., le:1. }
            -
               depth: 5
               value: 2.3090447749752971e+02
            -
               depth: 5
               value: 9.8047921678797920e+01
            -
               depth: 4
               value: 1.0654411764705883e+02
               splits:
                  - { var:7, quality:5012310., le:1.4500000000000000e+01 }
            -
               depth: 5
               value: 0.
            -
               depth: 5
               value: 1.1530503978779841e+02
            -
               depth: 2
               value: 1.5832572808179418e+02
               splits:
                  - { var:24, quality:144140032.,
                      le:1.8040570068359375e+02 }
            -
               depth: 3
               value: 1.5155226303777934e+02
               splits:
                  - { var:15, quality:119841024.,
                      le:1.8043392944335938e+02 }
            -
               depth: 4
               value: 1.4364001271301564e+02
               splits:
                  - { var:15, quality:89208192.,
                      le:6.9757011413574219e+01 }
            -
               depth: 5
               value: 1.6193506380747880e+02
            -
               depth: 5
               value: 9.6158489291943553e+01
            -
               depth: 4
               value: 1.8402301140320438e+02
               splits:
                  - { var:28, quality:35732224.,
                      le:4.0029914855957031e+01 }
            -
               depth: 5
               value: 2.0013763803653418e+02
            -
               depth: 5
               value: 9.2244343160398742e+01
            -
               depth: 3
               value: 2.3129249139518976e+02
               splits:
                  - { var:12, quality:26138830.,
                      le:2.1784883117675781e+02 }
            -
               depth: 4
               value: 2.9507376754760742e+02
               splits:
                  - { var:21, quality:8826684., le:4.0220085144042969e+01 }
            -
               depth: 5
               value: 2.6680940678914391e+02
            -
               depth: 5
               value: 3.3747030868530271e+02
            -
               depth: 4
               value: 2.1446365863729594e+02
               splits:
                  - { var:30, quality:17592832.,
                      le:3.4403054809570313e+02 }
            -
               depth: 5
               value: 2.0634009298464147e+02
            -
               depth: 5
               value: 2.6670933577593632e+02
      -
         nodes:
            -
               depth: 0
               value: 1.7265033849162018e+02
               splits:
                  - { var:0, quality:6.3945748480000000e+09,
                      le:1.8234097290039063e+02 }
            -
               depth: 1
               value: 1.5779083575070223e+02
               splits:
                  - { var:12, quality:2.9678123520000000e+09,
                      le:1.8018576049804688e+02 }
            -
               depth: 2
               value: 1.5063254915728959e+02
               splits:
                  - { var:33, quality:1758032640.,
                      le:1.8072045898437500e+02 }
            -
               depth: 3
               value: 1.4267231942523873e+02
               splits:
                  - { var:33, quality:1111950336.,
                      le:5.6353836059570313e+01 }
            -
               depth: 4
               value: 1.4844812153137863e+02
               splits:
                  - { var:12, quality:796942016.,
                      le:2.9304924011230469e+01 }
            -
               depth: 5
               value: 1.5704061525588710e+02
            -
               depth: 5
               value: 1.4033298856934294e+02
            -
               depth: 4
               value: 1.3135737181485158e+02
               splits:
                  - { var:2, quality:318229728.,
                      le:8.7500000000000000e+01 }
            -
               depth: 5
               value: 1.3269230879911669e+02
            -
               depth: 5
               value: 1.0255057826605311e+02
            -
               depth: 3
               value: 1.6989016553233998e+02
               splits:
                  - { var:6, quality:662404416., le:19. }
            -
               depth: 4
               value: 1.5240211114360059e+02
               splits:
                  - { var:33, quality:341239040.,
                      le:2.6999584960937500e+02 }
            -
               depth: 5
               value: 1.6355214703725503e+02
            -
               depth: 5
               value: 1.4244991757349433e+02
            -
               depth: 4
               value: 2.0231602544511540e+02
               splits:
                  - { var:33, quality:328245696.,
                      le:2.6005548095703125e+02 }
            -
               depth: 5
               value: 2.3277756168278646e+02
            -
               depth: 5
               value: 1.7959631865195317e+02
            -
               depth: 2
               value: 1.7097377231843620e+02
               splits:
                  - { var:0, quality:1223731456.,
                      le:1.3330191040039063e+02 }
            -
               depth: 3
               value: 1.6547968779425091e+02
               splits:
                  - { var:12, quality:725559296.,
                      le:2.7030520629882813e+02 }
            -
               depth: 4
               value: 1.7687946172966068e+02
               splits:
                  - { var:5, quality:443564480.,
                      le:5.0000000000000000e-01 }
            -
               depth: 5
               value: 1.3821768835667987e+02
            -
               depth: 5
               value: 1.9132091696453412e+02
            -
               depth: 4
               value: 1.5270207041706223e+02
               splits:
                  - { var:2, quality:290822368.,
                      le:9.7500000000000000e+01 }
            -
               depth: 5
               value: 1.4905307915359728e+02
            -
               depth: 5
               value: 1.7586917284435947e+02
            -
               depth: 3
               value: 1.8035639991640355e+02
               splits:
                  - { var:15, quality:504150112.,
                      le:1.8866189575195313e+02 }
            -
               depth: 4
               value: 1.7665412663990523e+02
               splits:
                  - { var:4, quality:442991328.,
                      le:5.8500039577484131e-01 }
            -
               depth: 5
               value: 1.8236712571250914e+02
            -
               depth: 5
               value: 1.1776699771279178e+02
            -
               depth: 4
               value: 2.1778960790426677e+02
               splits:
                  - { var:3, quality:66730064., le:30. }
            -
               depth: 5
               value: 2.2531191208497873e+02
            -
               depth: 5
               value: 1.3676546711032674e+02
            -
               depth: 1
               value: 1.9146579445311889e+02
               splits:
                  - { var:6, quality:3.4536522240000000e+09, le:15. }
            -
               depth: 2
               value: 2.0763876590831489e+02
               splits:
                  - { var:21, quality:1583684736.,
                      le:1.7996240234375000e+02 }
            -
               depth: 3
               value: 2.0319452769227541e+02
               splits:
                  - { var:18, quality:1365927808.,
                      le:1.8332901000976563e+02 }
            -
               depth: 4
               value: 1.9998170964832795e+02
               splits:
                  - { var:0, quality:1121394688.,
                      le:3.1394265747070313e+02 }
            -
               depth: 5
               value: 2.1623901851389229e+02
            -
               depth: 5
               value: 1.6085541175032262e+02
            -
               depth: 4
               value: 2.1949544512444339e+02
               splits:
                  - { var:22, quality:263319072.,
                      le:1.1889392852783203e+01 }
            -
               depth: 5
               value: 2.2505252422770346e+02
            -
               depth: 5
               value: 1.7882850232902652e+02
            -
               depth: 3
               value: 2.4917824961302810e+02
               splits:
                  - { var:21, quality:223675248.,
                      le:2.7031787109375000e+02 }
            -
               depth: 4
               value: 2.7161220039383437e+02
               splits:
                  - { var:12, quality:183705728.,
                      le:1.4590599060058594e+02 }
            -
               depth: 5
               value: 2.5579535676229850e+02
            -
               depth: 5
               value: 2.8879921635005331e+02
            -
               depth: 4
               value: 1.9637119848667106e+02
               splits:
                  - { var:0, quality:41299636., le:2.6436187744140625e+02 }
            -
               depth: 5
               value: 2.2150252827266891e+02
            -
               depth: 5
               value: 1.7161849513812703e+02
            -
               depth: 2
               value: 1.8112522521308728e+02
               splits:
                  - { var:0, quality:1880155392.,
                      le:3.1003320312500000e+02 }
            -
               depth: 3
               value: 1.8669973493599039e+02
               splits:
                  - { var:9, quality:1320922752.,
                      le:1.2050000000000000e+02 }
            -
               depth: 4
               value: 1.8949137779673310e+02
               splits:
                  - { var:18, quality:1303975296.,
                      le:1.9194017028808594e+02 }
            -
               depth: 5
               value: 1.8513376844947456e+02
            -
               depth: 5
               value: 2.2718597824749816e+02
            -
               depth: 4
               value: 1.2154938670109748e+02
               splits:
                  - { var:22, quality:23178844.,
                      le:3.3597607421875000e+02 }
            -
               depth: 5
               value: 1.0919580419580420e+02
            -
               depth: 5
               value: 1.3688856729377713e+02
            -
               depth: 3
               value: 1.7035199293525238e+02
               splits:
                  - { var:6, quality:567659264., le:81. }
            -
               depth: 4
               value: 1.7692295260456282e+02
               splits:
                  - { var:16, quality:398035968.,
                      le:1.0013813781738281e+02 }
            -
               depth: 5
               value: 1.7996526786929860e+02
            -
               depth: 5
               value: 1.6063331861950613e+02
            -
               depth: 4
               value: 1.5810343854359689e+02
               splits:
                  - { var:18, quality:170740800.,
                      le:1.7517898559570313e+02 }
            -
               depth: 5
               value: 1.5584604122453018e+02
            -
               depth: 5
               value: 1.8986182250807769e+02
      -
         nodes:
            -
               depth: 0
               value: 1.7261544297535045e+02
               splits:
                  - { var:33, quality:6.3534315520000000e+09,
                      le:1.7874383544921875e+02 }
            -
               depth: 1
               value: 1.6641588759995096e+02
               splits:
                  - { var:21, quality:4.2463206400000000e+09,
                      le:1.8000039672851563e+02 }
            -
               depth: 2
               value: 1.6354504205901125e+02
               splits:
                  - { var:12, quality:3.8375326720000000e+09,
                      le:1.8000256347656250e+02 }
            -
               depth: 3
               value: 1.5442157892883139e+02
               splits:
                  - { var:12, quality:2.2012298240000000e+09,
                      le:5.7600639343261719e+01 }
            -
               depth: 4
               value: 1.6291808145997749e+02
               splits:
                  - { var:0, quality:1425682304.,
                      le:1.8306103515625000e+02 }
            -
               depth: 5
               value: 1.4774308194206239e+02
            -
               depth: 5
               value: 1.8010250301957291e+02
            -
               depth: 4
               value: 1.4275476254826006e+02
               splits:
                  - { var:0, quality:795308736.,
                      le:1.8619984436035156e+02 }
            -
               depth: 5
               value: 1.3357057009657041e+02
            -
               depth: 5
               value: 1.5931169324258752e+02
            -
               depth: 3
               value: 1.8007346408039703e+02
               splits:
                  - { var:6, quality:1661615360., le:49. }
            -
               depth: 4
               value: 1.9826268712831140e+02
               splits:
                  - { var:12, quality:997023296.,
                      le:2.7029229736328125e+02 }
            -
               depth: 5
               value: 2.2041425635756204e+02
            -
               depth: 5
               value: 1.6655058016477349e+02
            -
               depth: 4
               value: 1.6252168088914166e+02
               splits:
                  - { var:15, quality:684632128.,
                      le:1.8021824645996094e+02 }
            -
               depth: 5
               value: 1.5963459566348413e+02
            -
               depth: 5
               value: 1.9652528782943168e+02
            -
               depth: 2
               value: 2.0733361029439712e+02
               splits:
                  - { var:6, quality:437174688., le:39. }
            -
               depth: 3
               value: 2.3522929061542652e+02
               splits:
                  - { var:34, quality:261550656.,
                      le:5.8270744323730469e+01 }
            -
               depth: 4
               value: 2.1290512103797607e+02
               splits:
                  - { var:12, quality:97663376.,
                      le:1.3651281738281250e+02 }
            -
               depth: 5
               value: 1.8772840042589613e+02
            -
               depth: 5
               value: 2.4139656567033990e+02
            -
               depth: 4
               value: 2.5364607928667212e+02
               splits:
                  - { var:0, quality:167020288.,
                      le:1.7982989501953125e+02 }
            -
               depth: 5
               value: 2.1577785560099974e+02
            -
               depth: 5
               value: 2.7019887465961557e+02
            -
               depth: 3
               value: 1.8272162607734748e+02
               splits:
                  - { var:6, quality:179188224., le:125. }
            -
               depth: 4
               value: 1.9127417791933098e+02
               splits:
                  - { var:33, quality:157944016.,
                      le:1.0142079162597656e+02 }
            -
               depth: 5
               value: 1.9473743467849567e+02
            -
               depth: 5
               value: 1.3942832301540446e+02
            -
               depth: 4
               value: 1.4677078193531111e+02
               splits:
                  - { var:27, quality:22951642.,
                      le:6.0475204467773438e+01 }
            -
               depth: 5
               value: 1.5628952506306351e+02
            -
               depth: 5
               value: 5.0548704665640123e+01
            -
               depth: 1
               value: 1.8843088682282536e+02
               splits:
                  - { var:12, quality:2128098688.,
                      le:4.9120285034179688e+01 }
            -
               depth: 2
               value: 1.9816444655774433e+02
               splits:
                  - { var:33, quality:829940992.,
                      le:2.5108351135253906e+02 }
            -
               depth: 3
               value: 2.2269323959134212e+02
               splits:
                  - { var:1, quality:386689472.,
                      le:5.0000000000000000e-01 }
            -
               depth: 4
               value: 2.2092242378453253e+02
               splits:
                  - { var:6, quality:371790752., le:1. }
            -
               depth: 5
               value: 2.0204989671505010e+02
            -
               depth: 5
               value: 2.4270090027446565e+02
            -
               depth: 4
               value: 2.8162162110957803e+02
               splits:
                  - { var:33, quality:18179574.,
                      le:2.2648312377929688e+02 }
            -
               depth: 5
               value: 2.9793555755269597e+02
            -
               depth: 5
               value: 2.3408618561152755e+02
            -
               depth: 3
               value: 1.8366592493859937e+02
               splits:
                  - { var:6, quality:445006816., le:1. }
            -
               depth: 4
               value: 1.7629796732160472e+02
               splits:
                  - { var:33, quality:234967872.,
                      le:3.1846563720703125e+02 }
            -
               depth: 5
               value: 1.6336997628582699e+02
            -
               depth: 5
               value: 1.9872253300651892e+02
            -
               depth: 4
               value: 1.9339204452818166e+02
               splits:
                  - { var:33, quality:213294336.,
                      le:2.7081756591796875e+02 }
            -
               depth: 5
               value: 2.1913097433095842e+02
            -
               depth: 5
               value: 1.8596960110185867e+02
            -
               depth: 2
               value: 1.8319070153435658e+02
               splits:
                  - { var:33, quality:1320920320.,
                      le:2.5381323242187500e+02 }
            -
               depth: 3
               value: 2.0957744353108905e+02
               splits:
                  - { var:12, quality:620286080.,
                      le:1.8287545776367188e+02 }
            -
               depth: 4
               value: 1.9389949026743085e+02
               splits:
                  - { var:33, quality:252453792.,
                      le:1.8469894409179688e+02 }
            -
               depth: 5
               value: 1.6334549425479599e+02
            -
               depth: 5
               value: 2.0066753291811693e+02
            -
               depth: 4
               value: 2.2377754822316953e+02
               splits:
                  - { var:0, quality:371946784.,
                      le:1.8276150512695313e+02 }
            -
               depth: 5
               value: 2.0684630776268304e+02
            -
               depth: 5
               value: 2.4567493479694957e+02
            -
               depth: 3
               value: 1.6827317872933173e+02
               splits:
                  - { var:0, quality:710573952.,
                      le:1.8614254760742188e+02 }
            -
               depth: 4
               value: 1.5807619519667853e+02
               splits:
                  - { var:22, quality:451714816.,
                      le:4.0520785522460938e+02 }
            -
               depth: 5
               value: 1.6017818286172380e+02
            -
               depth: 5
               value: 1.1901121139565240e+02
            -
               depth: 4
               value: 1.9514989746709432e+02
               splits:
                  - { var:18, quality:261044352.,
                      le:1.9010253906250000e+02 }
            -
               depth: 5
               value: 1.8982749524275863e+02
            -
               depth: 5
               value: 2.1454484687696981e+02
      -
         nodes:
            -
               depth: 0
               value: 1.7253993975118780e+02
               splits:
                  - { var:12, quality:6.3489592320000000e+09,
                      le:1.8000354003906250e+02 }
            -
               depth: 1
               value: 1.6498194373192382e+02
               splits:
                  - { var:15, quality:3.7285337600000000e+09,
                      le:1.8005639648437500e+02 }
            -
               depth: 2
               value: 1.6237772707790987e+02
               splits:
                  - { var:15, quality:3.1715361280000000e+09,
                      le:4.6792129516601563e+01 }
            -
               depth: 3
               value: 1.6621968497896049e+02
               splits:
                  - { var:21, quality:2.9697213440000000e+09,
                      le:1.8058065795898438e+02 }
            -
               depth: 4
               value: 1.6381925277084136e+02
               splits:
                  - { var:1, quality:2.7088276480000000e+09,
                      le:5.0000000000000000e-01 }
            -
               depth: 5
               value: 1.6272119041787735e+02
            -
               depth: 5
               value: 1.9734226865260339e+02
            -
               depth: 4
               value: 2.0443816012446729e+02
               splits:
                  - { var:5, quality:270355840.,
                      le:5.0000000000000000e-01 }
            -
               depth: 5
               value: 2.5446864758225098e+02
            -
               depth: 5
               value: 1.8627854723882180e+02
            -
               depth: 3
               value: 1.2967560170530899e+02
               splits:
                  - { var:3, quality:213147840.,
                      le:2.0000038146972656e+01 }
            -
               depth: 4
               value: 1.2609339385587508e+02
               splits:
                  - { var:12, quality:181899456.,
                      le:8.1472434997558594e+01 }
            -
               depth: 5
               value: 1.3408486502303677e+02
            -
               depth: 5
               value: 1.1304454505871901e+02
            -
               depth: 4
               value: 1.6304885942388754e+02
               splits:
                  - { var:10, quality:33032630., le:3. }
            -
               depth: 5
               value: 1.7398598632705563e+02
            -
               depth: 5
               value: 1.1815630087992137e+02
            -
               depth: 2
               value: 1.8329206301024266e+02
               splits:
                  - { var:15, quality:582594688.,
                      le:2.7019607543945313e+02 }
            -
               depth: 3
               value: 2.0473822620888805e+02
               splits:
                  - { var:10, quality:411386528.,
                      le:5.5000000000000000e+00 }
            -
               depth: 4
               value: 2.0607514543094919e+02
               splits:
                  - { var:6, quality:414755328., le:59. }
            -
               depth: 5
               value: 1.9285402001893735e+02
            -
               depth: 5
               value: 2.3747185846449858e+02
            -
               depth: 4
               value: 7.9197617317866360e+01
               splits:
                  - { var:31, quality:1.0307744375000000e+06,
                      le:1.4362399291992188e+02 }
            -
               depth: 5
               value: 2.4750000000000000e+02
            -
               depth: 5
               value: 5.7003896524617957e+01
            -
               depth: 3
               value: 1.5438469328233879e+02
               splits:
                  - { var:10, quality:174307104.,
                      le:2.5000000000000000e+00 }
            -
               depth: 4
               value: 1.5086866682801281e+02
               splits:
                  - { var:0, quality:156447312.,
                      le:1.5539532470703125e+02 }
            -
               depth: 5
               value: 1.3577289898729259e+02
            -
               depth: 5
               value: 1.5999988651085388e+02
            -
               depth: 4
               value: 2.1157872360604151e+02
               splits:
                  - { var:33, quality:19279394.,
                      le:1.5640667724609375e+02 }
            -
               depth: 5
               value: 1.7551901583768884e+02
            -
               depth: 5
               value: 2.4313096790335007e+02
            -
               depth: 1
               value: 1.8617670348241455e+02
               splits:
                  - { var:13, quality:2.6302548480000000e+09,
                      le:1.1165127563476563e+02 }
            -
               depth: 2
               value: 2.0882682894506729e+02
               splits:
                  - { var:31, quality:260031264.,
                      le:1.3727015686035156e+02 }
            -
               depth: 3
               value: 2.3374700891561187e+02
               splits:
                  - { var:31, quality:60428788.,
                      le:1.3587274169921875e+02 }
            -
               depth: 4
               value: 2.2021879261354817e+02
               splits:
                  - { var:27, quality:45891172.,
                      le:1.0513693237304688e+02 }
            -
               depth: 5
               value: 2.1503399646615242e+02
            -
               depth: 5
               value: 2.8272439061270819e+02
            -
               depth: 4
               value: 3.2329999007011804e+02
               splits:
                  - { var:13, quality:15031117.,
                      le:7.9325897216796875e+01 }
            -
               depth: 5
               value: 3.3221100263453241e+02
            -
               depth: 5
               value: 1.7404052961617708e+02
            -
               depth: 3
               value: 2.0328103817416454e+02
               splits:
                  - { var:7, quality:201258544.,
                      le:5.0000000000000000e-01 }
            -
               depth: 4
               value: 2.1159399763824965e+02
               splits:
                  - { var:12, quality:114027456.,
                      le:2.7048049926757813e+02 }
            -
               depth: 5
               value: 2.3947278315468992e+02
            -
               depth: 5
               value: 1.5759754178102025e+02
            -
               depth: 4
               value: 1.9473928166060918e+02
               splits:
                  - { var:12, quality:91818680.,
                      le:2.7001974487304688e+02 }
            -
               depth: 5
               value: 2.1024163026973935e+02
            -
               depth: 5
               value: 1.7111043872795608e+02
            -
               depth: 2
               value: 1.8424908842958240e+02
               splits:
                  - { var:18, quality:2.3759979520000000e+09,
                      le:1.8324658203125000e+02 }
            -
               depth: 3
               value: 1.8133924715066550e+02
               splits:
                  - { var:18, quality:2055888384.,
                      le:3.1089530944824219e+01 }
            -
               depth: 4
               value: 1.8463162558930904e+02
               splits:
                  - { var:21, quality:1831653888.,
                      le:1.8341319274902344e+02 }
            -
               depth: 5
               value: 1.8228567307130345e+02
            -
               depth: 5
               value: 2.1709641383945066e+02
            -
               depth: 4
               value: 1.6124006782334169e+02
               splits:
                  - { var:2, quality:229307424.,
                      le:9.9600006103515625e+01 }
            -
               depth: 5
               value: 1.6540434703630828e+02
            -
               depth: 5
               value: 1.3417403102582790e+02
            -
               depth: 3
               value: 2.0861910678619208e+02
               splits:
                  - { var:18, quality:328111200.,
                      le:2.7033059692382813e+02 }
            -
               depth: 4
               value: 2.3008687170843220e+02
               splits:
                  - { var:4, quality:210116208.,
                      le:5.8500039577484131e-01 }
            -
               depth: 5
               value: 2.3500917360677931e+02
            -
               depth: 5
               value: 1.7574645959283794e+02
            -
               depth: 4
               value: 1.8440425283648446e+02
               splits:
                  - { var:16, quality:120156480.,
                      le:2.1235276794433594e+02 }
            -
               depth: 5
               value: 1.9612060560067414e+02
            -
               depth: 5
               value: 1.5745995430243846e+02
      -
         nodes:
            -
               depth: 0
               value: 1.7312279836841375e+02
               splits:
                  - { var:33, quality:6.3900185600000000e+09,
                      le:1.7877793884277344e+02 }
            -
               depth: 1
               value: 1.6702979089177424e+02
               splits:
                  - { var:1, quality:4.2642913280000000e+09,
                      le:5.0000000000000000e-01 }
            -
               depth: 2
               value: 1.6614144780195974e+02
               splits:
                  - { var:12, quality:4.1039772160000000e+09,
                      le:1.8000337219238281e+02 }
            -
               depth: 3
               value: 1.5678418975542047e+02
               splits:
                  - { var:21, quality:2.3519800320000000e+09,
                      le:1.8000039672851563e+02 }
            -
               depth: 4
               value: 1.5367652037645803e+02
               splits:
                  - { var:34, quality:2110570624.,
                      le:6.2869247436523438e+01 }
            -
               depth: 5
               value: 1.6215479127253045e+02
            -
               depth: 5
               value: 1.4119761177586270e+02
            -
               depth: 4
               value: 2.0157429904527763e+02
               splits:
                  - { var:0, quality:254497872.,
                      le:1.0908351135253906e+02 }
            -
               depth: 5
               value: 1.5767512549058003e+02
            -
               depth: 5
               value: 2.1513687238480148e+02
            -
               depth: 3
               value: 1.8303828779364488e+02
               splits:
                  - { var:12, quality:1775219072.,
                      le:2.7029077148437500e+02 }
            -
               depth: 4
               value: 1.9561477881931421e+02
               splits:
                  - { var:5, quality:1102804480.,
                      le:5.0000000000000000e-01 }
            -
               depth: 5
               value: 1.7319691041513389e+02
            -
               depth: 5
               value: 2.0209984362957644e+02
            -
               depth: 4
               value: 1.6797933234123047e+02
               splits:
                  - { var:18, quality:680193664.,
                      le:1.8316029357910156e+02 }
            -
               depth: 5
               value: 1.6376615608764521e+02
            -
               depth: 5
               value: 2.0366486865023114e+02
            -
               depth: 2
               value: 1.9391321681878676e+02
               splits:
                  - { var:33, quality:185694944.,
                      le:1.6569683837890625e+02 }
            -
               depth: 3
               value: 1.9017075677762861e+02
               splits:
                  - { var:24, quality:171684064.,
                      le:2.8304266929626465e+00 }
            -
               depth: 4
               value: 1.8465719603378940e+02
               splits:
                  - { var:18, quality:138460960.,
                      le:1.5179049682617188e+02 }
            -
               depth: 5
               value: 1.7997988207321333e+02
            -
               depth: 5
               value: 2.3098788702165757e+02
            -
               depth: 4
               value: 2.2245989698284077e+02
               splits:
                  - { var:7, quality:34918956., le:6.5000000000000000e+00 }
            -
               depth: 5
               value: 2.4299311492625762e+02
            -
               depth: 5
               value: 1.6439651957617866e+02
            -
               depth: 3
               value: 3.0372303815065703e+02
               splits:
                  - { var:5, quality:14898175., le:1.5000000000000000e+00 }
            -
               depth: 4
               value: 3.1955910700421003e+02
               splits:
                  - { var:13, quality:8832528., le:3.9642010498046875e+02 }
            -
               depth: 5
               value: 3.2783374241420199e+02
            -
               depth: 5
               value: 2.4876500405205621e+02
            -
               depth: 4
               value: 2.8556434586524961e+02
               splits:
                  - { var:21, quality:6.2863045000000000e+06,
                      le:1.0910455703735352e+01 }
            -
               depth: 5
               value: 2.3978495545876331e+02
            -
               depth: 5
               value: 3.3515868547227649e+02
            -
               depth: 1
               value: 1.8867945438222227e+02
               splits:
                  - { var:1, quality:2132242304.,
                      le:5.0000000000000000e-01 }
            -
               depth: 2
               value: 1.8765797760171998e+02
               splits:
                  - { var:5, quality:2072967168.,
                      le:5.0000000000000000e-01 }
            -
               depth: 3
               value: 1.7006655593578637e+02
               splits:
                  - { var:0, quality:670403520.,
                      le:1.7508831787109375e+02 }
            -
               depth: 4
               value: 1.4323147163381202e+02
               splits:
                  - { var:15, quality:221339296.,
                      le:1.8046690368652344e+02 }
            -
               depth: 5
               value: 1.3869216806653759e+02
            -
               depth: 5
               value: 1.6808669267538158e+02
            -
               depth: 4
               value: 1.9417813310545517e+02
               splits:
                  - { var:0, quality:453061792.,
                      le:1.8256738281250000e+02 }
            -
               depth: 5
               value: 1.7574994021173302e+02
            -
               depth: 5
               value: 2.0684198309628093e+02
            -
               depth: 3
               value: 1.9877743539167341e+02
               splits:
                  - { var:0, quality:1422589696.,
                      le:1.8406385803222656e+02 }
            -
               depth: 4
               value: 1.8921357659893539e+02
               splits:
                  - { var:33, quality:807719872.,
                      le:2.6882141113281250e+02 }
            -
               depth: 5
               value: 2.1148085020511027e+02
            -
               depth: 5
               value: 1.6630864463322209e+02
            -
               depth: 4
               value: 2.1439241447165463e+02
               splits:
                  - { var:33, quality:632438656.,
                      le:2.6269094848632813e+02 }
            -
               depth: 5
               value: 2.3735246448777528e+02
            -
               depth: 5
               value: 1.9449622097227618e+02
            -
               depth: 2
               value: 2.3561607191016901e+02
               splits:
                  - { var:0, quality:73631920., le:2.7273910522460938e+02 }
            -
               depth: 3
               value: 2.6183258931799975e+02
               splits:
                  - { var:0, quality:69043888., le:1.6875529479980469e+02 }
            -
               depth: 4
               value: 1.4255601382856611e+02
               splits:
                  - { var:3, quality:2.5999085000000000e+06,
                      le:3.4450084686279297e+01 }
            -
               depth: 5
               value: 1.2660946711371926e+02
            -
               depth: 5
               value: 2.3823529411764707e+02
            -
               depth: 4
               value: 2.7833713871711910e+02
               splits:
                  - { var:12, quality:66748256.,
                      le:1.2147180938720703e+02 }
            -
               depth: 5
               value: 2.8804322706686486e+02
            -
               depth: 5
               value: 2.6363610431604218e+02
            -
               depth: 3
               value: 1.4861278193638486e+02
               splits:
                  - { var:34, quality:6.6442225000000000e+06,
                      le:1.0410702514648438e+02 }
            -
               depth: 4
               value: 9.1634672312651361e+01
               splits:
                  - { var:31, quality:3.7814740625000000e+05,
                      le:2.8021398925781250e+02 }
            -
               depth: 5
               value: 1.2935064390843564e+02
            -
               depth: 5
               value: 2.7807643458247185e+01
            -
               depth: 4
               value: 1.5628291207804131e+02
               splits:
                  - { var:31, quality:6503409., le:2.8955670166015625e+02 }
            -
               depth: 5
               value: 1.7593637207662982e+02
            -
               depth: 5
               value: 1.2632569635203741e+02
      -
         nodes:
            -
               depth: 0
               value: 1.7260385064201208e+02
               splits:
                  - { var:1, quality:6.3364689920000000e+09,
                      le:5.0000000000000000e-01 }
            -
               depth: 1
               value: 1.7178348615364166e+02
               splits:
                  - { var:9, quality:6.0903644160000000e+09,
                      le:1.2250000000000000e+02 }
            -
               depth: 2
               value: 1.7216981904144939e+02
               splits:
                  - { var:21, quality:6.0727429120000000e+09,
                      le:1.8076536560058594e+02 }
            -
               depth: 3
               value: 1.6951037017305748e+02
               splits:
                  - { var:12, quality:5.5323156480000000e+09,
                      le:1.8000289916992188e+02 }
            -
               depth: 4
               value: 1.6094910441426407e+02
               splits:
                  - { var:0, quality:3.2115880960000000e+09,
                      le:1.8268615722656250e+02 }
            -
               depth: 5
               value: 1.4886395106952341e+02
            -
               depth: 5
               value: 1.7861566877358968e+02
            -
               depth: 4
               value: 1.8483436043135166e+02
               splits:
                  - { var:5, quality:2.3613952000000000e+09,
                      le:5.0000000000000000e-01 }
            -
               depth: 5
               value: 1.6199875875823903e+02
            -
               depth: 5
               value: 1.9402276846978475e+02
            -
               depth: 3
               value: 2.1309437054797175e+02
               splits:
                  - { var:7, quality:575184384.,
                      le:2.5000000000000000e+00 }
            -
               depth: 4
               value: 2.3697707537902664e+02
               splits:
                  - { var:5, quality:402952608.,
                      le:5.0000000000000000e-01 }
            -
               depth: 5
               value: 2.4454859309813659e+02
            -
               depth: 5
               value: 2.2318247414452529e+02
            -
               depth: 4
               value: 1.8077849448524458e+02
               splits:
                  - { var:24, quality:173480944.,
                      le:1.5547894287109375e+02 }
            -
               depth: 5
               value: 1.7610261322176700e+02
            -
               depth: 5
               value: 2.0102652009748380e+02
            -
               depth: 2
               value: 1.3546054278162424e+02
               splits:
                  - { var:18, quality:40414344.,
                      le:2.5740350341796875e+02 }
            -
               depth: 3
               value: 1.3049762098814412e+02
               splits:
                  - { var:0, quality:35240772., le:2.6190472412109375e+02 }
            -
               depth: 4
               value: 1.1601689047850766e+02
               splits:
                  - { var:7, quality:21357092., le:1.4500000000000000e+01 }
            -
               depth: 5
               value: 5.6853384935533676e+01
            -
               depth: 5
               value: 1.2414253897550111e+02
            -
               depth: 4
               value: 1.7925471800081021e+02
               splits:
                  - { var:3, quality:15045252., le:5. }
            -
               depth: 5
               value: 2.0856918434754706e+02
            -
               depth: 5
               value: 1.4738532110091742e+02
            -
               depth: 3
               value: 1.8905470367099929e+02
               splits:
                  - { var:15, quality:6948746., le:7.5157767534255981e-01 }
            -
               depth: 4
               value: 1.4645587158203125e+02
               splits:
                  - { var:13, quality:2254927., le:4.6472692871093750e+02 }
            -
               depth: 5
               value: 1.2553182670397636e+02
            -
               depth: 5
               value: 2.3235458213404604e+02
            -
               depth: 4
               value: 2.3654995324145787e+02
               splits:
                  - { var:9, quality:4.9855545000000000e+06,
                      le:1.4050000000000000e+02 }
            -
               depth: 5
               value: 2.5727039290919447e+02
            -
               depth: 5
               value: 1.7142857142857142e+02
            -
               depth: 1
               value: 1.9971122683566193e+02
               splits:
                  - { var:33, quality:252497552.,
                      le:1.3286483764648438e+02 }
            -
               depth: 2
               value: 1.8499081399004123e+02
               splits:
                  - { var:0, quality:159419232.,
                      le:1.8005235290527344e+02 }
            -
               depth: 3
               value: 1.1927446035150086e+02
               splits:
                  - { var:31, quality:14929022.,
                      le:6.5670181274414063e+01 }
            -
               depth: 4
               value: 1.8338378921009246e+02
               splits:
                  - { var:6, quality:7188723., le:27. }
            -
               depth: 5
               value: 1.9728424867294120e+02
            -
               depth: 5
               value: 1.4004706264944639e+02
            -
               depth: 4
               value: 1.0160653507551105e+02
               splits:
                  - { var:19, quality:8542471., le:1.2447662353515625e+01 }
            -
               depth: 5
               value: 8.5951858598757624e+01
            -
               depth: 5
               value: 1.5824800087321887e+02
            -
               depth: 3
               value: 2.0308608190410959e+02
               splits:
                  - { var:24, quality:146436400.,
                      le:1.7672939300537109e+01 }
            -
               depth: 4
               value: 1.9673445279760122e+02
               splits:
                  - { var:30, quality:118886712.,
                      le:2.1259527587890625e+02 }
            -
               depth: 5
               value: 2.1781717580590112e+02
            -
               depth: 5
               value: 1.6595161700453792e+02
            -
               depth: 4
               value: 2.4078406133586157e+02
               splits:
                  - { var:24, quality:29895922.,
                      le:1.9881842041015625e+02 }
            -
               depth: 5
               value: 2.5967666375705960e+02
            -
               depth: 5
               value: 2.0068074576693809e+02
            -
               depth: 2
               value: 2.3777630359096594e+02
               splits:
                  - { var:0, quality:102170560.,
                      le:2.6465747070312500e+02 }
            -
               depth: 3
               value: 2.6193246554135408e+02
               splits:
                  - { var:0, quality:98807624., le:1.7463621520996094e+02 }
            -
               depth: 4
               value: 1.2003576983294441e+02
               splits:
                  - { var:3, quality:3188481., le:3.4500083923339844e+01 }
            -
               depth: 5
               value: 1.0961159671436657e+02
            -
               depth: 5
               value: 2.2263157894736841e+02
            -
               depth: 4
               value: 2.8706636005204399e+02
               splits:
                  - { var:15, quality:95967000.,
                      le:1.3309320449829102e+01 }
            -
               depth: 5
               value: 2.9343521237668216e+02
            -
               depth: 5
               value: 2.6984611921249683e+02
            -
               depth: 3
               value: 1.4887903017676885e+02
               splits:
                  - { var:21, quality:8290959., le:2.2147087097167969e+02 }
            -
               depth: 4
               value: 1.4713585922448348e+02
               splits:
                  - { var:0, quality:8042918., le:3.1416455078125000e+02 }
            -
               depth: 5
               value: 1.6669903806528606e+02
            -
               depth: 5
               value: 1.2117702576264931e+02
            -
               depth: 4
               value: 2.1918692525227866e+02
      -
         nodes:
            -
               depth: 0
               value: 1.7273654804034464e+02
               splits:
                  - { var:24, quality:6.3445524480000000e+09,
                      le:1.8002832031250000e+02 }
            -
               depth: 1
               value: 1.7157820253404276e+02
               splits:
                  - { var:33, quality:5.7403315200000000e+09,
                      le:1.7984266662597656e+02 }
            -
               depth: 2
               value: 1.6605523098508687e+02
               splits:
                  - { var:0, quality:3.9011089920000000e+09,
                      le:1.8338992309570313e+02 }
            -
               depth: 3
               value: 1.5183740239596111e+02
               splits:
                  - { var:18, quality:1811811456.,
                      le:1.8018304443359375e+02 }
            -
               depth: 4
               value: 1.4928447360801258e+02
               splits:
                  - { var:33, quality:1573986560.,
                      le:3.7585083007812500e+01 }
            -
               depth: 5
               value: 1.5723709434477030e+02
            -
               depth: 5
               value: 1.3536170665296791e+02
            -
               depth: 4
               value: 1.7393825597559240e+02
               splits:
                  - { var:16, quality:250197296.,
                      le:2.1744818115234375e+02 }
            -
               depth: 5
               value: 1.8965576495985013e+02
            -
               depth: 5
               value: 1.3795611425717414e+02
            -
               depth: 3
               value: 1.8409817468608907e+02
               splits:
                  - { var:9, quality:2096546944.,
                      le:1.2250000000000000e+02 }
            -
               depth: 4
               value: 1.8517534030116826e+02
               splits:
                  - { var:22, quality:2068175104.,
                      le:2.7268104553222656e+01 }
            -
               depth: 5
               value: 1.8246587765240207e+02
            -
               depth: 5
               value: 1.9912299047514341e+02
            -
               depth: 4
               value: 1.4162626763288887e+02
               splits:
                  - { var:10, quality:31868750., le:4. }
            -
               depth: 5
               value: 2.3352224956859243e+02
            -
               depth: 5
               value: 1.3293696275071633e+02
            -
               depth: 2
               value: 1.8583592782705981e+02
               splits:
                  - { var:4, quality:1877516160.,
                      le:4.1500055789947510e-01 }
            -
               depth: 3
               value: 1.8800310511411396e+02
               splits:
                  - { var:0, quality:1742386688.,
                      le:1.8268234252929688e+02 }
            -
               depth: 4
               value: 1.7559465980791998e+02
               splits:
                  - { var:5, quality:942662272.,
                      le:5.0000000000000000e-01 }
            -
               depth: 5
               value: 1.5021577879103930e+02
            -
               depth: 5
               value: 1.8936680824298372e+02
            -
               depth: 4
               value: 2.0803874775946409e+02
               splits:
                  - { var:33, quality:818030400.,
                      le:2.5232070922851563e+02 }
            -
               depth: 5
               value: 2.3231965197875635e+02
            -
               depth: 5
               value: 1.9101232905339606e+02
            -
               depth: 3
               value: 1.6599162132577365e+02
               splits:
                  - { var:21, quality:154538064.,
                      le:1.8013165283203125e+02 }
            -
               depth: 4
               value: 1.4970204714143719e+02
               splits:
                  - { var:25, quality:102046832.,
                      le:2.6680730819702148e+01 }
            -
               depth: 5
               value: 1.5660611711915627e+02
            -
               depth: 5
               value: 8.9076154755033073e+01
            -
               depth: 4
               value: 2.4911307863625763e+02
               splits:
                  - { var:33, quality:55705372.,
                      le:2.4488284301757813e+02 }
            -
               depth: 5
               value: 3.0034876206341914e+02
            -
               depth: 5
               value: 2.1918699229453398e+02
            -
               depth: 1
               value: 1.8520891671375915e+02
               splits:
                  - { var:34, quality:622331008.,
                      le:5.0359870910644531e+01 }
            -
               depth: 2
               value: 1.7186898084024750e+02
               splits:
                  - { var:5, quality:250257808.,
                      le:5.0000000000000000e-01 }
            -
               depth: 3
               value: 2.1911500537698919e+02
               splits:
                  - { var:21, quality:40670972.,
                      le:8.8312282562255859e+00 }
            -
               depth: 4
               value: 2.3484113438212114e+02
               splits:
                  - { var:24, quality:39589348.,
                      le:2.1894288635253906e+02 }
            -
               depth: 5
               value: 3.0834367530383366e+02
            -
               depth: 5
               value: 2.0681920760358403e+02
            -
               depth: 4
               value: 1.3729183792171622e+02
               splits:
                  - { var:15, quality:2655748., le:1.5291859436035156e+02 }
            -
               depth: 5
               value: 1.6451911804676055e+02
            -
               depth: 5
               value: 9.6194056600894569e+01
            -
               depth: 3
               value: 1.6672541126479069e+02
               splits:
                  - { var:0, quality:213687056.,
                      le:1.8380371093750000e+02 }
            -
               depth: 4
               value: 1.4631129111335147e+02
               splits:
                  - { var:6, quality:80459200., le:37. }
            -
               depth: 5
               value: 1.7612996053829289e+02
            -
               depth: 5
               value: 1.3809145192755403e+02
            -
               depth: 4
               value: 1.8636779098585441e+02
               splits:
                  - { var:22, quality:135331936.,
                      le:4.1108503341674805e+00 }
            -
               depth: 5
               value: 1.7578810164865362e+02
            -
               depth: 5
               value: 2.1557267829935412e+02
            -
               depth: 2
               value: 1.9681540678883869e+02
               splits:
                  - { var:24, quality:377121248.,
                      le:2.7061505126953125e+02 }
            -
               depth: 3
               value: 2.1024731260357015e+02
               splits:
                  - { var:34, quality:271415552.,
                      le:5.2336657714843750e+02 }
            -
               depth: 4
               value: 2.1607778291384975e+02
               splits:
                  - { var:5, quality:247811200.,
                      le:5.0000000000000000e-01 }
            -
               depth: 5
               value: 2.5039039621211705e+02
            -
               depth: 5
               value: 1.8255095465294733e+02
            -
               depth: 4
               value: 1.7791129953371126e+02
               splits:
                  - { var:5, quality:31366704., le:5.0000000000000000e-01 }
            -
               depth: 5
               value: 2.5305295492220327e+02
            -
               depth: 5
               value: 1.5221630817960047e+02
            -
               depth: 3
               value: 1.7364309523374044e+02
               splits:
                  - { var:1, quality:108027688.,
                      le:5.0000000000000000e-01 }
            -
               depth: 4
               value: 1.7014130475959269e+02
               splits:
                  - { var:0, quality:100523920.,
                      le:1.5339321899414063e+02 }
            -
               depth: 5
               value: 1.3727340480975496e+02
            -
               depth: 5
               value: 1.8446231830916486e+02
            -
               depth: 4
               value: 2.6786056019565251e+02
               splits:
                  - { var:27, quality:9279375., le:1.7143869018554688e+02 }
            -
               depth: 5
               value: 2.8163698068824976e+02
            -
               depth: 5
               value: 1.7228664302825928e+02
      -
         nodes:
            -
               depth: 0
               value: 1.7280716178607872e+02
               splits:
                  - { var:24, quality:6.3489495040000000e+09,
                      le:1.8003063964843750e+02 }
            -
               depth: 1
               value: 1.7180503729081184e+02
               splits:
                  - { var:18, quality:5.7536880640000000e+09,
                      le:1.8001141357421875e+02 }
            -
               depth: 2
               value: 1.6827086354312095e+02
               splits:
                  - { var:18, quality:4.8339604480000000e+09,
                      le:4.8622253417968750e+01 }
            -
